tree
version=v4
num_class=1
num_tree_per_iteration=1
label_index=0
max_feature_idx=118
objective=binary sigmoid:1
feature_names=temp_c dew_c slp_hpa ceiling_m precip_mm vis_km wind_knots ceiling_unknown hour_sin hour_cos doy_sin doy_cos wind_dir_sin wind_dir_cos dew_depression temp_c_lag1 temp_c_lag2 temp_c_lag3 temp_c_lag6 temp_c_lag12 dew_c_lag1 dew_c_lag2 dew_c_lag3 dew_c_lag6 dew_c_lag12 vis_km_lag1 vis_km_lag2 vis_km_lag3 vis_km_lag6 vis_km_lag12 wind_knots_lag1 wind_knots_lag2 wind_knots_lag3 wind_knots_lag6 wind_knots_lag12 slp_hpa_lag1 slp_hpa_lag2 slp_hpa_lag3 slp_hpa_lag6 slp_hpa_lag12 ceiling_m_lag1 ceiling_m_lag2 ceiling_m_lag3 ceiling_m_lag6 ceiling_m_lag12 precip_mm_lag1 precip_mm_lag2 precip_mm_lag3 precip_mm_lag6 precip_mm_lag12 dew_depression_lag1 dew_depression_lag2 dew_depression_lag3 dew_depression_lag6 dew_depression_lag12 temp_c_rollmean3 temp_c_rollstd3 temp_c_rollmean6 temp_c_rollstd6 temp_c_rollmean12 temp_c_rollstd12 dew_c_rollmean3 dew_c_rollstd3 dew_c_rollmean6 dew_c_rollstd6 dew_c_rollmean12 dew_c_rollstd12 vis_km_rollmean3 vis_km_rollstd3 vis_km_rollmean6 vis_km_rollstd6 vis_km_rollmean12 vis_km_rollstd12 wind_knots_rollmean3 wind_knots_rollstd3 wind_knots_rollmean6 wind_knots_rollstd6 wind_knots_rollmean12 wind_knots_rollstd12 slp_hpa_rollmean3 slp_hpa_rollstd3 slp_hpa_rollmean6 slp_hpa_rollstd6 slp_hpa_rollmean12 slp_hpa_rollstd12 ceiling_m_rollmean3 ceiling_m_rollstd3 ceiling_m_rollmean6 ceiling_m_rollstd6 ceiling_m_rollmean12 ceiling_m_rollstd12 precip_mm_rollmean3 precip_mm_rollstd3 precip_mm_rollmean6 precip_mm_rollstd6 precip_mm_rollmean12 precip_mm_rollstd12 dew_depression_rollmean3 dew_depression_rollstd3 dew_depression_rollmean6 dew_depression_rollstd6 dew_depression_rollmean12 dew_depression_rollstd12 slp_delta_3h slp_delta_6h wind_accel_1h wind_spike dew_depression_min_3h dew_depression_min_6h calm_and_saturated dew_depression_x_hour_sin pressure_drop_x_wind lat lon elev_m coastal wind_dir_sin_coastal wind_dir_cos_coastal calm_and_saturated_coastal
feature_infos=[-26.699999999999999:42.799999999999997] [-30.600000000000001:26.100000000000001] [979.5:1044.2] [0:22000] [0:122] [0:16] [0:53.066954642520002] [0:1] [-1:1] [-1:1] [-0.9999994220246925:0.99998555065071859] [-0.99997919295908233:0.9999907524084426] [-1:1] [-1:1] [0:46.200000000000003] [-26.699999999999999:42.799999999999997] [-26.699999999999999:42.799999999999997] [-26.699999999999999:42.799999999999997] [-26.699999999999999:42.799999999999997] [-26.699999999999999:42.799999999999997] [-30.600000000000001:26.100000000000001] [-30.600000000000001:26.100000000000001] [-30.600000000000001:26.100000000000001] [-30.600000000000001:26.100000000000001] [-30.600000000000001:26.100000000000001] [0:16] [0:16] [0:16] [0:16] [0:16] [0:53.066954642520002] [0:53.066954642520002] [0:53.066954642520002] [0:53.066954642520002] [0:53.066954642520002] [979.5:1044.2] [979.5:1044.2] [979.5:1044.2] [979.5:1044.2] [979.5:1044.2] [0:22000] [0:22000] [0:22000] [0:22000] [0:22000] [0:122] [0:122] [0:122] [0:122] [0:122] [0:46.200000000000003] [0:46.200000000000003] [0:46.200000000000003] [0:46.200000000000003] [0:46.200000000000003] [-24.800000000000043:42.233333333333285] [0:10.072404545754368] [-24.333333333333332:41.583333333333336] [0:11.027783095436773] [-24.291666666666661:39.450000000000003] [0:12.479425491826992] [-28.366666666666664:25.766666666666648] [0:15.91550606588849] [-27.049999999999997:25.600000000000001] [0:13.204001918610386] [-27.041666666666668:25.150000000000006] [0:12.342412710452985] [0:16] [0:9.2376043070340135] [0:16] [0:8.6729188089516143] [0.10866666666666534:16] [0:8.2275355541896324] [0:42.375809934319975] [0:28.005081229945695] [0:39.038876889033332] [0:21.081080898798724] [0.24298056154999881:35.134989200130001] [0.43956837491427375:16.056143740606522] [979.53333333333364:1043.8333333333333] [0:5.2595944076832923] [983.2833333333333:1043.3166666666666] [0:7.8675070172595456] [985.14166666666654:1042.1833333333334] [0.098473193899009492:8.8901716246192706] [20:22000] [0:12701.705922171768] [35:22000] [0:12038.946797789251] [42.833333333333336:22000] [0:11468.240730580495] [0:58.899999999999999] [0:69.859668860747774] [0:36.949999999999996] [0:48.889579666836987] [0:25.304166666666664] [0:36.047468704473559] [0:43.20000000000001] [0:15.928695280321399] [0:42.733333333333327] [0:16.174506690056088] [0:38.975000000000001] [0:17.510643949185653] [-9.0999999999999091:15.299999999999955] [-13.100000000000023:19.699999999999932] [-48.984881208480004:48.012958962280003] [0:1] [0:42.800000000000004] [0:41.700000000000003] [0:1] [-40.858662452027602:32.200000000000003] [-383.6565874649869:254.72138228409347] [32.899799999999999:39.856099999999998] [-122.379:-97.040300000000002] [4:1655] [0:1] [-1:1] [-1:1] [0:1]
tree_sizes=6700 6775 6770 6797 6776 6811 6800 6800 6856 6848 6817 6832 6850 6879 6833 6902 6890 6829 6912 6891 6895 6892 6883 6911 6885 6901 6873 6919 6937 6849 6932 6939 6937 6924 6938 6937 6949 6968 6928 6942 6937 6944 6937 6914 6914 6968 6965 6901 6930 6949 6928 6948 6953 6943 6984 6957 6961 6906 6954 6971 6938 6916 6979 6911 6954 6958 6984 6980 6988 6989 6992 6966 6939 6978 6936 6966 6946 6963 6952 6946 6959 6966 6957 6990 6963 6949 6918 6971 6939 6998 6977 6962 6957 6942 6972 6958 6945 6991 6936 6979 6943 6949 6919 6977 6956 6946 6952 6961 7001 6950 6965 6980 6982 6950 6926 6975 6981 6960 6954 6975 6923 6968 6984 6966 6972 6954 6959 6950 6987 6934 6951 6956 6948 6954 6973 6925 6957 6920 6948 6929 6936 6943 6943 6950 6945 6961 6906 6928 6947 6945 6961 6983 6944 6922 6934 6948 6973 7016 6985 7021 6945 6932 7002 6908 6950 6959 6963 6911 6944 6962 6980 6961 6903 6957 6980 6932 6998 6942 6930 6959 6915 6953 6931 6934 6980 6968 6948 6935 6973 6973 6981 6959 6920 6945 6891 6919 6969 6947 6963 6938 6930 6997 6985 6975 6964 6922 6954 6944 6956 6931 6945 6909 6928 6994 6997 6959 6966 6929 6939

Tree=0
num_leaves=63
num_cat=0
split_feature=67 6 14 2 25 6 6 86 3 14 11 19 55 14 67 6 104 80 82 56 36 10 22 97 11 58 24 3 2 104 18 86 6 80 79 2 12 24 66 108 101 2 25 79 40 84 3 3 90 51 90 82 6 30 2 112 50 3 77 10 79 79
split_gain=340403 255273 61329.8 23123 19840.4 11744.8 11364.5 9631.42 8874.55 7960.8 6596.75 5044.94 4932.72 4866.32 4709.01 5545.9 3136.13 3009.37 2986.69 2806.29 2752.81 2456.93 2405.9 2399.15 2161.72 2145.16 2116.29 2099.98 2613.57 2531.64 2093.47 2044.6 2017.11 1975.35 1870.37 2020.76 1859.93 1699.97 1636.08 1619.15 1573.59 1438.42 1396.18 1361.1 1350.94 1327.61 1317.88 1313.56 1600.45 1307.5 1417.85 1301.39 1263.69 1208.4 1205.82 1205.43 1163.42 1139.48 1117.11 1103.57 1096.67 1091.13
threshold=13.379999999999908 18.320734340870008 1.7000000000000008 1006.0500000000001 6.4365000000000014 21.479481641020005 15.502159826890002 10431.880542635754 198.00000000000003 1.4000000000000006 -0.6391983530350368 19.550000000000001 -0.73333333333335216 1.1000000000000012 3.3506666666666609 18.320734340870008 -3.9999999999999427 0.39999999999826957 1.4716204220560438 1.4742229591664098 1008.6500000000002 -0.29343379936893921 -4.8499999999999988 2.2333333333333432 0.16587474750015932 3.5098433013455028 11.250000000000002 594.50000000000011 1014.4500000000002 0.80000000000001148 15.725000000000003 10414.293822956339 15.502159826890002 0.32145502537440024 1014.166666666667 1019.5500000000001 0.60818202301879276 8.4500000000000011 0.68224229233955913 1.7000000000000022 3.7166666666666681 1022.9500000000002 2.9110000000000005 999.70000000000061 8839.0000000000018 0.99128780658337279 167.50000000000003 777.00000000000011 9804.8500128412688 3.2999999999999985 8305.6653906775264 1.3784048752139244 24.346652267310002 15.502159826890002 1016.4500000000002 35.260550000000002 5.6000000000000005 2972.0000000000005 14.538336932741668 0.52766072109828632 1015.3666666666672 1017.4000000000004
decision_type=10 10 8 10 8 10 10 2 2 8 2 8 10 10 8 10 10 8 10 10 8 2 8 8 2 10 10 2 10 10 8 2 10 10 10 8 2 10 10 8 10 10 10 10 2 8 2 2 2 10 2 10 10 10 8 2 10 2 10 2 8 8
left_child=4 2 8 11 42 21 7 20 -2 46 -11 31 36 38 -12 19 -15 23 58 22 25 24 -16 40 -3 57 45 29 49 -19 41 32 33 -4 47 -36 -9 59 54 -22 -14 -8 -1 -35 -32 -18 -6 -24 -49 -29 -51 -45 -7 -41 -10 -48 -33 -5 -13 -37 -52 -46
right_child=1 5 3 6 9 52 30 12 13 10 14 18 17 16 15 -17 26 27 -20 -21 39 -23 34 -25 -26 -27 -28 28 -30 -31 44 56 -34 43 35 37 -38 -39 -40 53 -42 -43 -44 51 61 -47 55 48 -50 50 60 -53 -54 -55 -56 -57 -58 -59 -60 -61 -62 -63
leaf_value=-1.9378690902974252 -2.0118787142562247 -3.0402267157524419 -3.1571316200887947 -2.5312495152035002 -1.9650992501371458 -2.092228920088008 -2.644137769597346 -2.8397550723096145 -2.9680965810496494 -3.0831905830657869 -1.9649537435402238 -3.2462695206301295 -3.0384284412061602 -2.226495133389137 -2.2237137520544872 -2.0245678288645754 -2.9828282956933512 -2.328728769922332 -2.4624797723199943 -3.0730672354079069 -3.0718043323491733 -2.3178759606282506 -2.2586114479114299 -3.2079940148593353 -2.3880386402506542 -2.6248535750182933 -3.1367798442979282 -3.3089111955658845 -3.1430085846559677 -3.1327503795029128 -2.7360988950059437 -2.6684365001126062 -2.3261767291642892 -2.3884846390631855 -3.0257960593253275 -3.2009727986725061 -2.2463933000988723 -2.302427232460853 -2.2390214155424792 -3.2496586537166516 -2.3304068255844839 -3.2052783878670534 -2.0564795550692931 -2.6532166566333419 -3.1559972119437272 -2.5517912231194533 -2.3220999399550712 -2.9182918987117734 -2.3605373069768523 -3.2186513206628375 -2.7812946084632557 -3.0657351097035983 -1.954104616004791 -3.0609369471785723 -2.4077194947273148 -2.0759606356550964 -2.235223981540357 -3.1325480741707419 -2.7964194439904153 -2.5152501411780235 -2.3800708930036243 -2.7196135303278464
leaf_weight=1042.7917346134782 98.11519630625844 24.165093351155519 25.666637357324362 8.3491133749484998 121.75676520913839 278.56360846757889 128.92327782139182 24.910713911056519 15.240627039223908 34.517639119178057 62.804229293018579 62.189769446849823 19.203547529876232 22.793993826955557 65.813499037176371 66.730417508631945 27.876039359718561 29.145856540650129 19.944016646593809 22.024004455655813 153.34688550233841 262.06073438376188 54.400196563452482 231.61594258248806 26.792616304010153 28.47473081946373 45.263937026262283 11.888761471956967 117.40837894752622 14.742859806865452 43.072722103446722 22.302408326417208 33.034282192587852 31.038061819970608 36.693399712443352 12.030539128929378 28.109468646347523 30.964597269892693 97.098383896052837 1797.0821078494191 13.270836055278776 12.530366938561199 325.56422124803066 67.334618527442217 76.428680289536715 49.738690674304962 81.586565006524324 23.270483113825321 28.754164978861809 14.386870231479405 71.374094434082508 26.699934385716915 408.31313936039805 89.023239180445671 25.936798918992281 127.43853249028325 50.79635651409626 139.89650922641158 17.736675221472979 11.453125614672897 22.368660856038332 17.628538973629475
leaf_count=1715 301 552 644 109 264 1285 1963 473 327 817 136 1667 438 164 470 221 606 267 234 517 3596 2346 425 6038 276 423 1118 333 2914 363 732 350 301 320 828 312 213 268 722 48288 122 326 1278 1037 1916 669 737 477 281 378 1275 623 799 2069 277 548 374 3444 322 146 227 294
internal_value=-2.60443 -2.83726 -3.0229 -3.08947 -2.08082 -2.1258 -3.13343 -3.16358 -2.42182 -2.28203 -2.41905 -2.7083 -2.98559 -2.56348 -2.3638 -2.43493 -2.76514 -3.03035 -3.00986 -2.53088 -3.21164 -2.37965 -2.48554 -3.15156 -2.69732 -3.02234 -2.86506 -2.91655 -2.97528 -2.59881 -2.8288 -2.59106 -2.68003 -2.75758 -2.57276 -2.739 -2.52518 -2.54573 -2.35102 -3.22805 -2.74909 -2.69385 -1.96609 -2.67558 -2.96801 -2.7066 -2.09586 -2.43039 -2.61002 -2.81121 -2.75649 -2.77035 -2.01012 -3.24075 -2.61513 -2.17203 -2.3674 -3.09868 -3.14644 -2.86654 -2.68556 -3.07421
internal_weight=6980.48 4831.88 3831.99 3449.92 2148.59 999.895 3093.18 2814.6 382.064 780.238 449.456 356.743 598.426 283.948 414.939 352.134 145.673 545.406 99.8705 285.404 2216.17 313.018 263.38 264.09 50.9577 176.72 122.879 281.315 237.427 43.8887 278.584 256.872 183.774 150.739 197.567 91.1417 53.0202 54.4483 138.276 2039.45 32.4744 141.454 1368.36 125.073 137.13 77.6147 330.782 106.425 52.0246 120.018 108.13 94.0346 686.877 1886.11 41.1774 209.025 73.0988 148.246 79.9264 23.4837 93.7428 94.0572
internal_count=100955 91515 86257 82073 9440 5258 76201 70970 4184 6447 4898 5872 13041 3883 4081 3945 2557 12355 2223 3724 57929 3174 3207 6598 828 3976 2393 5757 5127 630 5231 3649 2925 2624 2737 1554 686 726 1326 53953 560 2289 2993 1980 2942 1275 1549 1183 758 2213 1880 1660 2084 50357 604 1285 724 3553 1989 458 1502 2210
is_linear=0
shrinkage=1


Tree=1
num_leaves=63
num_cat=0
split_feature=5 6 67 2 97 3 6 8 88 100 39 19 24 112 19 88 86 3 36 67 5 80 103 6 20 80 36 55 97 20 78 13 89 110 76 15 110 41 30 3 101 73 82 12 95 51 66 73 36 50 3 10 59 18 33 112 23 75 78 76 37 37
split_gain=30713.5 37079 18288.6 7566.54 4683.23 3000.97 1782.16 1769.32 1574.92 1557.81 1483.95 1386.7 1244.68 1168.99 988.054 978.444 946.489 907.771 998.676 844.937 949.161 838.66 808.142 784.343 770.79 748.891 739 725.754 882.921 722.818 717.187 712.315 832.622 1183.34 707.313 675.982 663.995 998.208 760.715 653.978 644.188 850.467 964.588 640.841 634.172 797.892 630.716 629.749 612.935 588.249 600.152 575.776 579.917 557.065 549.815 548.375 1915.13 885.234 617.626 517.886 498.559 655.233
threshold=14.765250000000002 15.98812094999 12.582999999999974 1007.0500000000001 1.7000000000000044 5638.5000000000009 14.530237580690002 -0.70710678118654735 8332.9084908411769 4.1873221355262009 1005.0500000000001 20.300000000000004 1.0000000180025095e-35 35.260550000000002 16.050000000000004 8768.5728798674754 11944.718511825164 2545.0000000000005 1017.0500000000001 15.333333333333272 8.011750000000001 0.90184995056386452 -0.14999999999997723 19.292656587070002 22.250000000000004 0.80829037687878713 1009.4500000000002 24.799999999999969 5.5333333333333385 20.150000000000002 3.6633432891274667 -0.84258872403671514 19450.958333333339 -16.893673722077509 5.3520479054513102 10.150000000000002 -5.2999999999999989 5638.5000000000009 21.479481641020005 472.50000000000006 3.0916666666666681 1.9438444924000029 1.3608820668396062 -0.67494719543654347 0.40000000000000097 1.1000000000000012 0.9343203655356892 7.645788336773311 1003.6500000000002 3.9000000000000017 242.00000000000003 -0.99763297024448894 15.487500000000002 21.350000000000005 8.2127429803900025 38.738700000000001 13.025000000000002 14.514038876586666 3.5903366357283493 3.1792407149263502 1012.7500000000001 1012.5500000000001
decision_type=8 10 10 10 10 2 10 2 2 10 8 8 8 2 10 2 2 2 8 10 10 10 10 10 10 10 10 10 10 10 8 2 2 8 10 10 10 2 10 2 8 10 10 2 2 10 10 10 10 10 2 2 8 10 8 2 10 10 10 10 8 8
left_child=19 2 44 11 13 9 8 14 10 12 25 31 17 46 -8 -11 51 18 -6 20 -1 24 29 26 60 -7 -3 28 -23 39 -15 35 -33 -34 -9 -4 43 -38 -39 49 41 -12 -43 -28 -2 -46 -5 -20 -47 50 -14 -13 -53 -22 -32 -42 57 -57 -58 -45 61 -10
right_child=1 23 3 4 5 6 7 34 21 15 40 16 22 30 -16 -17 -18 -19 47 -21 53 27 -24 -25 -26 -27 36 -29 -30 -31 54 32 33 -35 -36 -37 37 38 -40 -41 55 42 -44 59 45 48 -48 -49 -50 -51 -52 52 -54 -55 -56 56 58 -59 -60 -61 -62 -63
leaf_value=0.39831343285618415 0.37119675150075682 0.40414825274602528 -0.053442984072718538 -0.053387333809563509 0.51565012311268776 0.099720097567749202 0.44191897009409536 0.0091053170866933139 0.10355837503780214 0.69964717186587255 0.43370016127607153 0.442239221336032 0.38698609276740775 0.40892527515486343 0.021295712360837896 0.20833051042968254 0.45164875831380452 0.056336215532653222 0.31454976138357388 0.45997847439400008 0.34695753747343516 0.37967842259219037 0.049567692673054997 0.38963640487520323 0.40622620360297557 0.57089419008635356 0.44730376299341429 0.56465150357113625 0.016210295950195148 0.413376852329637 0.32352165649120418 0.36901428081714083 0.40205058752430295 -0.017357062778281966 0.33170923242356554 0.26074990348399946 0.38096960886825992 0.12076827037478528 0.39032949088601687 0.083077389834537024 -0.029931609165339837 -0.05240887235024469 0.50756933113730585 0.056744976755798121 0.33932393716215442 0.32757943132722867 0.25687850554621727 -0.05271221637835502 -0.017517352508381306 0.48801276040632885 0.0016586879981321891 0.39006767310674517 0.019368632357967101 0.18555617835736399 0.0044474178846292279 -0.00069280335431931941 0.22820338987268399 0.39599190895945729 0.7205352921910011 0.36121767510970676 0.030134968640436202 0.44436273496226869
leaf_weight=4344.5040538087487 817.3815008699894 206.71514857560396 22.642838180065155 32.206939976662397 47.877873830497265 17.075023159384727 68.189559228718281 105.3058216124773 141.42263586074114 20.720293946564198 18.672700978815556 10.467913839966057 17.613090377300978 140.06722770631313 17.556124519556761 19.832536250352859 20.563034664839506 35.842746499925852 38.753341287374496 476.29681196808815 528.8786946721375 30.011951617896557 292.28593710809946 2556.2530669383705 16.976195834577084 16.663055293262005 98.400623049587011 14.724801894277332 37.69193521887064 27.836659662425518 34.318227525800467 343.6241080313921 31.354547183960676 36.275855928659439 20.259566336870193 70.175198074430227 83.547481875866652 141.49964119493961 32.112305633723736 143.61332489922643 1058.3595761805773 45.263730119913816 9.2642035856842977 23.501299541443586 118.20908250287175 20.342626553028822 33.331104002892971 16.703160855919123 35.012646444141865 21.577250581234694 23.705776389688253 11.691423647105696 108.0878691598773 59.471901677548885 22.257699690759182 480.66657944768667 13.892968855798246 14.487845197319983 11.76423731818795 34.422479704022408 345.97069764137268 15.665716495364903
leaf_count=3022 2272 1138 410 619 299 367 660 2275 2905 204 201 72 82 804 362 259 166 815 363 1397 2029 377 6321 4047 231 185 502 146 813 325 239 2399 259 681 271 742 540 2007 170 3008 28274 1076 94 338 352 102 256 378 493 162 471 94 2295 647 361 12565 284 244 128 284 7891 182
internal_value=0.303698 0.243227 0.159894 0.113542 0.0841104 0.0674962 0.0417831 0.180716 0.028955 0.158498 0.00416138 0.269418 0.140173 0.287287 0.355798 0.459367 0.1364 0.273155 0.348361 0.396383 0.390242 0.0983445 0.105028 0.377398 0.0748579 0.33243 0.326957 0.246519 0.177329 0.174201 0.348238 0.309215 0.337452 0.177087 0.0611564 0.184103 0.288366 0.238965 0.170628 0.141961 -0.0025412 0.142463 0.0427305 0.369632 0.352765 0.265963 0.104407 0.203933 0.109303 0.276413 0.165913 0.0866297 0.0555518 0.330643 0.197994 -0.00926269 0.0327393 0.0109139 0.453945 0.237685 0.0636756 0.137545
internal_weight=13699.9 8290.71 5114.26 4123.31 3468.43 3206.25 2499.88 211.311 2288.57 706.362 1686.11 654.883 665.809 262.181 85.7457 40.5528 150.81 139.177 103.334 5409.15 4932.85 602.464 526.632 3176.45 520.035 33.7381 620.199 82.4287 67.7039 234.346 196.643 504.073 411.255 67.6304 125.565 92.818 413.484 257.159 173.612 206.509 1652.37 73.2006 54.5279 156.324 990.946 173.564 65.538 55.4565 55.3553 62.8961 41.3189 130.247 119.779 588.351 56.5759 1579.17 520.812 495.154 25.6572 57.9238 503.059 157.088
internal_count=100955 93860 84834 81615 74497 72218 59531 3568 55963 12687 43418 7118 12224 2279 1022 463 2627 1855 1040 7095 5698 12545 10369 9026 11209 552 4979 1336 1190 4048 1404 4491 3339 940 2546 1152 3841 2717 2177 3723 42866 1371 1170 1124 3219 947 875 741 595 715 553 2461 2389 2676 600 41495 13221 12809 412 622 10978 3087
is_linear=0
shrinkage=0.05


Tree=2
num_leaves=63
num_cat=0
split_feature=5 30 67 79 3 105 14 13 30 85 107 110 86 4 11 111 11 30 18 21 101 98 76 17 9 84 73 50 12 104 31 14 75 24 91 84 3 44 71 86 105 33 101 64 34 112 74 3 20 105 116 88 103 90 33 38 19 44 73 90 55 81
split_gain=14306.8 15368.5 8584.91 5196.36 3730.67 2145.54 1935.46 1303.41 1188.5 1159.17 1035.46 911.727 793.192 924.304 779.792 759.775 728.162 710.212 671.907 613.241 608.495 606.374 620.419 600.472 600.155 595.713 565.859 537.395 530.397 768.096 654.355 507.589 917.81 561.96 506.683 499.909 494.133 487.662 669.59 486.029 482.331 480.635 473.97 555.937 449.412 441.922 440.313 433.596 906.661 432.731 527.603 432.364 426.968 424.768 423.919 420.613 622.852 482.299 460.234 416.371 409.013 407.615
threshold=14.765250000000002 15.98812094999 12.812333333333328 1008.333333333333 5334.0000000000009 2.9157667385999999 1.7000000000000008 -0.46130913087034942 11.322894168230002 16038.16666666667 18.850000000000005 0.80658639918226538 9367.184667844569 1.9000000000000001 -0.16799793862756093 17.961123109775215 -0.52765736634565841 15.502159826890002 17.650000000000002 23.025000000000002 13.279166666666669 3.0746273486934119 5.3520479054513102 7.3500000000000005 -0.12940952255126037 0.6593729802779974 9.9946004317566395 1.7 0.60818202301879276 -1.3000000000000111 13.752699783730002 3.9500000000000015 9.6625269976383326 -7.4999999999999991 0.83333333333333537 0.79938423259988445 716.50000000000011 1265.0000000000002 10.694583333333334 11734.284204249516 1.7494600431599985 6.7548596110900005 3.0916666666666681 1.6883917396939898 24.346652267310002 35.260550000000002 2.3567861959948533 1173.5000000000002 -3.5999999999999992 3.9362850971100003 0.4210100716628345 11187.76798412288 -0.74999999999999989 6310.6849145642782 11.322894168230002 1008.5500000000001 23.450000000000006 564.00000000000011 22.354211662599994 10017.296662469105 20.949999999999978 1012.575
decision_type=8 10 10 10 2 10 8 2 10 2 8 10 2 2 2 8 2 10 10 10 8 10 10 10 2 8 10 8 2 8 10 10 10 10 2 8 2 2 8 2 10 10 8 10 10 2 10 2 10 10 2 2 8 2 10 8 10 2 10 2 8 8
left_child=31 2 36 7 9 6 26 10 21 11 20 14 13 17 15 51 24 42 -3 28 49 22 27 -23 -9 -19 45 -7 29 30 46 -1 33 -33 40 -26 -2 38 -16 61 -13 -11 43 -8 -44 -6 -14 -39 -49 50 54 -5 -12 -18 -4 -20 57 58 -57 -41 -10 -30
right_child=1 18 3 4 5 8 12 16 60 41 52 34 19 -15 37 -17 53 25 55 -21 -22 23 -24 -25 35 -27 -28 -29 39 -31 -32 32 -34 -35 -36 -37 -38 47 -40 59 -42 -43 44 -45 -46 -47 -48 48 -50 -51 -52 -53 -54 -55 -56 56 -58 -59 -60 -61 -62 -63
leaf_value=0.28275868523282671 0.27698190915487236 0.28277167009627957 -0.021259544950391535 0.0017825567740133851 0.032637476319855509 0.29560789668547433 0.044649528011646025 -0.020350403637031028 0.24200769411121567 0.37280840237482821 0.32421416027070671 0.00067234166808147579 -0.052605302975635954 0.48910887948706994 0.34000672601998516 0.28593932754008816 0.17210755578627557 0.30815054139413056 0.27594686977189459 0.4048566406638669 -0.037063033528625465 0.52602152982075201 0.31450207612906378 0.13281357463078616 0.36924429587858043 0.029386088390493222 -0.053946484396995488 0.018290899591459655 0.25426374785961364 -0.023714763115025447 0.42068657206008669 0.23846200618526292 0.27591245378291379 -0.054186563635607338 0.33557689742333313 0.14857898670047437 0.21537402658316507 0.30010013374987771 0.017845487372078056 0.42911879379177881 0.14309918636225119 0.20322914150532392 -0.021112348851875976 0.37479306159349973 0.22608693839661848 0.24315234652936515 0.24720113831597593 0.33527173761016305 0.0060050523365036586 0.2532060716540479 0.3666959288263632 0.21923201195764841 0.12760894715299351 0.286704331588366 0.14174376126170393 -0.054789342292760813 0.032022771097476116 0.23723343745326259 0.25495098550629752 0.12675533209836409 0.070337107895819082 -0.052731453160588818
leaf_weight=6984.2874971479177 814.80697021260858 2584.7035489790142 80.015565659850836 117.44763389602304 29.99372909963131 18.579663071781397 80.020452726632357 39.133447214961052 221.30267093703151 81.798617132008076 78.565470553934574 168.48457936942577 28.324793189764023 9.5869258493185026 22.98747630417347 41.784253060817719 96.911727879196405 32.240825910121202 431.08858967199922 14.124204348772762 79.070624489337206 13.452409341931341 21.185967292636633 34.894357614219189 33.618749231100082 47.25312190130353 23.402164220809937 292.37160936743021 16.894224535673857 180.02523420006037 19.172992318868637 26.300804726779461 147.43932072073221 43.594414800405502 16.631604537367821 108.50352652743459 541.94894854351878 182.26480329781771 54.057275149971247 24.200360283255577 91.848083559423685 85.415754623711109 1426.9564871750772 15.168633822351692 18.626104105263948 147.66209981963038 21.575039137154818 39.889891069382429 43.932628393173218 50.420284084975719 15.373422257602213 28.384573429822922 42.582350831478834 488.28114249184728 79.533261675387621 28.66506889462471 44.3610914722085 628.03773703426123 20.619728993624449 21.501961819827557 41.147678263485432 30.035850562155247
leaf_count=5931 1168 4657 1408 2243 480 193 1592 729 939 471 363 3317 638 114 112 240 920 286 1054 70 1498 133 279 621 157 862 406 6501 237 4052 179 97 353 714 132 1200 2395 1059 862 194 1152 935 37909 153 317 943 265 259 882 342 60 303 481 2351 998 457 538 2305 28 288 443 690
internal_value=0.226582 0.188162 0.140835 0.110549 0.0820079 0.052946 0.0293385 0.201644 0.133241 0.166359 0.131477 0.141553 0.0143705 -0.000395525 0.179927 0.0979654 0.240603 -0.00329187 0.268614 0.0820005 0.0822755 0.0767805 0.0526983 0.242223 0.153035 0.142446 0.177167 0.0348609 0.0686564 0.0306703 0.172415 0.280417 0.205167 0.0559339 0.0680154 0.200777 0.252373 0.224742 0.113967 0.170805 0.050922 0.286185 -0.010811 0.0972588 -0.0179272 0.207611 0.0770211 0.256816 0.162698 0.12415 0.0869507 0.0441066 0.255109 0.267726 0.0599957 0.236869 0.213527 0.225414 0.0747995 0.286863 0.215093 0.0577829
internal_weight=17292.5 10090.9 6353.39 4996.64 3804.63 2829.7 2186.77 1192.01 642.934 974.927 425.561 807.713 1985.71 1629.85 530.749 187.616 766.449 1620.27 3737.48 355.855 304.413 380.484 332.137 48.3468 181.256 79.4939 201.058 310.951 341.73 249.098 69.0728 7201.62 217.335 69.8952 276.964 142.122 1356.76 343.132 77.0448 92.6324 260.333 167.214 1540.77 95.1891 1445.58 177.656 49.8998 266.087 83.8225 225.343 174.922 145.832 121.148 585.193 159.549 1152.77 721.684 677.323 49.2848 45.7023 262.45 46.9301
internal_count=100955 93860 84821 81258 70751 58784 49675 10507 9109 11967 5150 10561 47846 41233 5960 2786 5357 41119 9039 6613 4306 7727 6973 754 2086 1148 1829 6694 6543 5134 1082 7095 1164 811 4601 1357 3563 3174 974 1409 4469 1406 39971 1745 38226 1423 903 2200 1141 2808 2466 2546 844 3271 2406 4382 3328 2790 485 482 1382 927
is_linear=0
shrinkage=0.05


Tree=3
num_leaves=63
num_cat=0
split_feature=5 6 69 35 14 89 77 110 80 0 6 110 10 3 6 2 11 110 56 19 76 100 14 88 24 82 75 95 98 6 37 39 16 76 59 110 39 20 98 24 52 12 19 52 64 95 4 57 53 36 15 100 107 62 51 104 77 87 52 111 75 100
split_gain=8809.26 11954.6 6140.78 2857.48 2287.26 1770.28 1191.95 894.002 946.926 888.57 745.662 865.891 751.783 693.072 633.845 597.875 597.331 761.352 584.407 573.027 572.243 529.403 506.186 762.581 492.85 481.68 474.639 464.929 464.782 445.826 441.892 434.894 513.381 486.443 880.38 428.887 561.652 482.568 412.325 409.546 459.187 464.867 399.471 475.604 594.538 395.718 419.989 393.202 581.539 490.444 361.437 358.882 357.866 329.427 490.603 404.081 317.738 315.608 382.623 314.19 305.031 301.295
threshold=14.765250000000002 15.98812094999 14.406166666666671 1006.85 2.2999999999999998 16902.916666666668 10.047246220092502 4.2732348921868741 0.30550504635558889 31.850000000000005 11.322894168230002 -4.6369418793280461 0.82899317702918729 716.50000000000011 7.7267818572900007 1019.2500000000001 -0.20180761162458913 0.30000000000000049 1.9553345834750113 -3.5999999999999992 0.95558625508288408 3.1224456226917243 2.2000000000000011 8732.8723090782387 18.600000000000005 0.35777087673007085 12.634989200600002 0.25000000000000216 0.05773502692035079 20.507559394820003 1008.0500000000001 1005.0500000000001 -0.84999999999999998 5.4533990522084457 22.545833333333338 -1.8634971247381522 1010.7500000000001 10.150000000000002 3.7634204300520762 1.0500000000000003 3.9500000000000015 0.67494719543654369 17.650000000000002 7.4999999999999991 0.4665476038595639 0.40000000000000008 2.9000000000000004 21.325000000000006 5.2500000000000027 1002.6500000000002 17.650000000000002 7.8015169370319528 2.7999999999999985 0.34641016151377108 3.8999999999999999 -1.0000000180025095e-35 10.683045356148336 11563.91666666667 14.750000000000005 -8.436285097015519 10.188984880996669 0.24494897428027071
decision_type=8 10 10 10 8 2 8 8 8 10 10 8 2 2 10 10 2 8 10 10 8 10 8 2 10 8 10 2 10 10 10 10 10 10 10 10 8 8 10 10 8 2 10 10 10 2 2 8 10 8 10 10 10 10 10 8 10 2 10 8 10 10
left_child=47 2 13 16 6 7 24 8 9 26 31 12 38 -2 20 18 17 -4 19 -16 -10 25 45 28 61 -21 -6 -25 -24 35 -9 32 -7 51 -35 -3 -37 -38 -12 60 52 -42 43 44 -28 -15 -47 -1 -49 -50 -8 -33 -41 -22 55 -55 -14 58 -56 -57 -27 -5
right_child=1 29 3 4 5 10 50 30 14 -11 11 -13 56 22 15 -17 -18 -19 -20 21 53 -23 23 27 -26 39 42 -29 -30 -31 -32 33 -34 34 -36 36 37 -39 -40 40 41 -43 -44 -45 -46 46 -48 48 49 -51 -52 -53 -54 54 57 59 -58 -59 -60 -61 -62 -63
leaf_value=0.22389891155587269 0.2135879081311236 0.21221740596777658 0.1635435293183555 0.30675368757451404 -0.00016170823584579547 0.38654589830059949 -0.0056603105478658169 0.15828377985183611 0.27521986803754878 0.38933091044766643 0.039855478184617821 0.0013845148099909561 0.20123597113458833 0.22060667948828688 0.43871728775325514 0.039957319072622288 0.19454300486902823 -0.0038069094763700517 -0.053428878449336852 0.331355087569698 -0.036385386462072039 0.31888389683085427 0.22434371990125321 0.19096809975107412 -0.010604495919932056 0.1114094245800273 0.090352070381820401 0.022639676771445311 -0.021384975789917729 0.22246615223249064 -0.029204892173141095 -0.025889314527342413 0.0054164691884543426 -0.052387808401696601 0.44726851055759154 0.21679318127771952 0.15089187078513586 0.015742336901800054 0.33662588889398376 0.011758873927833927 0.011697582688840566 0.22526972468317266 -0.052734691393384762 -0.052930012948308625 0.42103729174308857 -0.0020398834981560109 0.20710570266838452 0.20811627966207782 0.2290754132899987 -0.05565993454890264 0.19990477045787147 0.23134996087225584 0.25091272156637606 0.33300732629790103 0.049383224731109676 0.27661625531312678 0.4376177260411182 -0.052549821182110039 0.34840591886435307 -0.053087818577058236 0.33880051700303676 0.18373870072645263
leaf_weight=8351.9255145378411 1060.6180024556816 806.56890896335244 200.92909455299377 56.870103359222412 345.52553889900446 14.684036143124102 131.55629943683743 36.584761038422585 31.408642180263996 17.589670524001122 97.669686675071716 216.21919499710202 35.422709673643112 305.20445811003447 23.573482569307089 83.425039678812027 541.78399987518787 102.70071006938815 24.209192294627428 36.937229592353106 78.867157494649291 62.594104327261448 23.025751180946827 234.35053600370884 29.857501368969679 23.545259185135365 27.021314937621355 49.725696444511414 117.14101913943887 3648.7236284166574 222.92897714674473 1136.111914947629 22.183949586004019 20.349808890372515 15.554334871470926 221.65416693687439 242.58848441764712 90.760890699923038 13.297623522579668 19.9835010394454 119.17928101122379 32.406995106488466 23.308346059173346 16.06821708753705 27.349478267133236 47.238455608487129 48.802362006157637 173.88761880993843 22.372614312916994 46.672995407134295 25.533486623317003 13.722449984401463 72.008751589804888 30.081845492124557 62.956685815006495 11.794622663408516 23.746067196130753 61.032294664531946 12.888012103736399 18.65355953574181 39.473137255758047 398.99584851786494
leaf_count=5984 1692 2959 1658 132 7614 76 2084 419 262 195 1896 4738 377 700 66 1535 3109 1671 477 291 1731 527 114 1249 519 345 426 606 1814 2965 5279 29695 429 499 138 745 1313 1044 128 369 2106 293 519 346 216 464 162 415 40 656 296 257 563 197 1103 130 138 1469 108 395 189 3023
internal_value=0.183742 0.15523 0.110732 0.0799143 0.0614758 0.0440388 0.147475 0.0819662 0.098858 0.0408641 0.00723262 0.0677832 0.152167 0.186848 0.130213 0.162981 0.16308 0.106938 0.185592 0.199058 0.0729858 0.185147 0.152493 0.114415 0.186195 0.16078 0.0269105 0.161503 0.0189819 0.213355 -0.00277381 -0.0119019 0.157215 -0.0171603 0.164072 0.188939 0.15511 0.114095 0.0754186 0.14023 0.110836 0.0573563 0.126691 0.186063 0.256693 0.192752 0.104236 0.222075 0.159369 0.0366019 0.0277524 -0.0228193 0.198961 0.0499945 0.0845046 0.203036 0.296103 0.0320874 0.100195 0.0746287 0.253841 0.199085
internal_weight=20149.8 11555 6544.69 4658.58 3813.17 3170.36 642.813 1561.4 1301.88 456.863 1608.96 386.355 170.136 1886.11 845.019 537.336 845.414 303.63 453.911 429.702 307.683 406.128 825.488 424.243 485.723 343.534 439.273 284.076 140.167 5010.3 259.514 1222.61 36.868 1185.74 35.9041 1361.57 555.004 333.349 110.967 306.597 243.579 151.586 93.7474 70.439 54.3708 401.245 96.0408 8594.86 242.933 69.0456 157.09 1149.83 91.9923 276.274 197.407 60.53 59.1688 136.877 75.8447 30.4482 63.0184 455.866
internal_count=100955 93860 84834 78033 71595 65541 6054 27170 21472 9316 38371 7277 2539 6801 12156 6761 6438 3329 5226 4749 5395 4683 5109 3783 3674 4156 9121 1855 1928 9026 5698 31094 505 30589 637 6061 3102 2357 2024 3865 3331 2399 1507 988 642 1326 626 7095 1111 696 2380 29952 932 5133 3402 722 515 2680 1211 525 534 3155
is_linear=0
shrinkage=0.05


Tree=4
num_leaves=63
num_cat=0
split_feature=5 6 67 90 2 110 101 39 112 13 102 80 82 11 11 6 62 32 70 13 100 64 99 103 87 6 77 14 23 110 94 35 30 78 55 59 77 103 75 1 104 82 20 74 39 88 59 70 82 98 87 43 53 19 38 100 12 85 14 100 8 24
split_gain=6361.98 7945.12 4974.19 2535.64 1349.29 1249.07 1197.19 1240.46 1003.68 703.654 688.694 805.988 666.946 650.006 671.736 597.626 653.805 561.122 534.163 454.615 435.777 434.278 422.447 586.174 434.427 405.585 390.727 392.235 385.458 475.908 392.755 383.609 381.271 472.709 417.794 377.258 374.565 366.183 363.095 362.347 357.548 352.063 347.471 336.598 328.026 324.818 322.013 329.623 423.238 316.896 313.088 435.141 380.246 309.976 308.28 307.859 299.182 452.796 296.273 294.106 335.318 293.844
threshold=12.218750000000002 15.98812094999 12.582999999999974 6210.4672094058114 1008.35 2.7110961435929308 2.7770833333333345 1009.1500000000002 38.738700000000001 -0.5 5.7566496464104882 0.66583281185085197 0.41793141399014866 0.90438663683299525 0.92191100909954782 11.322894168230002 0.6928203230275406 24.346652267310002 0.19759217258450962 -0.5 0.30983866769492963 1.0000000180025095e-35 3.9000000000000021 -0.4999999999999431 4067.9166666666674 20.507559394820003 12.513498919825 11.300000000000002 11.250000000000002 -5.5952456871072309 5.9172339199991256e-08 1008.1500000000002 15.98812094999 2.37107501678349 25.733333333333292 26.770833333333336 7.4068574512491674 -0.09999999999996588 7.6781857449799951 8.4500000000000011 -0.80000000000001126 0.50892042604469145 19.700000000000003 1.0000000180025095e-35 1012.85 8732.8723090782387 26.287500000000001 0.93555773026931199 0.6685805861119325 1.9629909152447766 9289.0833333333339 1905.0000000000002 3.3999999999999999 19.550000000000001 1015.0500000000001 7.8015169370319528 0.38231920253318424 16851.166666666668 9.4500000000000046 5.2690448217000201 0.78656609248549325 10.150000000000002
decision_type=8 10 10 2 10 8 8 8 2 2 10 10 8 2 2 10 10 10 10 2 10 8 8 8 2 10 10 10 10 10 2 8 10 8 10 8 10 10 10 10 10 10 10 8 8 2 8 10 10 10 2 2 10 10 8 10 2 2 10 10 2 10
left_child=-1 2 -2 6 19 8 -4 10 13 12 11 -8 -10 18 -15 55 21 22 32 40 -16 -17 23 -7 -24 35 27 49 29 -11 -31 -26 33 34 37 -3 -20 45 -36 53 -5 -34 -42 -22 -30 -6 47 48 -38 -18 51 -35 -53 -12 -54 -9 -14 -58 -37 -33 -61 -45
right_child=1 25 3 4 5 17 7 15 9 28 39 -13 56 14 20 16 26 -19 36 -21 43 -23 24 -25 31 -27 -28 -29 44 30 -32 59 41 50 38 58 46 -39 -40 -41 42 -43 -44 61 -46 -47 -48 -49 -50 -51 -52 52 54 -55 -56 -57 57 -59 -60 60 -62 -63
leaf_value=0.18800678021989126 0.16979344881122704 0.161741619533042 0.18379009931918555 0.13166930794523127 -0.052424453729588566 0.36145444981660663 -0.053313996222480078 -0.02857324538377063 0.20563621171637433 0.054691090636817923 0.19307823008797093 0.16871058948024398 -0.041371326671768523 0.30373943447937735 0.21711095667233593 0.30783643709842251 0.067979500581701977 0.27750468742970641 0.039217917445127398 0.16876987518260667 0.19995693368220091 -0.018671143416755711 0.30448976018983781 -0.053147220223115167 0.25938429993898671 0.18600368465963232 0.32994890137569777 0.0018085776314650717 0.11186870219456622 0.20064939421552086 0.064625189684110226 -0.034644153624267968 0.24120084776871287 -0.053445509661921332 0.24773289110544094 0.14211880778954364 0.11319540635345759 -0.039354171649584095 0.03055918382745439 0.33217027484322598 -0.023541735321292938 -0.0007155646846304267 0.21087767162321441 -0.0016648247497153192 0.33224429258477967 0.1507998894319256 0.28051807394131595 0.070271326506617757 0.35066347058326286 0.33621201721145821 -0.043896389496176032 -0.053415120115218123 0.26233851332001396 -0.0054023290166977699 0.043498127805603769 0.19427903126174051 -0.055123748083287398 0.25782032041942377 -0.057210919521993267 0.23691140709970818 -0.05334153427232588 0.14890021087672295
leaf_weight=9128.3769947774708 1912.359365221113 1505.2336914241314 112.45055501535535 254.46821639686823 26.61787711083889 18.735259916633368 99.361941277980804 980.75158292800188 59.148577734827995 96.097625650465488 77.660183843225241 69.443885091692209 101.05336708948016 50.330989815294743 65.660828646272421 10.769554551690815 20.925590090453625 19.336734112352133 149.82220322266221 728.93100863322616 39.766596596688032 187.33027444407344 10.848104033619164 15.643554162234066 12.374103575944899 4214.2471797503531 23.678091231733561 47.193463772535324 23.454410780221224 330.40056101232767 63.222144011408091 432.84028799459338 39.320418164134026 66.140612497925758 51.442673854529858 38.9106763638556 53.825679790228605 93.467796608805656 30.751203522086143 33.365325588732958 83.033071976155043 24.354615692049265 19.524968203157187 122.7747558131814 60.29359595105052 75.240692231804132 34.60741688683629 141.37399306148291 28.8047882206738 23.240539945662022 275.13605203479528 24.636883597820997 40.849004615098238 26.344203252345324 26.553876895457506 15.746161341667174 21.65163030102849 24.796088609844446 35.787267755717039 22.179700247943401 18.046834696084261 44.024422362446785
leaf_count=5430 3632 5527 712 2029 661 137 2055 25526 412 1761 436 635 1851 244 251 112 298 65 1960 3290 139 3866 88 330 103 3016 254 938 333 1990 520 10255 268 1305 540 221 659 1957 535 136 1233 367 174 2127 388 764 156 1286 185 212 5797 493 344 427 479 237 328 178 387 171 368 377
internal_value=0.155835 0.133848 0.100092 0.0764998 0.0987364 0.0805865 0.0260427 0.0150645 0.0968653 0.142894 0.10567 0.0380232 0.0637881 0.0730144 0.135931 -0.006118 0.0541352 0.012938 0.0558587 0.146129 0.104906 -0.000920794 0.00329756 0.172796 -0.00844392 0.177904 0.148944 0.102032 0.171399 0.154448 0.178802 -0.015437 0.0314597 0.0209601 0.0719093 0.156299 0.102126 0.032113 0.166482 0.188798 0.0999038 0.148672 0.021087 0.0692392 0.270526 0.0976929 0.138571 0.116641 0.195976 0.209125 -0.0116706 0.0443823 0.114682 0.142803 0.176125 -0.0250518 0.00690642 0.111941 0.0466213 -0.0226256 0.106695 0.0380748
internal_weight=22484.8 13356.4 7562.2 5649.84 3921.58 2835.63 1728.26 1615.81 2285.62 780.118 306.176 168.806 206.65 1505.5 322.558 1309.64 313.138 550.005 1182.95 1085.96 272.227 198.1 530.668 34.3788 496.289 5794.18 115.038 91.3596 573.468 489.72 393.623 485.441 774.512 710.837 277.52 1579.93 408.434 195.326 82.1939 137.37 357.026 63.675 102.558 206.566 83.748 101.859 258.612 224.004 82.6305 44.1661 433.316 158.18 92.0398 104.004 67.4029 996.498 147.501 46.4477 74.6979 473.067 40.2265 166.799
internal_count=100955 95525 86374 82742 46898 40172 35844 35132 28655 7761 3689 2690 2769 20894 3138 31443 5680 11517 17756 6726 2894 3978 11452 467 10985 9151 1702 1448 4992 4271 2510 10897 13510 12875 4457 6135 4246 3382 1075 999 3436 635 1407 2643 721 1425 2286 2130 844 510 8418 2621 1316 863 823 25763 2357 506 608 10794 539 2504
is_linear=0
shrinkage=0.05


Tree=5
num_leaves=63
num_cat=0
split_feature=5 73 3 79 107 105 41 74 11 110 110 110 73 20 35 3 52 77 102 13 88 107 105 77 11 11 87 112 73 50 52 105 39 73 37 3 102 88 34 23 20 111 111 100 42 78 50 82 110 38 39 54 64 80 34 100 100 78 59 31 50 111
split_gain=4410.71 4413.13 3450.81 1914.34 1898.33 1325.58 927.032 807.846 775.603 698.884 600.356 575.688 541.139 667.867 533.967 740.914 603.221 510.374 452.631 446.949 434.914 441.644 429.146 421.151 407.686 506.629 400.419 392.269 428.029 374.683 520.897 371.843 367.9 358.943 379.555 380.167 427.582 354.49 351.223 329.129 325.711 322.096 321.786 316.858 355.826 301.139 296.132 565.41 292.777 292.623 285.949 280.758 343.796 264.006 262.6 424.179 261.451 467.586 259.059 257.595 265.59 256.582
threshold=11.066250000000002 14.708423325826566 2468.5000000000005 1008.5999999999999 2.2000000000000011 2.9157667386000017 1234.5000000000002 5.6620252231823605 -0.35042475891464198 -3.1085491892255321 -2.2358147002324267 -1.8634971247381522 18.434125269593327 12.350000000000001 1012.5500000000001 5334.0000000000009 31.400000000000006 11.829103671459169 6.1576479885045217 -0.30041959421409464 6498.0591722125255 11.050000000000002 7.0464362849500022 6.9249460041750002 0.38043945030393422 -0.97874870457683594 7521.2500000000009 35.260550000000002 16.344492440263327 1.2 3.9500000000000015 1.9438444923999991 1013.85 2.3326133908799771 1019.4500000000002 242.00000000000003 2.2374735481763808 8489.1811182158435 27.505399567460007 12.350000000000001 9.7000000000000011 -16.794816414336236 3.0323974081444027 0.74206917916581283 1539.0000000000002 1.6117507080222471 17.500000000000007 0.57183913821466192 -3.5987923634625232 1014.2500000000001 1007.9500000000002 3.3500000000000001 0.25819888974716215 0.36055512754772051 12.294816414430002 2.534298061923506 6.2623344937736025 2.415745694971132 25.75416666666667 9.4762419004500007 15.550000000000004 17.961123109775215
decision_type=8 10 2 10 8 10 2 10 2 8 10 8 10 10 10 2 10 8 10 2 2 10 10 10 2 2 2 2 10 10 10 10 10 8 10 2 8 2 10 10 10 8 8 10 2 8 10 10 8 10 10 8 10 10 10 10 10 8 8 10 10 10
left_child=-1 2 8 19 10 6 -6 14 29 23 -5 27 13 20 15 37 24 18 49 46 21 61 -11 39 25 32 -15 28 -3 -2 -31 59 45 -10 -35 -36 41 -8 51 -7 -25 -37 -42 -32 -45 -17 47 -4 -9 50 -12 52 -16 -48 58 -56 -53 -58 -21 -26 -61 -13
right_child=1 11 3 4 5 9 7 48 33 22 17 12 -14 26 38 16 -18 -19 -20 54 -22 -23 -24 40 31 -27 -28 -29 -30 30 43 -33 -34 34 35 36 -38 -39 -40 -41 42 -43 -44 44 -46 -47 53 -49 -50 -51 -52 56 -54 -55 55 -57 57 -59 -60 60 -62 -63
leaf_value=0.16352910291303607 0.15910081872828169 0.036423155904006646 0.10801021593092577 0.022488873508984538 0.11780850808101835 0.00014363612971744481 0.32928113441884838 0.17847297980998572 0.18897303545457578 -0.017501104697600477 0.17502139958725854 -0.055479817417812993 0.15091548329244603 0.16992530181421023 0.17171313450373493 0.27303574355042065 0.36142308602997769 0.0066682414776765972 0.28587738197598006 0.13276869953619591 0.1457436721375216 0.14105059265173739 0.13030072063723461 0.18219702900417434 -0.052559646287090658 -0.0431778136330839 -0.044029195891012306 0.17742094752862653 0.1502462130735451 -0.009528408168258222 -0.053788277852163703 0.31447539148970072 0.35463526259429967 0.15359849639254242 0.15397954387150328 0.20209233655072378 0.16043418572679366 0.065167961231801602 0.23461244131146264 0.16153229919835216 0.15339849633319935 -0.013425936804669514 -0.056858465962893734 0.21208581514247526 0.061503776803960408 -0.017369245181833994 0.011508914761775886 -0.014393298653198303 0.011761860389893502 0.1437992498337359 0.024065416178732282 -0.037883269831397559 0.001878533369227592 0.15501835901488858 0.095592823864678211 0.22819826236970001 0.33086714205924395 -0.052917319598799799 0.017772098078247322 0.022249213814429805 0.3155559378395611 0.10135224531866192
leaf_weight=9523.8057636916637 115.89479429647326 93.703407038003206 239.94091627560556 162.00084592588246 197.83515337854624 94.011286709457636 30.458851903676987 86.451567307114601 517.67661030590534 177.0914860367775 43.892919702455401 78.514058914035559 1980.50177815184 27.617731107398868 34.143791291862726 11.777253720909355 12.537603937089441 80.835561241954565 48.862088017165661 696.9151039198041 546.60139175504446 96.256795801222324 67.958269402384758 271.15982256084681 29.443926576524973 276.92208387330174 105.04168404266238 2373.2950291670859 696.69945428520441 163.55846647918224 24.4936498478055 17.616979233920574 12.75070723518729 1532.2405491136014 180.9078552313149 19.734493315219879 70.214433804154396 21.796060778200626 13.429974481463431 47.578803054988384 42.87157341837883 142.66217833384871 31.617694932967424 81.449479281902313 75.686712574213743 36.883974002674222 38.445824522525072 155.47812413051724 37.873311333358288 651.27237460203469 109.96404210291803 1060.6332944780588 234.12309181690216 192.56311567500234 92.076315678656101 174.78470478579402 13.520114473998545 19.217085968703032 52.676006939262152 17.233527228236202 13.978170242160557 39.050444941967726
leaf_count=4671 256 740 1928 2031 1663 1610 255 287 563 3419 161 1337 3052 58 319 61 184 1087 157 3175 2026 572 449 1151 730 6917 1440 2264 1303 2202 464 196 200 4793 171 103 352 330 115 500 293 1564 441 444 729 892 497 2031 528 3060 1168 27417 4728 862 666 414 183 439 644 355 127 150
internal_value=0.137054 0.119798 0.0967419 0.0739233 0.0552902 0.034167 0.0146052 0.00429758 0.140831 0.0923651 0.11135 0.152546 0.136345 0.104034 -0.00396566 0.0413547 0.0197094 0.126749 0.138116 0.119378 0.122094 0.0616355 0.0234879 0.127006 0.00942567 -0.0143647 0.000512971 0.16726 0.136752 0.0813136 0.055197 0.11226 0.115561 0.151971 0.142126 0.0996175 0.0573387 0.219117 -0.0198319 0.0543754 0.156758 0.0127639 0.0641529 0.113483 0.139556 0.0529161 0.0861576 0.0598814 0.127687 0.129148 0.0671307 -0.0223415 0.0234943 0.131135 0.139851 0.182445 -0.0335877 0.105582 0.124688 0.0535278 0.153607 -0.00338619
internal_weight=24136.2 14612.4 8575.14 5650.62 4007.74 2910.92 2178.63 1980.79 2924.52 732.289 1096.83 6037.28 2873.58 893.082 1856.47 481.399 429.144 934.827 853.991 1642.88 760.423 213.821 245.05 487.239 416.607 338.334 132.659 3163.7 790.403 461.083 345.188 78.2726 61.4119 2463.44 1945.76 413.519 232.611 52.2549 1375.07 141.59 345.649 162.397 74.4893 181.63 157.136 48.6612 626.428 395.419 124.325 805.129 153.857 1361.64 268.267 231.009 1016.45 266.861 1093.37 32.7372 749.591 60.6556 31.2117 117.565
internal_count=100924 96253 83311 71670 61453 53789 45926 44263 11641 7863 7664 12942 8635 5583 43448 10247 9662 5633 4546 10217 4085 2059 3868 3995 9478 8070 1498 4307 2043 4095 3839 1408 1153 7546 6983 2190 2019 585 33201 2110 1885 1667 734 1637 1173 953 5318 3959 815 4389 1329 33086 5047 1359 4899 1080 28039 622 3819 1212 482 1487
is_linear=0
shrinkage=0.05


Tree=6
num_leaves=63
num_cat=0
split_feature=5 73 14 88 110 77 105 78 2 81 62 80 69 64 23 73 110 3 73 76 65 24 3 23 8 3 73 90 35 56 64 18 24 4 12 19 64 24 37 13 11 77 11 66 86 88 60 66 111 78 3 35 24 90 12 0 111 17 14 90 76 84
split_gain=3775.49 3189.32 3301.1 1640.53 1784.32 1227.69 931.876 746.742 677.83 609.927 590.882 561.955 832.145 471.409 464.798 461.607 455.503 443.633 400.539 424.937 365.37 398.635 363.368 352.728 352.432 338.839 324.257 289.824 390.988 286.091 277.871 626.307 279.849 270.743 269.771 267.473 252.792 269.395 251.479 250.938 248.9 247.496 247.429 318.529 451.125 333.914 475.424 299.392 245.229 238.552 380.576 233.302 355.184 259.078 230.955 340.5 513.012 230.899 251.197 230.729 229.032 227.782
threshold=8.011750000000001 14.708423325826566 2.2999999999999998 7308.3115879570096 -6.3185850740639617 5.9368250538716669 0.97192224620000112 3.2017157846412387 1008.6500000000002 1020.3750000000001 1.4742229591664036 0.47258156266791307 3.0820000000000021 1.078424777163568 18.950000000000003 19.406047515793322 -1.8634971247381522 747.00000000000011 22.74298056108 2.5505629924864119 22.514583333333338 1.2500000000000002 381.00000000000006 12.350000000000001 0.37940952255126054 1082.0000000000002 12.311015118533248 9150.0349161468512 1015.85 0.55075705472871095 2.6344512273518159 30.800000000000004 23.025000000000002 0.22500000000000003 0.60818202301879276 19.200000000000003 0.69402209378856716 -0.72499999999999998 1012.7500000000001 -0.043577871373829201 0.69521084835931835 11.42818574490167 0.53312596302726967 0.54355730650781309 12209.329431392061 10188.590519132975 3.3244161027535513 0.86532530229347582 -44.669546435352537 5.367989338606824 5943.5000000000009 1022.4500000000002 8.4500000000000011 9499.7976405289974 -0.92300020391127913 26.400000000000002 -30.362850971287894 28.950000000000003 29.425000000000004 7911.5553445385822 3.1232849040372841 2.615679701401278
decision_type=8 10 8 2 8 10 10 8 10 10 10 8 8 10 10 10 8 2 10 10 10 10 2 8 2 2 10 2 8 8 10 10 10 2 2 10 10 10 10 2 2 8 2 8 2 2 10 8 8 10 2 10 10 2 2 10 8 10 10 2 10 10
left_child=-1 2 23 4 5 -4 7 -7 13 11 49 12 -5 59 16 -16 -3 -11 19 33 21 35 -23 41 26 -10 34 28 -25 -15 32 -32 -27 -18 -24 36 -14 40 -21 -8 -38 51 43 44 60 46 48 -44 -45 50 -9 -2 53 -53 -48 56 -56 -57 -59 -6 -13 -26
right_child=1 14 3 9 8 6 39 10 25 17 -12 42 20 29 15 -17 18 -19 -20 38 -22 22 24 27 61 30 -28 -29 -30 -31 31 -33 -34 -35 -36 -37 37 -39 -40 -41 -42 -43 47 45 -46 -47 54 -49 -50 -51 -52 52 -54 -55 55 57 -58 58 -60 -61 -62 -63
leaf_value=0.14715628722437593 0.14685694207224428 0.14873985051807551 -0.044458837534236163 0.15787753068047344 -0.030860620822359183 -0.030019631155161604 0.093807570346782387 0.25404739428397205 0.11898098200358564 0.12750733712834073 0.28572051033583867 0.13732970874213721 0.032069704702582774 0.25303982140022152 -0.040544970618417685 0.15176768940874874 0.05067352608497061 -0.0046238864109186071 0.14594834559790398 0.13738209238862575 0.22147960454240764 0.11957789757166833 0.0015641292423057538 -0.030026467737290785 -0.041185758769537111 -0.032899487799427245 0.10376258863508846 0.11752691878542219 0.10438158431442823 0.090182179987852565 -0.021489734737289302 0.34795750311318602 0.25762967393092867 0.19582602532576654 0.089008766654594618 -0.054207816550166404 0.14358471141529247 0.23988562349707357 0.0961204032033387 0.17346493772523594 0.0034054867618889435 0.090559684555412759 0.059669184066225248 0.12558742415083421 -0.017978178695686398 0.125604468630822 0.18213902144937133 0.14586903060550491 -0.020720108882675177 0.18407144341715354 -0.05420118468582022 -0.034688799614858344 0.14795367003182544 0.092011410918925229 0.16575577214688295 0.20458557746582151 -0.012291070794890653 -0.05539356333218115 0.18267519782838099 0.13248211987098715 0.25382635793887803 0.20252463867432297
leaf_weight=9366.3278183490038 2134.2378405332565 3397.1294143982232 150.3651634529233 236.70048557221889 104.47011134028435 165.10099829919636 134.51739154197276 12.425747592002152 42.735869031399488 82.205632664263248 41.503877203911543 105.08416713215411 71.96840681321919 37.691008828580379 74.508482011035085 53.685892891138792 374.21191311255097 279.57031097076833 1119.1105374470353 902.47769579291344 32.604055248200893 115.16499675437808 364.14953056164086 93.099927246570587 207.93109483085573 1014.5613484531641 166.21470853500068 463.79382133483887 129.1863163523376 94.775355231016874 40.377628685906529 16.024125954136252 8.3569443225860578 35.142263822257519 116.39090439304709 25.798803009092808 131.53423819877207 51.707203248515725 625.01411779224873 373.05897050723433 41.707191802561283 284.39885133504868 118.26511503569782 34.015016932040453 32.773119047284126 311.63946052081883 63.958693977445364 679.45470151491463 181.26053017750382 26.484162019565701 51.576546132564545 52.118864394724369 268.90346804633737 178.64101106673479 56.564298907294869 68.637609763070941 142.07991589419544 23.207351258024573 21.20400458201766 27.260752648115158 70.49119920283556 10.051099207252262
leaf_count=3323 4185 3848 3602 62 1632 3686 1222 38 309 478 224 729 855 244 844 97 2515 4765 684 2270 216 838 5660 1182 4287 25085 1119 1656 515 691 866 81 137 84 1398 478 590 177 2704 1520 488 1466 935 98 344 1553 245 2436 2644 136 1101 526 365 508 153 293 1722 380 76 242 229 88
internal_value=0.121839 0.107353 0.0892553 0.0670863 0.034094 0.0866826 0.111189 0.0408576 -0.00213587 0.0871897 0.129515 0.0936123 0.0714741 0.0699172 0.134268 0.0399927 0.13614 0.0254 0.122134 0.108375 0.056157 0.052019 0.0361457 0.127288 0.0250343 -0.0191014 0.0435656 0.095029 0.0480876 0.136521 -0.0245687 0.0834728 -0.0305259 0.0631346 0.022744 0.100217 0.113635 0.13973 0.120499 0.152354 0.109837 0.134872 0.111845 0.0965897 0.152315 0.0837262 0.0616408 0.13309 0.00239749 0.0578672 0.00564384 0.139657 0.108902 0.0633952 0.0955914 0.077832 0.0384081 0.147106 0.0582713 0.00294198 0.184102 -0.0299483
internal_weight=25735.6 16369.3 9788 6183.62 2341.29 955.033 804.668 297.091 1386.25 3842.33 131.99 3480.56 1571.92 264.197 6581.28 128.194 6453.09 361.776 3055.96 1936.85 1335.22 1302.62 979.902 3604.38 864.737 1122.06 646.755 686.08 222.286 132.466 1079.32 56.4018 1022.92 409.354 480.54 322.716 296.917 224.949 1527.49 507.576 173.241 2918.3 1908.64 1110.92 208.348 902.567 590.927 797.72 215.276 90.4865 64.0023 2633.9 499.663 230.76 375.652 311.693 198.644 113.049 44.4114 131.731 175.575 217.982
internal_count=100924 97601 84555 74152 40816 11529 7927 5185 29287 33336 1499 28093 16256 2809 13046 941 12105 5243 8257 7573 16194 15978 13390 10403 12552 26478 8177 3353 1697 935 26169 947 25222 2599 7058 2588 2110 1255 4974 2742 1078 7050 11837 8466 1302 7164 5611 3371 2742 1275 1139 5584 1399 1034 2869 2624 1875 749 456 1874 958 4375
is_linear=0
shrinkage=0.05


Tree=7
num_leaves=63
num_cat=0
split_feature=67 6 3 112 40 101 110 116 38 30 23 38 63 40 75 66 17 111 63 15 39 10 60 89 57 110 66 84 111 77 101 66 3 110 116 97 6 62 34 74 82 40 82 35 76 96 84 2 39 77 110 6 67 85 15 77 2 8 23 76 89 66
split_gain=2771.6 4550.77 1915.87 1564.92 862.69 860.361 764.647 682.991 619.438 604.613 601.214 384.541 377.219 428.661 397.619 403.423 460.329 472.044 377.066 376.494 357.826 349.84 347.878 338.53 317.166 298.753 321.805 300.163 289.757 353.606 278.075 277.62 276.908 275.16 420.34 268.79 256.529 277.531 616.323 257.045 254.23 249.555 244.918 240.993 567.273 240.082 234.223 233.349 288.857 231.51 225.609 313.215 627.509 261.959 220.802 220.776 216.654 213.75 218.524 211.023 209.858 234.332
threshold=14.421666666666665 15.98812094999 3810.0000000000005 38.738700000000001 1265.0000000000002 2.9937500000000012 2.6935028842544413 -1.0000000180025095e-35 1021.85 14.530237580690002 23.025000000000002 1013.4500000000002 10.941666666666668 1356.5000000000002 12.991360690873334 0.94239379274593005 10.150000000000002 5.5982721381120806 10.658333333333337 12.500000000000002 1012.9500000000002 0.51297097409535064 3.0252911190197387 14022.625000000002 27.875000000000004 2.544095225512605 1.8443196988364454 0.64449886561012326 15.006479481326862 10.079643628299168 16.529166666666672 0.68224229233955913 259.00000000000006 -3.7599934382569633 -0.81603492345170825 2.6000000000000081 19.292656587070002 0.34641016151377618 6.7548596110900005 1.4846357542743613 1.7864769745134754 1691.5000000000002 1.413388363706795 1007.85 1.7984501348389264 16.139097744560036 0.59307876729969233 1011.2500000000001 1016.5500000000001 11.492980561315003 -2.2358147002324267 14.530237580690002 5.9009999999998994 8557.6666666666679 18.025000000000002 7.9414146866591668 1012.2500000000001 -0.25881904510252113 9.0750000000000011 4.528851715457356 19221.083333333336 1.9577932846586334
decision_type=10 10 2 2 2 8 8 2 10 10 10 8 10 2 10 10 8 10 8 10 8 2 10 2 10 8 10 10 10 10 10 10 2 10 2 8 10 10 10 10 10 2 10 8 8 2 10 8 10 10 8 10 10 2 10 10 10 2 10 10 2 8
left_child=50 2 7 4 31 19 8 18 12 10 45 20 13 -5 15 28 22 -18 23 57 60 43 -17 49 -19 27 -27 32 -15 -30 33 46 -9 34 -11 -13 37 38 -3 41 -36 -40 -24 -22 -45 -7 -4 -14 54 -2 51 52 -1 -54 -49 -39 -41 58 -6 -26 61 -8
right_child=1 36 3 6 5 9 11 25 -10 30 -12 35 47 14 -16 16 17 24 -20 -21 21 -23 42 -25 59 26 -28 -29 29 -31 -32 -33 -34 -35 40 -37 -38 55 39 56 -42 -43 -44 44 -46 -47 -48 48 -50 -51 -52 -53 53 -55 -56 -57 -58 -59 -60 -61 -62 -63
leaf_value=0.12472470376854344 -0.054164098999245326 -0.059549461186715669 -0.054983214886145826 0.17633806668610677 -0.055846470276377291 -0.02525094319185759 0.086437797826928425 0.13676347310526746 -0.0038729411697505794 0.19554590012097017 0.1561321035851182 0.22676476737492821 0.23207837004895204 -0.028912990019876125 0.15753000199375333 0.06891525585057523 -0.017006648699360683 0.050523924921291312 -0.042512277643954627 0.020030520818820747 0.27661850128066467 -0.053695620719273321 0.18115340046968187 0.14936962801821049 0.093568719106750728 -0.012352399048488658 0.12133162518056383 0.14039993824548364 -0.012980899859254352 0.24092465016610498 0.22521832491804408 0.13227999418650035 0.067893574342028751 0.0048511512844940791 -0.055219243755952954 -0.052484664470437883 0.1281005273800439 0.0505934009138184 0.13003790428215198 0.15070638185610299 0.17476648410487086 -0.025102354436218943 0.06774269940966772 0.36644201963436329 0.010225902734995084 0.23887964403630063 0.092173926909568257 0.13906242818686773 0.22734099915607425 0.093315647962713466 0.12788432923269652 0.13800904937870759 0.060291727742753279 -0.043395075013160152 -0.020055525116866323 0.13308468995198666 0.078247572305806312 0.17143392344438466 0.15562172225289758 0.25164966503188496 -0.054281663425130612 -0.0099274378361867005
leaf_weight=351.28632869571447 55.655351594090462 71.427616089582443 44.516510399058461 139.61165444180369 24.9714420363307 1443.6967623550445 151.81004132516682 245.6494183242321 148.35923887789249 60.811632078140974 48.025848207995296 9.1250876411795598 80.197270270437002 143.27564811147749 159.546242473647 189.99074965715408 163.97190568782389 154.22903882339597 102.7724397815764 119.24325417354703 34.570589393377304 20.995905850082636 219.4780189357698 86.726947467774153 43.070066818967462 88.334999894723296 91.798163257539272 1006.6267938800156 29.25360063649714 25.81136741861701 23.037145199254155 200.63233834132552 359.63149120844901 175.17905489355326 43.134667353704572 154.83395155519247 5367.4930257089436 91.821340274065733 40.26757825165987 210.9476195499301 16.656078550964594 72.756876200437546 60.790620155632496 15.444622490555046 40.442994199693203 8.6548340115696174 68.876738520339131 51.987889407202601 45.239808738231659 50.988948248326778 12439.618066387251 395.78981434181333 167.73842301592231 95.652103276923299 37.550037037581205 695.32556562870741 201.90277313068509 121.38243455067277 23.917559046298265 41.406984254717827 64.647147856652737 107.94160035066307
leaf_count=312 995 647 737 258 361 34857 1396 189 2607 220 357 39 374 2435 603 1709 2507 1455 1641 1533 67 428 1027 528 426 1293 482 3681 389 79 168 1094 2393 2695 649 4044 3884 484 104 438 78 544 494 150 765 19 635 309 218 423 8940 456 917 1190 658 1754 813 319 108 62 1165 1322
internal_value=0.109946 0.0940265 0.065296 0.047768 0.0196206 0.00810683 0.0769908 0.10522 0.0938253 -0.00463399 -0.0179214 0.0283303 0.102968 0.0933081 0.0838901 0.0729228 0.0875484 0.0483108 0.0348778 0.0881651 0.0528848 0.130176 0.121147 0.0760088 0.0931787 0.116844 0.0557747 0.123669 0.00855261 0.106036 0.0578973 0.0969368 0.095844 0.0448654 0.102987 -0.0369431 0.123151 0.103961 0.0782619 0.0969803 0.00884854 0.03017 0.156554 0.172853 0.108667 -0.0236769 0.0344022 0.164547 0.124363 0.0163492 0.126039 0.103318 0.0809799 0.0226371 0.0723322 0.123462 0.115271 0.135881 0.0476084 0.171053 0.0263299 0.0463926
internal_weight=27046.5 13596.4 6844.5 4756.32 2422.74 2108.71 2333.58 2088.18 1733.77 1819.2 1500.38 599.812 1585.41 1370.44 1230.82 1071.28 872.937 402.678 296.144 289.515 435.853 111.454 470.259 193.371 238.706 1792.04 180.133 1611.91 198.341 55.065 318.819 314.026 605.281 295.781 120.602 163.959 6751.94 1384.45 597.302 525.875 59.7907 113.024 280.269 90.4582 55.8876 1452.35 113.393 214.975 134.778 106.644 13450.1 1010.47 614.677 263.391 89.5379 787.147 412.85 170.271 48.889 84.4771 324.399 259.752
internal_count=100924 89109 80441 68816 43830 41364 24986 11625 15610 39043 35233 9376 13003 11444 11186 10583 7680 4450 3587 2321 5293 1410 3230 1946 1943 8038 1775 6263 2903 468 3810 2466 2582 3642 947 4083 8668 4784 2546 1899 727 648 1521 982 915 34876 1372 1559 1185 1418 11815 2875 2419 2107 967 2238 1251 788 469 488 3883 2718
is_linear=0
shrinkage=0.05


Tree=8
num_leaves=63
num_cat=0
split_feature=5 6 3 40 108 79 50 101 6 60 110 73 39 7 76 34 66 110 74 6 65 28 58 105 40 43 105 9 12 82 29 70 110 6 37 10 75 10 103 79 112 78 110 112 59 72 67 108 80 52 76 75 76 104 86 40 9 64 111 66 12 60
split_gain=3145.61 3410.19 2290.06 1412.45 1015.19 1499.4 548.458 425.487 438.691 401.775 392.434 328.525 313.894 311.536 299.708 320.043 261.422 255.968 255.423 249.399 301.765 278.741 246.638 241.552 256.45 253.341 297.014 251.454 343.255 244.002 238.71 332.961 231.727 230.058 275.173 246.433 229.809 230.302 227.828 222.129 221.42 216.524 212.729 228.622 212.072 211.478 298.171 211.254 315.153 204.429 203.598 202.584 204.25 324.306 236.198 202.361 201.58 497.947 317.862 296.399 238.303 203.278
threshold=8.011750000000001 15.98812094999 2468.5000000000005 1265.0000000000002 1.1500000000000006 1012.7000000000006 18.850000000000005 7.1208333333333336 14.530237580690002 1.6586207300353684 1.0093942758998316 6.6738660905732985 1010.5500000000001 1.0000000180025095e-35 6.6614617679968378 27.505399567460007 3.8765954681948407 -13.926170449746019 1.591105290395544 6.2688984879900014 7.9791666666666687 9.6550000000000029 6.0747015830022546 -2.1382289416400018 5334.0000000000009 4724.5000000000009 3.9362850971100003 -0.37940952255126015 0.30041959421409475 0.6685805861119325 12.218750000000002 0.61890440834321714 -4.4499999999999984 20.507559394820003 1012.5500000000001 -0.27694604220087021 5.3455723540999962 0.97875492728876534 -1.1999999999999884 1019.8666666666671 35.260550000000002 2.8056978523745486 -3.8105117766515293 35.260550000000002 14.862500000000004 5.2064984549665114 5.0919999999999943 3.3500000000000001 0.43588989438517622 13.950000000000003 2.906031263212205 12.829373649839999 2.6446288286051596 -0.900000000000034 8315.1288328816427 4724.5000000000009 -0.60355339059327384 1.2453240699615413 11.196544276223763 0.54355730650781309 0.67494719543654369 2.7824531360916871
decision_type=8 10 2 2 10 10 10 8 10 10 8 10 10 2 10 10 10 8 8 8 10 10 10 8 2 2 10 2 2 10 10 10 10 10 10 2 10 2 8 10 2 8 8 2 10 10 10 10 8 10 10 8 10 8 2 2 2 10 10 10 2 10
left_child=-1 2 10 -4 45 6 9 8 12 -6 19 38 55 17 15 16 22 36 -18 -2 40 -22 -9 27 -25 26 -26 50 -29 -30 31 41 -10 34 -3 -36 -11 -38 -8 -12 -21 -14 43 -37 -23 -5 -47 48 -27 51 -19 52 53 -15 -54 -7 57 60 -58 -60 61 -32
right_child=1 33 3 4 5 7 11 14 32 13 39 -13 30 49 -16 -17 18 23 -20 20 21 44 -24 24 25 47 -28 28 29 -31 56 -33 -34 -35 35 42 37 -39 -40 -41 -42 -43 -44 -45 -46 46 -48 -49 -50 -51 -52 -53 54 -55 -56 -57 58 -59 59 -61 -62 -63
leaf_value=0.12258732164903463 0.11956654769893944 0.11667504397964082 0.10316973377704397 0.098046066453251299 -0.032867248195381192 0.21043675200055692 0.070864308391258998 -0.038811411956545944 0.12885905615364152 0.18605047220836421 0.076050753138636157 0.11195863050961763 0.18753568520237443 0.14312500733246156 0.14689284548650647 0.2034013444968153 0.18688249607274843 0.049116113550586565 -0.05381425452585778 0.055815413508964455 0.11574833287143554 -0.015673414372941969 0.21500666829187473 0.10169392841565497 0.020959194425344579 -0.05421500862088241 0.20677459134574377 -0.040266905561329377 0.20212095109692002 -0.0035128256246848427 -0.04164406272939232 -0.034564242753314871 -0.00054664879302501724 0.11849318978705679 0.032541851794242731 0.049353294383382769 -0.055436086584979061 0.1551570212384358 -0.055224557348674347 -0.011699546170629479 0.12627746251046712 0.0013664535807268903 0.064714152178610859 0.1292780272914946 0.064120458425774102 0.10261209798017921 -0.060631317742764916 -0.03273981487629566 0.11575266697711489 0.0089799637041281521 0.18461897636953953 -0.012920399676551257 0.25550713905001432 -0.054775177091432363 0.11816031231062772 0.043352352359441661 -0.053348105214474889 0.19504175990579142 0.16458425128591439 -0.01489516941188343 0.11863435629959684 0.071835028692844916
leaf_weight=10148.076932869852 1735.0621609650552 1174.5782439000905 1057.4986817650497 773.7720386851579 162.3312044031918 28.627063170075417 118.94597412273288 930.97361174970865 128.78873800486326 51.786416618153453 662.47746323980391 575.5310444869101 52.038573840633035 56.758899386972189 25.383654866367579 14.838510055094956 26.478975139558315 49.048406260088086 18.881431179121137 136.96653398498893 200.69377391785383 109.3379784822464 9.6703643947839719 72.006145808845758 82.078241152688861 46.409502061083913 29.141119761392474 82.567442744970322 34.952644830569625 24.564438991248608 199.72945529967546 50.64555306173861 47.300266303122044 5407.1434419453144 204.88235937431455 112.34027864038944 29.356787519529462 23.274898240342736 51.266757039353251 80.928799962624907 599.47202488407493 22.315683601424098 388.52029045298696 439.57147119194269 349.2505730651319 58.508479028940201 53.597336865961552 362.91810149885714 66.140614312142134 57.115676963701844 63.755007278174162 28.060937244445086 49.363587845116854 32.586901323869824 85.554540392011404 49.380401644855738 359.72909153997898 36.189062992110848 34.993302766233683 67.134705446660519 35.865321015939116 49.181343082338572
leaf_count=3323 3315 2503 4007 3243 2455 72 926 24026 569 144 3546 3493 309 300 225 68 224 673 405 633 331 967 128 477 967 980 127 1251 227 345 4176 535 648 3041 1211 424 470 44 843 904 1242 343 1440 668 1925 72 500 7147 481 681 402 328 271 642 374 519 8464 388 265 1353 274 590
internal_value=0.100334 0.0877651 0.0688444 0.0504011 0.0398911 0.0301072 0.0589069 0.000684087 0.021405 0.0413848 0.0991551 0.093911 0.00842046 0.050465 -0.0227766 -0.0270798 -0.0305484 0.0371103 0.0866916 0.106909 0.0911751 0.0666033 -0.036202 0.0286341 0.0126409 0.00171118 0.0696456 0.0699644 0.0257145 0.11725 0.00015002 0.0643126 0.0940987 0.112842 0.0996707 0.0822318 0.111271 0.0376929 0.0328873 0.0664981 0.113173 0.131661 0.0930573 0.11301 0.0450958 0.0887473 0.0245661 -0.0141797 0.0456673 0.0943991 0.125701 0.113734 0.129582 0.0709453 0.168413 0.104669 -0.0100954 0.0203406 -0.0312467 0.0466019 -0.00186021 -0.0192222
internal_weight=28116.3 17968.3 10241.2 6367.04 5309.54 4423.66 2235.52 2188.15 1161.92 1489.77 3874.19 745.744 985.83 1327.44 1026.23 1000.84 986.004 1018 45.3604 3130.78 1395.72 659.282 940.644 913.582 658.694 586.688 111.219 254.888 142.085 59.5171 907.822 125 176.089 7727.04 2319.89 1145.31 104.418 52.6317 170.213 743.406 736.439 74.3543 940.432 551.912 458.589 885.878 112.106 475.468 112.55 309.441 112.803 252.325 224.264 89.3458 134.918 78.0075 782.822 320.965 461.857 102.128 284.776 248.911
internal_count=100924 97601 88314 75451 71444 67629 24048 43581 18505 18786 12863 5262 17288 16331 25076 24851 24783 13735 629 8413 5098 3223 24154 13077 10179 9702 1094 2898 1823 572 16697 1187 1217 9287 6246 3743 658 514 1769 4450 1875 652 2532 1092 2892 3815 572 8608 1461 2596 1075 1915 1587 942 645 591 15510 5428 10082 1618 5040 4766
is_linear=0
shrinkage=0.05


Tree=9
num_leaves=63
num_cat=0
split_feature=14 6 88 67 79 24 2 116 11 64 40 6 37 9 83 64 77 99 3 102 84 1 39 86 100 102 99 100 66 86 88 76 88 34 11 39 74 22 96 64 0 19 75 18 76 11 63 21 100 6 97 97 53 55 101 11 39 104 96 14 111 83
split_gain=2612.94 4289.75 1965.09 797.439 760.293 594.056 540.115 439.793 428.9 397.838 382.748 364.751 364.477 349.861 355.547 305.3 530.543 475.849 304.631 320.524 303.713 299.094 426.182 350.368 316.17 290.37 278.208 271.607 266.965 317.371 254.453 250.772 250.708 247.285 329.369 284.712 244.55 239.81 281.072 272.762 250.566 335.094 236.068 234.795 232.626 228.497 235.015 228.291 218.479 241.71 210.732 209.371 208.532 205.736 366.464 276.057 199.691 220.894 195.04 251.499 248.111 353.727
threshold=2.2000000000000011 15.502159826890002 7308.3115879570096 5.9009999999998994 1011.8333333333338 3.6000000000000001 1013.85 -0.57139380484326974 -0.32613736746952143 0.85244745683630996 2545.0000000000005 19.292656587070002 1015.1500000000002 0.60355339059327384 1019.8375000000002 1.3880441875771836 12.513498919825 2.9583333333333317 5638.5000000000009 8.4760804260475222 3.4178564051920817 9.0750000000000011 1016.2500000000001 17.897858344878419 0.89591666279384119 0.71916407703554464 5.0916666666666703 3.8188130781329694 1.0697989049209056 10941.260379940215 8711.0498178116559 2.1903139914255374 7552.0978542389175 9.4762419004500007 0.99981043035926087 1000.7500000000001 6.051988472704144 8.9500000000000011 0.69734344392694547 1.2143585412335351 20.300000000000004 24.450000000000003 9.8326133907233366 22.250000000000004 2.9855578369352895 -0.99864786094873803 22.958333333333339 -9.6999999999999975 5.2690448217000201 13.752699783730002 18.516666666666676 1.1000000000000034 30.850000000000005 4.2666666666666551 16.187500000000004 0.47369649395226454 1004.5500000000001 1.4499999999999889 1.645603191664577e-07 16.850000000000005 -8.9222462201152073 1010.7541666666668
decision_type=8 10 2 10 8 8 10 2 2 10 2 10 10 2 10 10 10 8 2 10 10 10 8 2 10 8 8 10 10 2 2 10 2 10 2 10 10 8 2 8 10 10 10 8 10 2 8 10 10 10 10 8 10 10 10 2 10 10 2 10 10 10
left_child=7 2 4 -4 9 10 12 8 -1 31 -5 37 25 33 47 20 17 -17 -11 26 48 -8 -23 -24 -25 -7 -20 -21 32 -30 51 -2 -27 34 35 -12 52 -3 39 40 -39 -42 -31 -9 -35 -34 58 -15 49 -6 -28 -10 -19 -49 -55 -56 -33 -58 59 60 61 -47
right_child=1 11 3 5 15 6 21 43 30 18 13 -13 -14 14 -16 16 -18 36 19 27 -22 22 23 24 -26 28 50 -29 29 42 -32 56 45 44 -36 -37 -38 38 -40 -41 41 -43 -44 -45 -46 46 -48 53 -50 -51 -52 -53 -54 54 55 -57 57 -59 -60 -61 -62 -63
leaf_value=-0.041166264957138751 -0.053489853268496479 0.096867108965020182 0.11102742474317795 0.11289522564372988 -0.046708385745143507 -0.05791077716985904 -0.035775580170650648 0.11048842315533598 0.13641244128445737 0.17628997166528462 0.11298035855077004 0.1078786511002031 0.16217982576468859 0.0085250716453082707 -0.053734868265046989 0.16578960498452883 0.21498841817916559 -0.047411698347658425 0.17129224151382857 0.24251520490438142 0.13662475664075921 -0.020375508458723494 0.16649992808639835 0.087594807622992155 -0.028850891379608324 0.22679244215886862 -0.025735700084120485 0.066508836885871198 -0.0090918694266283202 -0.026087507448123035 0.1094141257634007 0.11566991832196637 0.18445308060526866 0.097964822609196714 0.20864217646967409 -0.024429115772542594 0.15740777749578733 0.020217053627514209 0.13745653599532168 -0.060074828101657742 0.10497022179491544 -0.01918949431172191 0.11172578042553659 0.066522409640603838 0.0049234372409550234 -0.019367584772000773 0.17470010611450493 0.16951619701338186 0.11988213957541871 0.035518538440992592 0.062011598554890149 -0.010746369426703307 0.17347992275501195 0.021544405844310804 0.096021928199421874 0.23458052116452516 -0.029223055133814731 0.12755712480129008 0.094281704277575998 0.15156670943485243 -0.017256628402587626 0.20808520142189285
leaf_weight=84.308255013078451 120.71361334063113 1333.6454243510962 811.27328056842089 537.8745390381664 839.48349494487047 56.726670676842332 273.7156930025667 13332.753663444892 31.952403571456671 65.087688710540533 43.874305244535208 6140.2138955593109 80.996281940490007 53.640319490805268 37.978991687297821 39.269298305734992 33.522612636908889 210.71444798074663 33.531513003632426 38.774390431120992 26.720167549327016 250.9727326631546 69.153097998350859 138.90371291153133 100.4462951477617 27.669493729248643 135.10298065282404 50.423840956762433 243.89299261756241 40.586681213229895 281.32617219537497 58.338911436498165 42.304556669667363 217.30345277674496 19.132974846288562 267.77085346914828 17.601623822003603 248.82693814113736 107.53308261185884 51.55342973023653 327.28840690851212 65.163009325042367 132.57643858343363 310.74271756410599 97.24461961351335 34.445663886144757 43.691875208169222 132.09798058867455 22.448595276102424 100.02147805690765 138.63575143925846 99.243209965527058 11.255194384604691 107.34959776327014 112.89141783863306 52.742544483393431 103.94202976115048 28.662044048309326 182.78548128344119 36.567352764308453 194.05473141930997 33.931463398039341
leaf_count=1262 2748 3542 474 1820 23157 701 4881 9343 68 214 184 4084 280 385 829 163 320 5472 185 179 285 3874 534 1094 1738 313 2420 345 3274 435 458 332 198 1528 39 3730 70 1549 197 474 1048 609 508 1243 925 399 131 294 391 1593 1224 912 106 901 523 155 2084 470 1127 200 2740 163
internal_value=0.0924282 0.0777602 0.047526 0.066174 0.0072983 0.0562408 0.0377106 0.107804 0.0615957 0.0465651 0.078119 0.10169 0.0599174 0.06174 0.0932844 -0.0160381 0.0270527 0.0044588 0.0760364 0.0595779 -0.0296523 0.00705388 0.0280076 0.0673681 0.0387269 0.0521708 0.0353557 0.143019 0.0583382 0.0276604 0.0825975 0.00291875 0.0798251 0.0374607 0.00727822 -0.00508421 -0.0219857 0.0838825 0.0622462 0.050573 0.0594682 0.0843546 0.0794245 0.109487 0.0692005 0.072663 0.0636631 0.105457 -0.034271 -0.0379544 0.0187042 0.0250938 -0.0362112 0.118292 0.0935046 0.140143 0.0385801 0.00466459 0.0535934 0.0287197 0.0116022 0.0935036
internal_weight=28963.4 14823.1 6548.85 4474.6 2074.25 3663.32 1983.42 14140.3 496.83 773.213 1679.9 8274.22 1150.23 1142.03 496.701 1301.04 312.363 278.841 461.556 396.468 988.674 833.192 559.476 308.503 239.35 1069.23 307.27 89.1982 1012.51 417.056 412.522 311.657 595.451 645.326 330.778 311.645 239.571 2134.01 800.365 692.832 641.278 392.451 173.163 13643.5 314.548 567.781 525.477 458.722 961.954 939.505 273.739 131.196 221.97 405.082 272.984 165.634 190.943 132.604 481.785 298.999 262.432 68.3771
internal_count=100924 87638 76135 34377 41758 33903 22590 13286 2700 10201 11313 11503 10469 9493 3087 31557 6131 5811 4567 4353 25426 12121 7240 3366 2832 10189 3829 524 9488 4217 1438 5634 5271 6406 3953 3914 5648 7419 3877 3680 3206 1657 943 10586 2453 4958 4760 2258 25141 24750 3644 980 5578 1873 1579 678 2886 2554 4629 3502 3302 562
is_linear=0
shrinkage=0.05


Tree=10
num_leaves=63
num_cat=0
split_feature=5 6 14 81 19 80 67 88 73 10 1 111 39 39 41 107 11 33 74 80 82 110 98 103 84 112 103 88 62 12 66 38 99 38 37 118 13 35 112 71 11 104 36 53 65 65 2 39 111 11 6 32 98 13 14 99 63 111 82 88 74 84
split_gain=2826.45 2495.91 1768.13 853.115 624.707 483.404 446.604 400.442 390.457 373.53 544.692 354.501 488.694 298.831 516.036 295.088 323.218 294.575 287.619 323.776 290.715 269.15 263.055 247.718 240.402 239.946 239.041 237.639 398.203 341.241 265.735 251.684 236.306 232.231 226.005 219.558 229.498 354.386 295.214 307.566 352.143 253.21 229.796 225.675 214.953 335.037 206.048 201.011 194.092 192.112 190.188 184.055 190.548 182.84 181.652 193.17 295.672 197.947 181.501 181.131 178.975 177.866
threshold=6.4365000000000014 19.292656587070002 2.9000000000000008 1018.2333333333335 14.700000000000001 0.40414518843602604 5.3549999999999338 8757.7224598183639 14.31965442734662 0.98522604642031408 -6.5499999999999998 5.9481641467447899 1002.2500000000001 1009.85 2606.0000000000005 4.4000000000000021 0.47369649395226454 15.210583153030003 3.5860287088724099 0.75055534995090489 2.0146132796977603 -0.56940189922554585 3.1480152477394467 2.2500000000000004 0.49198115256014457 38.738700000000001 1.0999999999999661 8510.1657139510644 3.2331615074619058 0.67494719543654369 1.6643089383960878 1012.85 12.691666666666665 1016.2500000000001 1002.6500000000002 1.0000000180025095e-35 -0.5 1021.85 38.738700000000001 15.739583333333336 0.90438663683299525 1.5000000000000571 1019.35 3.9500000000000015 5.8041666666666689 10.37916666666667 1005.6500000000002 1009.0500000000001 2.3909287256520906 0.94636490295939868 13.752699783730002 5.2483801294800001 1.7785762095938871 0.17364817766693022 7.7999999999999998 5.2583333333333355 9.2583333333333382 -16.269978401387245 1.1877148928536381 10440.199752714292 5.4531680885232392 0.83679583713814754
decision_type=8 10 8 10 8 10 8 2 10 2 8 8 10 8 2 8 2 8 10 10 10 10 10 8 8 2 10 2 10 2 8 8 10 10 10 10 2 10 2 8 2 10 8 10 8 10 10 10 8 2 10 8 8 2 10 10 10 10 8 2 10 10
left_child=-1 2 17 4 8 6 -6 9 13 50 -11 12 26 47 44 16 -16 35 20 -20 27 -19 54 60 -10 -23 -8 28 29 -7 32 -31 46 -26 -21 36 37 41 39 -38 48 43 -40 -2 -15 -46 -29 -4 -41 -14 -5 -13 53 -53 55 56 -9 -57 -48 -59 -17 -50
right_child=1 -3 3 7 5 18 11 22 24 10 -12 51 49 14 15 23 -18 21 19 34 -22 25 -24 -25 33 -27 -28 30 -30 31 -32 -33 -34 -35 -36 -37 38 -39 42 40 -42 -43 -44 -45 45 -47 58 -49 61 -51 -52 52 -54 -55 -56 57 -58 59 -60 -61 -62 -63
leaf_value=0.10718492758116266 0.090859563662934503 0.10018549968690882 0.07134007841754661 -0.038576709832608462 0.11319627871847332 -0.019478844848669595 0.019762436406713435 -0.02863740188659486 0.1638532968138314 0.2736551288270343 0.0030555683476885687 0.12855702079764192 -0.020926519274714121 0.11190301558679627 -0.008922389780902552 -0.023100597050244642 0.10155926386878128 0.10944292827468192 0.12980778494754969 0.11269859327108669 0.11813556382770847 -0.033498061365991073 0.18912327800624162 0.081155560658254453 0.096561311629516977 0.069023389697432838 0.20218511543730322 0.12846893293877265 0.18473309470235227 0.1288482244676675 -0.017058762284970701 -0.052886546808070534 0.1686689471193982 0.018829457270959759 -0.015782005906443818 0.10787419770611562 0.084926985263644672 -0.027310807231114599 0.11818040274408668 -0.031962379428019293 0.12477547340536764 -0.0042145744787497547 0.069716211927956989 0.02650003620484875 -0.039570359299888322 0.099466828321107412 0.058111547916051581 0.14181403689176225 -0.0050443161242922641 0.13558616836137913 0.019611085261838655 0.070989930663781689 -0.057269575777760456 -0.033462500963021224 -0.022256620976316421 0.1714444171408534 0.094220651861781302 -0.05495971748063453 -0.057662083059119941 0.094972856656804272 0.070435328035841183 0.14362828266955316
leaf_weight=10155.572718910873 752.27107283659279 6351.5599890425801 656.90915501862764 545.57546495087445 111.01353647559881 394.14829587191343 33.410808825865388 121.89579583145678 114.13587390072644 26.751354007050395 61.006826775148511 62.065519219264388 871.2242164388299 292.42847314476967 102.93662212230265 452.11065419018269 185.49060116522014 93.285588636994362 241.85780473798513 56.564308390021324 119.44818505458534 137.46875742264092 29.769671209156513 81.9144825655967 752.61441517435014 97.5868298728019 38.82673704624176 85.749027751386166 31.564352395012975 76.069678906351328 87.770921779796481 25.416429217904806 62.106568647548556 110.14914061501622 86.679774168878794 968.36245203390718 1382.5908388532698 100.84534719400108 998.47986207157373 157.51176521740854 74.716766318306327 100.96135383285582 323.94669919274747 166.32060432992876 73.55224959179759 105.44223533384502 194.19142956472933 119.60433913394809 43.775027055293322 20.057653980329633 189.10457658581436 216.76082319207489 48.0873380638659 51.933991080150008 104.38598677515984 54.566990841180086 81.857833923771977 27.96271837875247 41.00088001601398 72.039539486169815 57.664813505485654 37.224323177710176
leaf_count=2849 1976 4130 2817 14903 40 7147 381 1360 351 93 913 501 17186 699 1423 7471 1117 210 1256 106 383 1601 75 707 2264 253 91 164 113 619 916 645 328 734 849 965 3316 837 1189 2428 389 675 638 1227 961 388 1523 513 479 166 1488 1847 701 645 1394 164 460 520 487 405 349 139
internal_value=0.0858595 0.0745578 0.061852 0.0459064 0.0538268 0.0373748 0.0168157 0.00939836 0.0694893 -0.0119534 0.0855425 0.00884507 -0.00726678 0.057476 0.0432739 0.0206623 0.0621295 0.0834903 0.0572609 0.094525 0.0444189 0.0375837 0.0450557 0.000448596 0.0956588 0.00906525 0.117812 0.0355961 0.0125393 0.00157314 0.0614139 0.0833341 0.079395 0.0866373 0.0349525 0.0864418 0.081427 0.0621019 0.0886006 0.0747918 0.0300549 0.0709458 0.106308 0.0792066 0.0854883 0.0423338 0.0621193 0.082195 0.000382371 -0.0174043 -0.0235993 0.0498222 0.034396 0.0508011 0.0357867 0.0526958 0.0207207 0.0948454 0.0379288 0.0530486 -0.01252 0.0632801
internal_weight=29318.3 19162.7 12811.2 7375.82 6060.9 2955.95 1453.38 1314.92 3104.95 822.438 87.7582 1342.37 963.519 2128.05 1351.54 880.117 288.427 5435.35 1502.57 385.102 1117.47 328.341 492.479 591.69 976.899 235.056 72.2375 998.018 527.199 495.634 470.819 101.486 383.048 862.764 143.244 5107.01 4138.64 1120.4 3018.25 1695.82 313.228 1019.55 1322.43 918.592 471.423 178.994 320.941 776.513 238.511 891.282 734.68 378.848 316.782 268.695 462.709 358.323 203.754 154.569 235.192 100.002 509.775 80.9994
internal_count=100964 98115 93985 77663 55888 36094 21558 21775 19794 17397 1006 21518 17824 16445 13115 11067 2540 16322 14536 2211 12325 2064 4378 8527 3349 1854 472 11942 8524 8411 3418 1264 2502 2998 955 14258 13293 4715 8578 6751 3435 3878 1827 3203 2048 1349 2174 3330 3046 17352 16391 3694 3193 2492 4303 2909 1820 1089 2010 925 7820 618
is_linear=0
shrinkage=0.05


Tree=11
num_leaves=63
num_cat=0
split_feature=5 30 3 40 105 114 99 30 13 107 65 37 11 0 14 54 36 24 14 77 54 65 14 75 75 81 18 3 58 32 90 98 80 76 111 110 66 14 31 42 23 23 57 101 56 114 11 35 11 111 85 74 63 78 103 94 82 84 9 83 80 82
split_gain=2676.71 1964.62 1341.05 855.383 1063.44 756.996 565.345 808.227 546.242 539.646 402.289 384.605 380.451 379.58 405.38 355.859 277.889 291.628 270.831 259.477 251.512 241.99 219.663 217.035 214.432 211.03 266.164 208.425 202.603 193.07 190.421 189.301 223.218 316.216 186.694 185.557 180.081 215.81 216.413 254.786 169.112 217.188 181.076 207.236 168.695 164.783 161.858 158.97 158.061 197.143 157.464 155.017 168.851 154.196 254.847 150.501 184.902 196.799 163.881 148.276 145.815 141.314
threshold=6.4365000000000014 18.320734340870008 2468.5000000000005 990.50000000000011 4.7624190063800009 913.00000000000011 2.3249999999999984 14.530237580690002 -0.30041959421409464 3.4000000000000017 22.514583333333338 1019.7500000000001 -0.86974577485258975 11.4 1.2 6.3250000000000028 1003.9500000000002 12.350000000000001 1.1000000000000005 6.3174946003000008 12.800000000000004 -12.87083333333333 3.4000000000000017 21.414686824606665 6.6738660905733331 1008.3750000000001 19.550000000000001 167.50000000000003 0.77824589087679952 11.322894168230002 10676.197265875013 5.036697455792873 0.23094010767582165 3.0679507401340089 25.658747299681099 15.575702901627002 0.30895719032768681 8.9500000000000028 21.479481641020005 929.50000000000011 13.600000000000003 -8.9499999999999975 27.500000000000011 23.37916666666667 0.55075705472862702 87.500000000000014 0.99995376255531909 1003.9500000000002 -0.72694848937061807 -5.3650107990236933 9370.3333333333358 2.9157667386000052 10.858333333333338 2.1947138290491903 -1.3999999999999202 0.72884030846995018 0.78909230555794119 0.97929318976628577 -0.12940952255126037 1021.1875000000001 0.15275252316975682 0.43243496622692895
decision_type=8 10 2 2 10 2 10 10 2 8 10 8 2 10 8 10 10 10 8 10 8 8 8 10 10 8 10 2 8 10 2 10 8 10 8 10 8 10 10 2 10 10 10 10 10 2 2 10 2 8 2 10 10 8 10 2 10 8 2 10 10 10
left_child=-1 2 12 48 5 6 11 10 13 15 18 60 29 14 -7 -10 -11 21 -8 51 24 -18 -23 35 -15 44 36 -14 30 -2 55 32 33 -24 53 46 -27 38 39 -38 41 -22 -43 -44 -9 -39 47 -20 49 -4 -28 -6 -53 -26 -55 56 -29 -58 -57 -30 -5 -62
right_child=1 -3 3 4 19 8 7 25 9 16 -12 -13 27 20 -16 -17 17 -19 23 -21 40 22 31 -25 34 26 50 28 59 -31 -32 -33 -34 -35 -36 -37 37 45 -40 -41 -42 42 43 -45 -46 -47 -48 -49 -50 -51 -52 52 -54 54 -56 58 57 -59 -60 -61 61 -63
leaf_value=0.10084571415954446 -0.04518793474027042 0.093299471451535221 0.0824849891544574 -0.06095182265249724 -0.013801658747568155 0.073279407391571419 0.073855690088703671 0.1667016909049418 0.068385085109651272 0.082822928248019401 0.091363478819399435 0.098903953424833116 0.10275657800428001 -0.0086067793768804818 -0.031414160129581578 0.15378088578028695 0.11006554063414914 0.11750952112573831 0.050440264237237555 0.085424297944813488 0.1087973482056756 0.13652626347159127 -0.054046581101529018 0.21621819687101074 0.22083217537320238 0.11371413369950456 0.077579253094789968 0.065716375986472009 0.09063839517457814 0.058709977680702866 0.0163986574702529 0.097104460520500938 -0.021180865754363135 0.14847437215412601 0.00051589745541111168 0.17383199851832362 0.092951896416439833 0.092287833630861807 0.11399440743108764 -0.052085169520282117 0.1228129609995674 -0.035134451425538275 0.19366137744407352 -0.013117485399536267 0.054436699129225712 0.0032537917476479494 0.15233815950136842 -0.034052242312727569 0.08927130433779204 -0.059241471256516957 -0.056826191913586156 0.0041827764997275944 0.12684570077691223 0.17056301497795986 0.050174670991073804 0.058190243769504248 0.17509641940176171 0.086803608001799148 -0.032514316063479612 0.02679601169685706 0.065205007554960073 -0.017638514279795972
leaf_weight=10251.460863105953 86.802539020776749 5940.7612626738846 59.758462261408567 50.127197112888098 113.24272699281573 119.36409475654364 70.561459105461836 56.385835774242878 237.4320759344846 404.46311184391379 82.406874295324087 291.52624014951289 1007.1858826801181 53.38526339828968 410.24905799888074 250.92379090189934 66.789265029132366 86.616699965670705 57.909305848181248 1344.9763722959906 43.409595401957631 32.231649927794933 31.627083398401737 9.1674370057880861 32.270754653960466 87.426039790734649 27.213598757982254 858.57333765923977 1939.9673212170601 92.215707305818796 185.88802349194884 48.059240885078907 426.25251769088209 49.350016163662076 38.502247210592031 11.325766850262879 38.145311683416367 182.34134466201067 34.639477264136076 146.85553389415145 34.731466827914119 189.24166451767087 20.559566676616669 29.50728752464056 82.306878358125687 72.683829672634602 12.164710937067865 1439.5458252895623 1216.1930248551071 41.630289904773235 109.3721713963896 53.053729003295302 59.542020726948977 77.304070316255093 101.91170879267156 213.7729406952858 85.496540706604719 241.0554799772799 64.920840706676245 95.42124542221427 134.99589974433184 83.20362064614892
leaf_count=2849 1100 5482 272 526 1555 189 189 153 800 1102 520 630 448 759 7175 615 464 555 384 3666 138 130 664 20 213 352 126 3565 4852 527 891 247 6129 334 292 157 78 497 58 1531 194 3500 116 387 339 477 84 35185 2901 519 1653 463 179 258 863 581 156 639 329 619 618 670
internal_value=0.0801496 0.0693054 0.0588428 0.0471402 0.0405604 0.030774 0.0136953 0.0035998 0.0496691 0.0682537 -0.0163714 0.0591451 0.0798704 0.023277 -0.00781835 0.112263 0.0494897 0.0312935 -0.0219178 0.0770971 0.0498038 0.0198804 0.00962811 -0.0263345 0.0823584 0.0437411 0.0325577 0.0825998 0.0770906 0.00833186 0.0640683 0.00226233 -0.00672382 0.0693761 0.101784 -0.0277964 0.0477704 0.0356246 -0.000703922 -0.02218 0.0186926 0.00590157 -0.0127633 0.0717947 0.100078 0.0669126 -0.0293091 -0.0307848 0.0842711 0.024292 -0.030047 0.0275047 0.0690484 0.120221 0.102104 0.0701218 0.0778964 0.10992 0.0370609 0.0876454 0.0159488 0.0336152
internal_weight=29816.4 19564.9 13624.2 8752.88 7435.3 5864.49 3080.3 2520.45 2784.18 1633.75 1683.08 559.853 4871.3 1150.44 529.613 488.356 1145.39 740.926 1600.67 1570.81 620.824 654.31 587.521 1530.11 303.374 837.37 698.677 4692.28 3685.1 179.018 1649.71 555.289 507.23 80.9771 249.989 1520.95 562.092 474.665 219.64 185.001 317.45 282.718 239.309 50.0669 138.693 255.025 1509.62 1497.46 1317.58 101.389 136.586 225.838 112.596 211.487 179.216 1463.82 1185.13 326.552 278.694 2035.39 268.327 218.2
internal_count=100964 98115 92633 78926 75234 69371 44247 41803 25124 11040 36539 2444 13707 14084 7364 1415 9625 8523 36019 5863 6720 7968 7504 35830 2385 5264 4772 12080 11632 1627 6161 7374 7127 998 1626 35810 2993 2641 1667 1609 4335 4141 4003 503 492 974 35653 35569 3692 791 1779 2197 642 1334 1121 5270 4360 795 910 5471 1814 1288
is_linear=0
shrinkage=0.05


Tree=12
num_leaves=63
num_cat=0
split_feature=14 6 3 81 40 6 112 83 11 38 57 110 0 102 100 102 52 66 110 77 3 59 59 105 69 89 81 65 88 110 110 83 84 76 76 8 79 55 82 82 67 22 35 83 11 83 102 35 34 57 82 3 59 38 67 73 52 31 82 70 6 6
split_gain=1939.82 2771.18 1051.02 690.611 565.796 660.29 426.154 409.221 325.215 313.775 289.079 271.016 264.879 250.677 259.769 304.681 300.942 252.988 230.545 292.921 228.732 224.865 234.074 215.488 200.54 297.424 228.803 326.648 208.475 198.388 197.998 196.177 206.005 306.942 195.176 194.903 210.251 219.361 209.522 189.595 188.282 200.316 234.143 181.887 176.548 176.055 175.153 170.357 167.938 167.813 211.801 165.203 164.045 158.673 156.659 236.579 190.637 149.101 148.846 169.637 147.435 147.148
threshold=2.2999999999999998 19.292656587070002 3810.0000000000005 1008.3750000000001 3810.0000000000005 14.530237580690002 38.738700000000001 1017.7875000000001 -0.6523320455745395 1010.0500000000001 11.766666666666671 18.722554875875904 33.95000000000001 1.130131394883169 4.1873221355262009 6.0888092812533685 3.9000000000000017 1.1796250046157384 -4.2463571613955917 13.934935204892502 198.00000000000003 25.75416666666667 29.395833333333336 6.997840172640001 9.5100833333333394 9336.8750000000018 1014.975 -14.14583333333333 11174.525478861635 -10.116248612138961 10.603300858899111 1008.0208333333336 1.1975986073557701 3.4868401983671018 2.5751354577308354 0.78656609248549325 1003.7 2.7666666666666244 0.48751068359555522 0.54037024336986006 2.5443333333332974 22.100000000000005 1015.4500000000002 1007.3208333333334 -0.96234030595689413 1012.4958333333335 6.9804000476624077 1003.9500000000002 8.5043196542500024 28.425000000000004 0.36878177828492131 503.00000000000006 25.600000000000005 1015.4500000000002 14.666666666666657 6.3498920085066288 5.2500000000000027 9.4762419004500007 2.1415337151570095 5.1251930857936134 8.5043196542500024 22.257019437980002
decision_type=8 10 2 10 2 10 2 8 2 10 8 10 10 8 10 8 8 10 8 10 2 8 10 10 8 2 8 10 2 10 10 10 10 10 10 2 10 10 8 10 10 10 10 8 2 10 10 10 10 10 10 2 10 10 10 10 10 10 10 8 10 10
left_child=10 2 8 21 54 6 11 9 49 -8 -1 40 13 -11 16 17 -15 -16 29 23 -12 31 -23 -20 -10 26 39 -28 60 -7 44 35 -33 -34 -21 36 48 -38 43 -26 -6 -42 -43 -39 -24 46 -18 -40 -4 50 -2 -52 -17 57 -5 -56 -57 -19 59 -49 -27 -3
right_child=1 61 3 4 5 18 7 -9 24 12 20 -13 -14 14 15 52 45 53 19 34 -22 22 30 -25 25 28 27 -29 -30 -31 -32 32 33 -35 -36 -37 37 38 47 -41 41 42 -44 -45 -46 -47 -48 58 -50 -51 51 -53 -54 -55 55 56 -58 -59 -60 -61 -62 -63
leaf_value=0.092059647541051837 -0.045495090016096126 0.077091100461027712 0.046864595240683378 0.091246064354245732 0.10641754735031719 0.020327885218744148 -0.041454397061658613 -0.028241429848768953 0.096608073578137582 0.16899628916128534 0.092095284080906337 0.26859428607412472 0.18454593335594216 0.10644182314740941 -0.0038066637804275456 -0.054742850247354216 -0.0016777920659560551 0.039478991711151198 -0.032421612773270846 -0.016629328278634066 0.066442647213624959 -0.031579505445464458 0.18003623011055137 0.10916341826446384 -0.0038481777082829483 0.057642771777391605 0.12430382530423995 -0.013531079057004522 -0.014492128688913889 0.083590859437708026 -0.05566857881194788 0.16824321893556762 -0.018099618626593404 0.13076979922663376 0.088647987998227304 -0.002337602321751675 0.09344516215648177 0.032602445447898108 0.069602058262504735 0.091561450694854413 -0.032426842414163458 0.010823051140263659 0.24737619947358078 0.18356212621761725 0.043243864412230076 -0.045080595480960349 0.12992415443353419 -0.047488302163908307 0.091433551753691999 0.099549400362420493 0.095283300829926226 0.00080215633933940385 0.113666970332439 0.26572937343100445 -0.039106484965767158 0.0099141233834356794 0.085362077634988279 0.20323554126746082 0.1029306082534282 0.070185681823859355 0.10095484745799013 0.093294527213039879
leaf_weight=11148.274455087259 108.90013041906059 2088.3055528253317 322.55870984494686 273.12362572550774 26.846044838428497 174.90405011735857 97.44013350084424 295.26184515841305 831.0044302418828 39.085912162438035 1382.1370882540941 7.9355790354311457 37.155349567532539 69.449918674305081 24.870202761143446 43.575979866087437 93.637200992554426 26.316524604335427 237.30129069462419 59.808856148272753 2340.4010248742998 138.33577289618552 37.92595842294395 30.305788666009903 67.10213616117835 276.56255385093391 51.416981101036072 262.05766738764942 51.890859603881836 425.16266039758921 27.879535952582955 84.144638150930405 58.739710995927453 84.3392703384161 166.81643421202898 129.296008085832 131.11613612435758 53.181454602628946 71.525682885199785 232.42393578030169 1136.8401891626418 54.362370848655701 12.95331649109721 31.935766413807869 62.388793325051665 157.20354929193854 34.6352269500494 199.90839604847133 613.10496918857098 63.494434436783195 82.244173493236303 105.76463672891259 21.641240138560534 31.939744079485536 73.079254215583205 127.83162516355515 242.65233069099486 29.461734838783741 23.32854874804616 36.167752537876368 678.56709526851773 4258.0533287674189
leaf_count=6646 1408 2435 1192 597 11 869 1796 6649 533 158 624 33 215 510 431 753 1609 337 2444 580 6858 1505 181 132 580 1881 50 2391 397 1414 411 293 520 206 643 1135 368 381 175 702 31405 908 200 163 627 3744 333 2082 1489 311 492 1032 123 113 1146 1199 1480 159 85 132 2089 1599
internal_value=0.0751683 0.0626786 0.0447877 0.0332221 0.0211498 0.012488 -0.00306019 0.0211909 0.0701181 0.0418523 0.0880313 -0.0226671 0.055182 0.0467763 0.0378091 0.0871385 0.0130968 0.136953 0.0443234 0.0190355 0.0759672 0.0564485 0.0135271 -0.0163875 0.0766391 0.0663959 0.0389368 0.00907698 0.083111 0.0651513 0.0622022 0.062668 0.106163 0.0696529 0.0608642 0.0565376 0.0616713 0.0370509 0.0192784 0.0701871 -0.0245447 -0.0274644 0.0563421 0.0892421 0.0949609 -0.00961195 0.0338564 0.00128337 0.0760689 0.0257704 0.00999268 0.0421328 0.00114112 0.176862 0.0614553 0.0431117 0.0593295 0.125974 -0.0175542 -0.0294602 0.0884136 0.0879627
internal_weight=30186.1 15315.3 8968.9 6157.48 4051.6 3334.91 2240.61 1001.67 2811.43 706.413 14870.8 1238.94 608.973 571.817 532.731 177.805 354.926 112.588 1094.3 494.232 3722.54 2105.88 266.53 267.607 2451.03 1620.02 613.001 313.475 1007.02 600.067 128.194 1839.35 227.224 143.079 226.625 1612.12 1482.83 547.164 416.048 299.526 1231 1204.16 67.3157 85.1172 100.315 285.476 128.272 330.93 935.664 360.403 296.909 188.009 65.2172 87.718 716.687 443.563 370.484 55.7783 259.405 236.076 955.13 6346.36
internal_count=100964 86836 82802 70936 59991 55569 49487 16930 11866 10281 14128 32557 8485 8270 8112 1916 6196 1040 6082 3799 7482 10945 2724 2576 8623 8090 3723 2441 4367 2283 1219 8221 1019 726 1223 7202 6067 3386 3018 1282 32524 32513 1108 544 808 5686 1942 2474 2681 3243 2932 1524 876 609 4422 3825 2679 496 2299 2214 3970 4034
is_linear=0
shrinkage=0.05


Tree=13
num_leaves=63
num_cat=0
split_feature=5 6 3 40 114 6 107 77 38 107 36 63 3 77 62 107 56 102 23 116 84 89 23 6 37 73 100 30 105 68 36 105 76 58 33 27 38 65 111 64 110 104 12 10 83 39 96 63 82 84 69 63 10 6 89 104 76 17 6 8 36 93
split_gain=2549.82 2033.54 1137.84 794.263 597.862 553.974 606.407 497.746 389.607 383.614 375.364 349.218 276.373 245.573 450.466 245.221 245.186 243.832 232.39 208.901 207.173 197.295 195.644 202.018 191.045 188.604 207.93 187.752 171.973 169.767 169.278 165.457 201.386 161.78 159.626 158.488 224.709 174.651 181.331 156.33 156.142 156.1 155.681 192.001 223.512 153.149 153.952 274.052 177.085 172.086 340.242 246.301 293.093 213.973 197.624 153.171 150.736 150.604 149.869 166.996 148.134 160.349
threshold=6.4365000000000014 19.292656587070002 2468.5000000000005 1021.0000000000001 913.00000000000011 14.530237580690002 1.9749999999999994 6.1717062633700008 1019.7500000000001 3.4000000000000017 1012.5500000000001 22.208333333333339 167.50000000000003 12.513498919825 1.4742229591664036 6.0499999999999998 4.635730794599711 1.130131394883169 11.050000000000002 -0.96225018689905806 0.39389277096586567 10228.833333333334 13.600000000000003 11.322894168230002 1007.2500000000001 6.9978401726399682 1.4761436244487174 8.2127429803900025 -3.8876889847999996 2.548216696698566 1020.6500000000002 1.1663066954400008 0.79357119094989537 0.46654760385916 3.2073434124600007 13.437500000000002 1019.0500000000001 11.087500000000004 -22.422246219834154 0.84478794183316164 -12.417308195497995 -6.6999999999998741 -1.0000000180025095e-35 -0.35846811432664222 1010.3250000000002 1023.9500000000002 1.0666250548860032 10.658333333333337 2.3822258499042275 0.88916031217168567 13.080666666666671 9.8083333333333389 0.35846314187849709 6.2688984879900014 9642.2916666666697 -1.1000000000000794 2.0959896278601113 23.050000000000004 23.520518358040004 -0.5 1017.4500000000002 0.041666666666666373
decision_type=8 10 2 2 2 10 10 10 10 8 10 10 2 10 10 10 10 8 10 2 8 2 10 10 8 10 10 8 8 10 8 10 10 8 10 10 8 8 10 10 8 10 2 2 8 8 2 8 8 10 8 10 2 8 2 10 10 10 10 2 8 2
left_child=-1 2 12 -4 5 6 8 18 27 21 22 13 -2 -8 15 -15 17 -12 41 -17 -7 29 23 25 -21 34 -27 -5 -22 -9 -23 32 -19 -26 -11 -30 37 -37 -39 -32 -20 -6 -28 44 -44 46 49 48 -48 50 -14 54 55 -54 -52 -53 -13 -33 59 -3 61 -40
right_child=1 58 3 4 7 20 11 9 -10 10 16 56 45 14 -16 19 -18 31 40 24 28 30 -24 -25 33 26 42 -29 35 -31 39 57 -34 -35 -36 36 -38 38 60 -41 -42 -43 43 -45 -46 -47 47 -49 -50 -51 51 52 53 -55 -56 -57 -58 -59 -60 -61 -62 -63
leaf_value=0.09103196816065777 0.091132106705881177 0.086309327181946657 0.073048256095437136 0.025818578311694124 0.055948371935636371 0.10258001686057482 -0.029727819287840841 -0.029673496756445462 0.082631465986192254 0.10761227767000643 0.13199118809967811 -0.0026462283957535021 0.080844644353068873 -0.053283578002972315 0.18241641216104473 0.18497192450622968 0.17315208005033134 0.1818018116512671 0.15271862182493975 0.097875006591509925 0.083986229014944069 0.10608195046704083 0.14725197923563746 0.070033048729246344 0.13650426200745386 -0.026556323958901937 0.032209190567223996 -0.060213427433101499 0.09799566982373932 0.076853144857591857 0.076432565762857063 -0.00014102041991095855 -0.03838414428042116 -0.053053606762907241 -0.017722395886563987 0.053312543081472132 -0.040655571471754179 0.083424824097009631 -0.045901380995544923 -0.060454062568678704 0.0062171050052829118 -0.030997009406154755 0.048088997614144979 0.05285671893825105 0.18863302209844451 0.028531797663369714 -0.056727713479576718 0.068206984597704259 0.040263712360269752 0.083821678384261744 0.025059456539498412 0.035197819274270195 0.15091064148743721 0.025890595709022687 0.087229628124201264 -0.050350835951699979 0.11518415775757879 0.097808044250603729 0.090175278689577434 0.062572442544357884 0.083582590151739355 0.070768213638412611
leaf_weight=10277.690869309008 1053.4407161287963 1554.2174301445484 1386.9897422678769 314.23579637333751 61.220719207078218 135.85386838018894 1225.4785080440342 64.311360407620668 321.68286375887692 28.882190927863121 33.069664444774389 43.621335247531533 959.16207624599338 129.19669122062624 37.374526470899582 21.336285969242454 21.393756713718176 10.758677946403621 36.622675385326147 47.771979346871376 167.44250927865505 550.95114555209875 54.987621523439884 785.08707101456821 13.160809857770799 80.254447581246495 281.66695384867489 79.45111383870244 76.757024079561234 89.379490505903959 68.949934143573046 133.60598430782557 298.67444618605077 77.76745780184865 210.94186049886048 445.05009811557829 119.5401219073683 59.738275993615389 190.85020508803427 29.903011564165354 36.131193457171321 329.31426982581615 46.521769471466541 194.51180282607675 72.179710822179914 309.32816521823406 94.114464525133371 311.02781713008881 94.126610536128283 1234.4720640741289 218.7924589253962 74.831392198801041 47.248801082372665 124.16015084832907 307.44139788299799 173.95002793520689 71.845764307305217 55.565416734665632 3589.9806116819382 1416.0794060230255 34.331900553777814 34.824041729792953
leaf_count=2849 494 1131 3818 1894 316 383 31258 393 793 127 236 578 1124 3216 177 201 62 120 209 245 476 1681 180 2633 105 1077 2320 897 167 140 298 2118 6516 1930 2364 1865 1001 224 2135 374 316 4477 332 1163 269 1322 621 734 217 3656 1330 377 160 692 1009 2209 410 341 1154 1845 126 79
