tree
version=v4
num_class=1
num_tree_per_iteration=1
label_index=0
max_feature_idx=112
objective=binary sigmoid:1
feature_names=temp_c dew_c vis_m wind_mps slp_hpa ceiling_m precip_mm vis_km wind_knots ceiling_unknown hour_sin hour_cos doy_sin doy_cos wind_dir_sin wind_dir_cos dew_depression temp_c_lag1 temp_c_lag2 temp_c_lag3 temp_c_lag6 temp_c_lag12 dew_c_lag1 dew_c_lag2 dew_c_lag3 dew_c_lag6 dew_c_lag12 vis_km_lag1 vis_km_lag2 vis_km_lag3 vis_km_lag6 vis_km_lag12 wind_knots_lag1 wind_knots_lag2 wind_knots_lag3 wind_knots_lag6 wind_knots_lag12 slp_hpa_lag1 slp_hpa_lag2 slp_hpa_lag3 slp_hpa_lag6 slp_hpa_lag12 ceiling_m_lag1 ceiling_m_lag2 ceiling_m_lag3 ceiling_m_lag6 ceiling_m_lag12 precip_mm_lag1 precip_mm_lag2 precip_mm_lag3 precip_mm_lag6 precip_mm_lag12 dew_depression_lag1 dew_depression_lag2 dew_depression_lag3 dew_depression_lag6 dew_depression_lag12 temp_c_rollmean3 temp_c_rollstd3 temp_c_rollmean6 temp_c_rollstd6 temp_c_rollmean12 temp_c_rollstd12 dew_c_rollmean3 dew_c_rollstd3 dew_c_rollmean6 dew_c_rollstd6 dew_c_rollmean12 dew_c_rollstd12 vis_km_rollmean3 vis_km_rollstd3 vis_km_rollmean6 vis_km_rollstd6 vis_km_rollmean12 vis_km_rollstd12 wind_knots_rollmean3 wind_knots_rollstd3 wind_knots_rollmean6 wind_knots_rollstd6 wind_knots_rollmean12 wind_knots_rollstd12 slp_hpa_rollmean3 slp_hpa_rollstd3 slp_hpa_rollmean6 slp_hpa_rollstd6 slp_hpa_rollmean12 slp_hpa_rollstd12 ceiling_m_rollmean3 ceiling_m_rollstd3 ceiling_m_rollmean6 ceiling_m_rollstd6 ceiling_m_rollmean12 ceiling_m_rollstd12 precip_mm_rollmean3 precip_mm_rollstd3 precip_mm_rollmean6 precip_mm_rollstd6 precip_mm_rollmean12 precip_mm_rollstd12 dew_depression_rollmean3 dew_depression_rollstd3 dew_depression_rollmean6 dew_depression_rollstd6 dew_depression_rollmean12 dew_depression_rollstd12 slp_delta_3h slp_delta_6h wind_accel_1h wind_spike lat lon elev_m coastal
feature_infos=[-26.699999999999999:42.799999999999997] [-30.600000000000001:26.100000000000001] [0:16093] [0:27.300000000000001] [979.5:1044.2] [0:22000] [0:122] [0:16] [0:53.066954642520002] [0:1] [-1:1] [-1:1] [-0.9999994220246925:0.99998555065071859] [-0.99997919295908233:0.9999907524084426] [-1:1] [-1:1] [0:46.200000000000003] [-26.699999999999999:42.799999999999997] [-26.699999999999999:42.799999999999997] [-26.699999999999999:42.799999999999997] [-26.699999999999999:42.799999999999997] [-26.699999999999999:42.799999999999997] [-30.600000000000001:26.100000000000001] [-30.600000000000001:26.100000000000001] [-30.600000000000001:26.100000000000001] [-30.600000000000001:26.100000000000001] [-30.600000000000001:26.100000000000001] [0:16] [0:16] [0:16] [0:16] [0:16] [0:53.066954642520002] [0:53.066954642520002] [0:53.066954642520002] [0:53.066954642520002] [0:53.066954642520002] [979.5:1044.2] [979.5:1044.2] [979.5:1044.2] [979.5:1044.2] [979.5:1044.2] [0:22000] [0:22000] [0:22000] [0:22000] [0:22000] [0:122] [0:122] [0:122] [0:122] [0:122] [0:46.200000000000003] [0:46.200000000000003] [0:46.200000000000003] [0:46.200000000000003] [0:46.200000000000003] [-24.800000000000043:42.233333333333285] [0:10.072404545754368] [-24.333333333333332:41.583333333333336] [0:11.027783095436773] [-24.291666666666661:39.450000000000003] [0:12.479425491826992] [-28.366666666666664:25.766666666666648] [0:15.91550606588849] [-27.049999999999997:25.600000000000001] [0:13.204001918610386] [-27.041666666666668:25.150000000000006] [0:12.342412710452985] [0:16] [0:9.2376043070340135] [0:16] [0:8.6729188089516143] [0.10866666666666534:16] [0:8.2275355541896324] [0:42.375809934319975] [0:28.005081229945695] [0:39.038876889033332] [0:21.081080898798724] [0.24298056154999881:35.134989200130001] [0.43956837491427375:16.056143740606522] [979.53333333333364:1043.8333333333333] [0:5.2595944076832923] [983.2833333333333:1043.3166666666666] [0:7.8675070172595456] [985.14166666666654:1042.1833333333334] [0.098473193899009492:8.8901716246192706] [20:22000] [0:12701.705922171768] [35:22000] [0:12038.946797789251] [42.833333333333336:22000] [0:11468.240730580495] [0:58.899999999999999] [0:69.859668860747774] [0:36.949999999999996] [0:48.889579666836987] [0:25.304166666666664] [0:36.047468704473559] [0:43.20000000000001] [0:15.928695280321399] [0:42.733333333333327] [0:16.174506690056088] [0:38.975000000000001] [0:17.510643949185653] [-9.0999999999999091:15.299999999999955] [-13.100000000000023:19.699999999999932] [-48.984881208480004:48.012958962280003] [0:1] [32.899799999999999:39.856099999999998] [-122.379:-97.040300000000002] [4:1655] [0:1]
tree_sizes=6658 6774 6796 6767 6798 6788 6809 6803 6805 6821 6855 6821 6841 6851 6799 6882 6854 6887 6870 6896 6870 6879 6884 6890 6866 6865 6904 6870 6913 6905 6917 6890 6871 6900 6912 6921 6906 6911 6887 6922 6900 6914 6910 6927 6902 6874 6921 6934 6914 6912 6918 6956 6964 6940 6922 6915 6917 6925 6927 6904 6928 6930 6951 6908 6972 6954 6943 6953 6895 6954 6909 6980 6973 6925 6927 6934 6940 6924 6980 6915 6941 6971 6923 6942 6930 6958 6937 6924 6922 6968 6972 6938 6906 6931 6955 6964 6927 6952 6961 6954 6972 6952 6917 6980 6948 6986 6959 6950 6942 6979 6963 6943 6957 6967 6974 6947 6940 6933 6956 6903 6978 6948 6947 6914 6935 6959 6915 6946 6958 6940 6988 6956 6960 6908 6954 6953 6936 6932 6944 6931 6913 6945 6987 6976 6971 6919 6912 6939 6938 6971 6947 6967 6950 6927 6963 6943 6935 6932 6963 6935 6939 6951 6966 6981 6941 6954 6948 6978 6965 6950 6940 6946 6936 6963 6917 6935 6947 6959 6908 6944 6953 6965 6935 6959 6971 6905 6891 6915 6960 6954 6924 6945 6923 6952 6912 6935 6964 6947 6983 6995 6929 6954 6960 6935 6940 6940 6938 6947 6954

Tree=0
num_leaves=63
num_cat=0
split_feature=2 16 90 2 0 17 16 52 81 106 16 15 16 16 61 101 83 82 67 56 4 53 10 60 50 39 38 16 24 2 82 16 55 78 52 62 56 74 88 32 77 53 17 31 13 60 10 12 16 42 65 89 99 86 79 81 73 36 16 75 20 102
split_gain=1.28783e+06 96217.9 29800 27497.4 22120 18679.7 14470.3 10211.4 8956.3 5853.7 5352.6 6816.93 5151.1 5136.57 4839.68 4587.42 4288.56 3929.75 3679.69 3502.78 3531.32 4085.94 3475.54 3749.93 3406.78 3312.15 2975.07 3912.3 4653.43 2972.71 2893.06 2783.7 2675.44 2570.25 2452.81 2340.9 2321.49 2219.93 3131.27 2199.64 2116.88 2107.4 2076.38 2036.6 2025.63 2020.98 2913.29 1966.26 1957.21 1940.48 2039.08 1898.61 1882.09 1801.31 1718.32 1625.03 1594.34 2037.77 1559.23 1524.31 1316.51 2285.71
threshold=12218.750000000002 2.3000000000000007 8988.2635308677909 4919.7500000000009 3.1750000000000003 10.800000000000002 4.5500000000000016 1.1250000000000011 1016.9333333333338 -0.74999999999999989 1.4000000000000006 -0.46130913087034942 2.2500000000000013 3.9500000000000015 10.8375 3.0500000000000025 1018.7750000000002 0.36055512754642249 -8.6458333333333304 8.9500000000000028 1011.35 1.7000000000000008 -0.60355339059327362 0.99933311096285715 0.22500000000000003 1015.0500000000001 1008.7500000000001 5.5250000000000021 7.1000000000000005 2911.0000000000005 0.55075705474853132 6.7000000000000028 2.2500000000000013 1.880613038442317 1.6000000000000012 1.5030272482872638 13.850000000000003 4.110248310937604 8783.8044394487115 9.4762419004500007 20.037796975823337 1.7 30.800000000000004 12.218750000000002 -0.6391983530350368 0.84478794183329564 -0.37940952255126059 0.52766072109828632 3.9000000000000017 2195.0000000000005 -4.7249999999999952 8986.9166666666697 5.3333333333333419 1.6996880278407935 7.9130669544783334 1016.1333333333337 13.754416666666669 6.7548596110900005 1.1250000000000011 3.6285097191465669 2.9000000000000004 4.1229439320308758
decision_type=8 8 2 10 10 8 8 8 10 10 10 2 10 8 8 8 8 8 10 10 10 10 2 10 2 8 8 8 10 10 8 8 10 8 10 10 10 10 2 10 10 10 10 8 2 10 2 2 10 2 10 2 10 10 8 10 8 10 10 8 8 10
left_child=3 5 15 29 8 10 12 25 39 13 -2 34 58 17 -14 22 24 -6 51 20 -13 59 43 41 36 35 27 28 -17 -1 42 52 -16 45 -12 -7 -9 -28 -39 49 60 -24 -15 -3 54 46 48 -8 -11 -4 -51 -10 -32 -47 -33 -27 -18 -58 -5 -22 61 -29
right_child=1 2 4 6 9 7 47 16 18 33 11 19 14 30 32 26 56 -19 -20 -21 21 -23 23 -25 -26 55 37 40 -30 -31 31 44 -34 -35 -36 -37 -38 38 -40 -41 -42 -43 -44 -45 -46 53 -48 -49 -50 50 -52 -53 -54 -55 -56 -57 57 -59 -60 -61 -62 -63
leaf_value=-1.6414342854496669 -2.0485082013573002 -2.7897453057588972 -2.1039715851625607 -1.9001754326288758 -3.5538737115619652 -2.6094028989293778 -3.7539732463326851 -3.7246663037105092 -2.2601632700975882 -2.3757900649829802 -2.6171045276276717 -1.9988394181303866 -2.1550084186901191 -3.713967555945453 -2.4662189307820177 -2.5271993938141435 -2.4006286935352659 -2.4241979246494152 -3.6562381958655097 -2.0015425450686486 -2.0153857866890812 -3.4989075307243773 -2.6753266202197574 -2.482025423363782 -2.7079897996959428 -2.0382400304313242 -3.7225373693346748 -3.7539732463326851 -3.5753916460308459 -1.8082450616997887 -3.2150147000870062 -2.5868119171245301 -3.5874449793057357 -3.660089971914942 -3.6372081244430019 -3.5648306657360553 -2.8844123419955334 -3.7539732463326851 -2.5853075760098596 -2.0298491161373775 -2.880012099780819 -3.6545503117508118 -2.9140156247031612 -3.7539732463326851 -3.6149289488048262 -3.7539732463326851 -3.623243505981065 -2.6453225287099507 -3.2396259057965837 -3.5083394067583473 -2.3602194597652022 -3.2648735262996951 -2.3735870268815096 -2.8471247780730593 -3.5144707440679657 -2.6886336674696443 -2.7158488249488348 -3.5838359142232923 -2.1465640326500015 -2.801894817691823 -3.6936427092228512 -2.4943939508382869
leaf_weight=1393.8358876109123 78.478531181812286 6.3094469904899597 11.061343550682068 180.49755847454071 10.134531438350676 15.945927023887636 14.747684717178347 69.195721030235291 10.860364079475405 14.714408457279207 8.918861925601961 16.175866425037384 36.779755711555481 50.690664410591125 9.4486114382743853 19.836565852165222 11.987575650215147 32.025120973587036 20.74910706281662 37.030440509319305 10.497737765312197 15.901118040084837 7.5202201604843166 19.132058620452881 11.63258385658264 26.002953231334686 1290.191475212574 8.172283887863161 22.711354613304138 330.38996315002441 11.287964761257173 12.162333369255068 12.177602410316466 172.80309307575226 17.367472350597382 10.72162079811096 9.3284553885459882 12.751580893993379 10.411437988281248 42.34320467710495 9.2814882397651655 20.396853446960449 9.6572254300117475 41.471992373466492 29.169337570667267 29.800655901432037 15.512269973754881 5.4875218868255606 11.828086972236632 8.2558454871177656 7.2750117182731637 8.292439937591551 16.160017371177673 6.7086677551269522 8.467197656631468 15.228308916091917 15.627529680728914 11.91928309202194 99.666771650314331 14.909911572933195 168.06704556941986 6.4399757385253897
leaf_count=1915 731 150 115 1159 392 323 628 2907 146 231 182 135 419 2119 165 370 194 533 844 311 91 598 162 340 258 237 54149 348 888 1529 362 241 479 7042 700 417 239 543 206 379 237 829 253 1766 1163 1269 621 115 385 312 112 274 253 167 321 332 349 468 1119 358 6959 116
internal_value=-2.68098 -3.42772 -3.55793 -1.75627 -3.23569 -2.71158 -2.1545 -3.05607 -2.59876 -3.39648 -2.37001 -2.57887 -2.07687 -3.17861 -2.50402 -3.66385 -3.31615 -2.69575 -3.19493 -2.38079 -2.62509 -2.87032 -3.32628 -3.02124 -3.50655 -2.5593 -3.68454 -3.52049 -3.08671 -1.6734 -3.32656 -3.12392 -3.09758 -3.55228 -3.29109 -2.99353 -3.62485 -3.71383 -3.22868 -2.25368 -3.61664 -3.39077 -3.58595 -3.62665 -3.34675 -3.31517 -3.07888 -3.45332 -2.76074 -2.61008 -2.97053 -2.69516 -2.71962 -3.58734 -2.96756 -2.27846 -2.88196 -3.09142 -1.98783 -2.47693 -3.65406 -3.19885
internal_weight=4662.55 2579.52 2182.65 2083.03 539.959 396.87 358.806 197.59 108.837 431.122 199.28 120.801 338.57 179.754 58.406 1642.69 129.691 42.1597 39.9019 94.5151 57.4846 41.3088 94.8306 47.0491 90.1568 67.8988 1547.86 234.509 42.5479 1724.23 137.595 77.2469 21.6262 251.367 26.2863 26.6675 78.5242 1313.35 23.163 68.9354 191.961 27.9171 60.3479 47.7814 49.7989 78.5641 42.0548 20.2352 26.5425 26.5922 15.5309 19.1528 27.448 36.5093 20.6295 41.2313 39.5344 27.5468 280.164 25.4076 182.679 14.6123
internal_count=100955 93427 84597 7528 17534 8830 4084 5724 2182 15352 3106 2375 3341 5637 1063 67063 4415 925 1264 1493 1182 1047 3247 1331 3404 1309 63816 8918 1258 3444 4712 2340 644 9715 882 740 3146 54898 749 918 7660 991 2372 1916 1725 2673 1237 743 616 539 424 420 615 1436 562 569 1011 817 2278 449 7423 464
is_linear=0
shrinkage=1


Tree=1
num_leaves=63
num_cat=0
split_feature=16 90 14 110 13 16 103 83 77 65 20 71 4 79 4 31 13 96 109 10 65 7 20 86 88 66 99 92 5 55 92 105 69 106 41 57 105 58 15 85 57 79 88 83 64 7 67 7 7 69 92 62 88 1 86 11 60 12 105 100 11 14
split_gain=37681.3 9664.1 2556.11 2042.02 4122.62 1682.51 1570.76 1534.51 1450.58 1331.08 1400.79 1228.08 1021.88 977.579 919.007 907.101 893.176 967.545 1436.12 890.504 811.204 727.582 999.986 931.248 1715.09 1015.15 781.292 865.702 723.633 706.435 1512.17 698.51 642.361 876.989 631.475 596.312 571.537 538.044 508.787 499.173 1039.13 799.319 1705.31 642.512 598.981 474.775 557.412 454.843 980.816 798.433 1131 715.662 881.445 567.791 544.462 449.665 419.812 569.145 512.476 401.664 396.782 395.828
threshold=3.9500000000000015 8332.9084908411769 -0.21623361138472555 -113.52634999999999 -0.34234976856068178 11.65 5.095833333333335 1004.9833333333335 4.7138228940700007 22.208333333333339 -0.84999999999999998 10.950333333333338 998.05000000000007 4.4303455722616674 1018.9500000000002 11.066250000000002 -0.20180761162458913 5.2085997085207779e-07 35.260550000000002 -0.37940952255126059 -10.849999999999996 2.9110000000000005 21.825000000000003 1.3248213144059378 10431.880542635754 0.40824829046397265 4.6000000000000147 4151.1484354734184 716.50000000000011 2.7499999999999996 7608.6660081937089 -3.0500000000000109 12.812333333333306 -0.44999999999998858 1001.7500000000001 11.13333333333329 -2.0500000000000109 0.86216781042515234 0.53678821817552314 1011.9500000000002 5.0166666666666391 16.579373649761671 8259.7117285642398 1009.9083333333334 3.2331615074619058 11.448750000000002 5.00416666666667 15.621000000000002 12.873500000000002 12.275999999999968 10342.791892948926 1.0547152423434598 12332.076270884874 8.4500000000000011 2.2123876446695134 -0.78656609248549325 1.0315037566580709 0.52766072109828632 3.5000000000000573 0.32145502536640652 -0.78656609248549325 -0.21623361138472555
decision_type=10 2 2 2 2 10 8 8 8 10 8 10 10 8 10 8 2 2 2 2 8 10 8 10 2 10 10 2 2 10 2 10 10 10 10 10 8 10 2 10 8 10 2 10 10 10 8 10 10 8 2 10 2 8 10 2 10 2 8 10 2 2
left_child=3 12 15 4 11 7 29 -4 -7 10 -9 -1 20 -8 16 -3 19 18 -18 31 -2 -5 26 24 -24 -25 27 37 -14 55 -31 -12 -32 -34 -17 -28 -16 -23 -33 40 43 44 -43 -30 -42 -37 -47 48 -29 -49 54 -52 -53 -50 56 -6 57 -51 -59 -56 -45 -58
right_child=1 2 5 21 6 8 13 9 -10 -11 14 -13 28 -15 36 34 17 -19 -20 -21 -22 22 23 25 -26 -27 35 47 39 30 32 38 33 -35 -36 45 -38 -39 -40 -41 41 42 -44 60 -46 46 -48 49 53 50 51 52 -54 -55 59 -57 61 58 -60 -61 -62 -63
leaf_value=0.32016450954259812 0.57944697330208361 0.25895768868370705 0.51375674516758263 0.30536266760251407 0.35122394096096954 0.3057784843951778 0.27113502308447979 0.39241426741157726 -0.051831786521026726 0.65504868202635524 0.5521378818142969 -0.051977741794296234 0.31382839705293497 -0.022734377706758097 0.36921913335765849 0.28542954866763476 -0.051999565963099917 0.53040532663599327 0.30740512294821032 -0.051854131023625308 0.059901340695793316 0.0097682380601366442 -0.052362707501726585 0.80524978806371683 0.27556013972651472 0.2518289931458661 0.36968241749433745 0.33529889839556315 0.041515409730440399 -0.014184454033820161 0.30571899973971722 0.011624999382723442 0.28894169039234546 -0.0064477456013831832 0.015867515861538839 0.3659485171590256 -0.051828424893855113 0.27386149629935186 0.28694067480673729 -0.043560081034237544 -0.038403416387301596 -0.051784612910032925 0.78917159477513732 0.62092385316167831 0.35590903149214342 0.78738897850144696 0.48005456654533935 0.38383966218313348 0.39491642681932643 0.33072368219083342 -0.054042690637879337 -0.054068538755046941 0.31169385233135327 0.56587587423756769 0.28577039433433776 0.28865617639300756 0.46225396094314442 0.0088586603748118664 0.36781238350276702 -0.054229563119885006 0.2312424308065095 0.317709418086152
leaf_weight=26.795569846406579 12.814578788354991 57.85343780554831 64.205057876184583 6982.8958711400628 480.90571688301861 44.765095628798008 49.350319491699338 117.64155828207731 77.365181233733892 20.075706304982305 13.398746307939289 128.40024181827903 16.400378195568919 66.345298813655972 9.5987245030701143 23.892674779519439 33.83694770373404 34.700955428183079 155.65667138434947 46.710873767733574 18.160809537395838 31.743470849469304 51.438414763659239 14.180559877306221 177.34650591947138 19.93515188805759 238.0588958542794 2260.5611357986927 21.627169607207179 51.314915427938104 339.37830810621381 31.81749876216054 58.945005562156439 43.797157436609268 239.57485814392567 33.563946967944503 50.269861798733473 49.143898712471128 35.508290754631162 789.66928802244365 312.36361608281732 16.086543362587694 9.6413702517747861 12.030624810606243 9.9374154526740295 24.111373145133257 38.013341216370463 203.00709736533463 188.84739576280117 99.863248601555824 36.06819461658597 22.597366029396653 60.762882776558399 65.381753532215953 17.804171608760953 712.78893553465605 78.447957964614034 32.332692997530103 14.35946651175618 16.962287465110421 14.293499717488883 119.53072239644825
leaf_count=41 82 488 384 1648 845 416 327 547 2799 364 109 4722 174 1960 128 382 1161 329 940 1698 638 680 1694 104 1274 388 882 2615 664 1363 439 1011 632 1271 8541 52 1841 315 483 33796 12795 569 121 111 245 78 451 705 494 753 744 474 386 275 112 1791 410 661 52 356 352 793
internal_value=0.273223 0.0863804 0.197328 0.306558 0.259553 0.248722 0.280839 0.282464 0.0792451 0.255425 0.240263 0.012275 -0.00871682 0.102617 0.196766 0.0796796 0.227598 0.287677 0.243228 0.121901 0.274838 0.31502 0.332337 0.238171 0.201832 0.481864 0.339154 0.331776 -0.0160237 0.293061 0.242739 0.222443 0.272558 0.163022 0.0403129 0.412055 0.0156781 0.170221 0.156829 -0.0205863 0.0252282 -0.00483682 0.263358 0.243439 -0.0262457 0.517472 0.599335 0.335838 0.345771 0.300245 0.266218 0.132032 0.212543 0.438883 0.308468 0.313863 0.327498 0.263349 0.119249 0.119887 0.409334 0.374984
internal_weight=15124.9 2289.9 1056.87 12835 1958.02 735.551 1802.83 613.421 122.13 549.216 529.14 155.196 1233.03 115.696 411.499 321.321 351.63 224.195 189.494 127.435 30.9754 10877 3894.06 262.901 228.785 34.1157 3631.16 3297.41 1202.05 1687.13 493.435 80.7245 442.12 102.742 263.468 333.748 59.8686 80.8874 67.3258 1185.65 395.98 348.029 25.7279 47.9513 322.301 95.6887 62.1247 3216.53 2514.79 701.736 498.729 119.428 83.3602 254.229 379.301 1193.69 344.534 146.555 46.6922 34.7665 26.3241 197.979
internal_count=100955 71168 21621 29787 13391 12210 8628 8995 3215 8611 8247 4763 49547 2287 7700 9411 5731 2430 2101 3301 720 16396 14748 3460 2968 492 11288 9825 48827 6341 3705 1603 2342 1903 8923 1463 1969 995 1494 48653 14857 13730 690 1127 13040 581 529 8830 3384 5446 4741 1604 860 769 3137 2636 2669 1466 713 468 463 1203
is_linear=0
shrinkage=0.05


Tree=2
num_leaves=63
num_cat=0
split_feature=2 90 52 110 41 52 3 13 15 78 84 52 64 23 88 82 52 6 79 37 4 60 100 36 81 17 105 92 102 66 4 90 79 22 91 87 99 96 82 83 12 20 88 86 56 76 106 109 90 105 85 88 100 41 21 22 102 106 105 75 78 43
split_gain=19504.1 6970.61 4846.43 2390.07 1685.33 1648.19 1458.51 1327.31 1001.6 977.074 934.752 1069.27 814.832 941.661 731.854 706.525 703.981 663.987 655.565 662.85 650.133 575.116 714.567 565.952 662.902 729.93 522.774 477.769 456.055 557.338 799.636 448.725 425.169 424.743 562.062 497.616 514.171 405.82 482.201 420.308 412.595 1013.84 720.997 401.658 376.045 368.676 335.224 529.017 459.965 318.141 433.421 310.094 290.975 333.546 281.757 566.981 281.586 274.554 266.103 262.851 565.832 262.359
threshold=14765.250000000002 8332.9084908411769 1.7000000000000022 -113.52634999999999 1009.5500000000001 10.050000000000002 9.9250000000000025 0.69521084835931835 -0.60818202301879276 7.3054251782743664 0.57183913821466192 6.1000000000000005 0.34641016151382309 23.600000000000005 9628.143049014634 0.10000000000019559 2.8000000000000003 0.22500000000000003 15.882829373318334 1025.8500000000001 994.75000000000011 3.2264015042561831 1.8147543451754993 18.029157667010004 1002.2000000000006 10.150000000000002 -0.09999999999996588 10458.830818350822 0.68313005106404567 1.3121229617176355 1011.4500000000002 6498.0591722125255 10.047246220092502 14.075000000000001 14201.500000000002 8710.0000000000018 1.6666666666666643 0.81649658092772659 0.11547005384049007 1017.0500000000001 -0.63921128368950708 20.300000000000004 9184.7107424240276 0.99128780658337279 19.750000000000007 4.2335368182060842 -0.55000000000001126 38.738700000000001 9869.8141842073182 1.0000000180025095e-35 1017.8583333333335 12508.316580025383 0.81853527718724373 1005.0500000000001 -7.4999999999999991 -3.1749999999999994 0.54924190177650234 -0.85000000000002263 0.40000000000003416 6.3498920085066288 1.5338727321246015 137.00000000000003
decision_type=8 2 8 2 10 8 10 2 2 10 8 8 10 10 2 10 10 2 8 8 10 10 10 10 8 10 10 2 8 10 10 2 8 10 2 2 10 2 10 8 2 8 2 10 10 10 10 2 2 10 8 2 10 8 8 8 10 8 10 10 10 2
left_child=-1 2 32 7 10 8 21 9 12 61 -4 52 13 15 -8 -5 26 -18 19 37 -6 -7 -23 24 25 -13 -9 33 29 30 31 -22 56 35 -35 -14 -37 40 -39 -40 42 46 -10 -25 -34 -17 -42 48 -48 50 -44 57 53 -12 55 -30 -2 -21 -54 60 -49 -3
right_child=1 3 4 5 20 6 14 16 18 -11 11 23 27 -15 -16 45 17 -19 -20 51 28 22 -24 43 -26 -27 -28 -29 54 -31 -32 -33 44 34 -36 36 -38 38 39 -41 41 -43 49 -45 -46 -47 47 59 -50 -51 -52 -53 58 -55 -56 -57 -58 -59 -60 -61 -62 -63
leaf_value=0.24028469101303382 0.33361918296456727 0.28776813106452864 -0.051686660868726711 0.22040786881391355 0.40853357615723651 -0.03743571845561279 0.63886292160378366 0.36208900569132824 0.56858218807794358 0.59064209278713464 0.28503201027931419 0.37387906769860496 0.26316497366398273 0.44254709452559826 0.16529786030921662 -0.037088742309854573 -0.052289560522534945 0.44113488581573812 0.012626294798863819 0.19982622796325511 0.09055782179021582 0.34479702743368867 -0.051956341549960476 0.52337193648612412 -0.051484895103226451 -0.051875110917019365 0.093258197361998058 0.018995967580476281 -0.051412223126691838 0.27082365572518274 -0.035808524825240523 0.52255714207347326 0.011693234740821588 0.24415192887606352 0.53438714435663781 0.27874440721167176 -0.053143674289474974 0.27400541282702912 -0.054556179274278895 0.18634278929424286 0.31418630318270402 0.0018952232825778235 0.46257321102482174 0.10589562220099313 0.30754821880726968 0.23299558552982644 0.27028296648568162 0.29649655380064704 -0.053119854818588434 0.21639531198931553 0.23069505207149876 0.2417837520060224 0.42252952624682227 -0.05276263678876271 -0.039240851966062119 0.50222644058134935 0.20948393818012986 -0.054572691414364653 0.23192648861728604 0.28332522710195618 -0.054201114970614687 -0.051808485879747949
leaf_weight=14411.098740691319 114.08382086083293 5.8558661174029103 71.017653048038483 44.055011635646224 8.8032238055020553 136.15361962094903 14.651008587330578 53.326807444915175 29.321678057312965 6.2895422559231511 17.830665079876784 23.607924699783325 82.049047686159611 16.317875411361456 18.410002406686544 123.98711925931275 40.665839938446879 8.1913778427988273 29.992178147658706 15.867446545511482 13.964018609374763 25.356088662520051 20.54294877499342 10.552865045145156 86.408349080011249 17.551540274173021 27.363492323085666 27.306563477963209 12.680889895185826 24.936523627489805 124.82089571282268 10.55449336580932 30.452001629397273 54.027776708826423 24.131740329787135 18.062831128016114 32.971924420446157 79.334487352520227 28.375555023550987 50.033149048686028 262.08979896828532 36.992447072640061 47.027010349556804 12.689368732273577 16.592697162181139 14.069084879010914 18.699102817103267 28.635920422151685 26.683886678889394 66.901984283700585 35.264528742060065 26.973507426679134 38.115282535552979 12.383036090061067 998.56790734454989 7.2787905409932163 76.195132412016392 31.982409374788404 35.244042471051216 255.35408076271415 19.222431879490614 198.42626527510583
leaf_count=12137 303 17 2750 457 206 4575 132 240 236 57 121 182 332 98 313 3131 1285 85 582 150 353 321 727 127 3508 616 410 465 522 335 4699 121 592 484 220 51 890 245 561 397 1116 993 251 295 14 151 238 102 715 652 271 69 170 373 42204 15 579 692 393 919 440 7270
internal_value=0.213589 0.113541 0.0404298 0.175528 0.00776047 0.199213 0.0696445 0.0542982 0.217481 -0.0231758 0.108701 0.153477 0.153535 0.078673 0.375159 0.0460684 0.180227 0.0304377 0.243146 0.249676 -0.0195746 0.0141627 0.167223 0.0685241 0.02718 0.192326 0.270924 0.215806 -0.0227342 0.0520073 0.0154696 0.276521 0.250634 0.241247 0.333762 0.186913 0.0643221 0.260586 0.187097 0.0991632 0.274617 0.256067 0.34192 0.295446 0.116041 -0.00956488 0.271463 0.239342 0.0801315 0.297373 0.363206 0.106212 0.277175 0.146587 -0.0355229 0.150486 0.283911 0.0297883 0.330958 0.263171 0.155638 -0.0420743
internal_weight=18256.4 3845.29 1764.33 2080.96 1527.01 1740.84 215.114 340.119 1525.73 210.572 325.401 254.383 436.979 198.429 33.061 182.111 129.548 48.8572 1088.75 1058.76 1201.61 182.053 45.899 150.81 127.568 41.1595 80.6903 238.55 1192.8 174.276 149.339 24.5185 237.324 211.243 78.1595 133.084 51.0348 983.936 157.743 78.4087 826.193 647.678 178.515 23.2422 47.0447 138.056 610.685 348.595 45.383 149.194 82.2915 74.8234 103.573 30.2137 1018.53 19.9597 190.279 47.8499 73.3593 303.212 47.8584 204.282
internal_count=100955 88818 58478 30340 56990 20976 6068 9364 14908 7344 8535 5785 6279 3837 445 3739 2020 1370 8629 8047 48455 5623 1048 4728 4306 798 650 2442 48249 5508 5173 474 1488 1977 704 1273 941 7136 1203 958 5933 4523 1410 422 606 3282 3530 2414 953 1174 522 911 1057 494 42741 537 882 842 563 1461 542 7287
is_linear=0
shrinkage=0.05


Tree=3
num_leaves=63
num_cat=0
split_feature=16 5 16 87 42 66 25 73 16 37 109 14 41 98 63 41 30 37 86 62 75 37 37 22 44 93 106 107 112 13 71 101 87 45 3 14 95 105 36 4 58 75 88 21 54 101 66 106 43 40 106 58 46 77 78 5 12 61 12 67 99 14
split_gain=15482 3213.53 1675.37 1579.56 1501.78 1109.66 868.059 789.197 760.036 960.413 757.206 731.546 720.538 677.272 629.471 623.083 656.303 542.912 471.827 421.532 408.383 391.26 619.65 535.482 470.318 400.475 383.83 595.507 383.697 1147.16 457.575 434.22 795.199 380.705 376.861 367.663 366.465 314.171 306.146 303.751 303.313 290.832 289.812 237.364 235.435 221.857 317.107 221.387 221.154 247.846 219.092 199.287 198.956 220.779 197.703 239.073 196.323 321.729 277.49 192.075 318.878 260.732
threshold=5.5250000000000021 2545.0000000000005 3.3000000000000003 10990.833333333334 5638.5000000000009 0.76941536246685727 -1.0499999999999998 10.946375000000003 11.65 1014.2500000000001 35.260550000000002 -0.57139380484326974 1011.85 0.23915887961137836 22.416666666666647 1009.6500000000002 4.0047500000000005 1007.4500000000002 0.2598076209543882 3.5755058976656855 4.341252699693289 1008.4500000000002 1008.1500000000002 12.050000000000002 1905.0000000000002 0.20000000000001192 -0.80000000000012494 3.5961123109400019 1.0000000180025095e-35 -0.34234976856068178 10.950333333333338 2.2166666666666655 16647.833333333339 1265.0000000000002 8.2250000000000014 0.67494719543654369 0.049999999999999482 -0.94999999999998852 11.031317494370002 999.1500000000002 4.4613152021946823 3.304535637079915 10054.242939020267 13.600000000000003 4.5500000000000016 2.9916666666666649 2.4807928803669257 2.3000000000001255 2545.0000000000005 1010.85 -2.5999999999999654 0.55075705472860836 5334.0000000000009 15.518358530993332 6.9325608896939652 381.00000000000006 0.21022171450811275 11.400000000000004 0.99818282439137029 18.662500000000005 2.2333333333333432 0.92300020391127935
decision_type=10 2 8 2 2 10 8 10 10 8 2 2 8 2 10 10 10 8 10 10 10 10 10 10 2 2 10 10 2 2 10 8 2 2 10 2 2 10 10 8 10 10 2 10 10 8 8 8 2 10 8 10 2 10 10 2 2 8 2 8 8 2
left_child=2 11 28 6 8 13 44 -8 9 26 12 -2 -9 42 21 -7 -17 -12 -18 38 -16 22 25 -24 35 34 48 -28 59 30 -30 -31 56 -14 -6 -23 -15 -34 47 -36 45 -11 -5 -44 -4 46 -26 52 -3 -50 -40 -35 -13 -54 55 -20 -33 -58 -59 -1 -61 -62
right_child=1 4 3 5 14 15 7 10 -10 41 17 19 33 36 20 16 18 -19 54 -21 -22 24 23 -25 40 -27 27 -29 29 31 -32 32 37 51 39 -37 -38 -39 50 -41 -42 -43 43 -45 -46 -47 -48 -49 49 -51 -52 -53 53 -55 -56 -57 57 58 -60 60 61 -63
leaf_value=0.20016220556011879 -0.052595571994525053 0.18512882960936125 0.20041974033837581 -0.051821168592425748 -0.039146203029446255 0.24229044880794737 0.19851961863512974 -0.053484349335325754 -0.052025022101612889 0.17259366329296927 0.20577926954460471 0.20187160803201951 0.030542399700343725 0.43427664204952077 0.43969517995786878 0.34885567280761826 0.21428304173580598 -0.025204557503507585 0.27080711818013603 0.35871755906436564 0.06311666361235066 0.0015932640063613833 0.087013525892914056 0.56592228579573312 -0.052340119492639552 0.30998540674893454 0.0048759380620633326 0.39834292201509086 0.20440844770539793 0.19831889163819086 -0.05248139331001464 0.18823352104428595 0.19593093292424768 0.30045149010351407 0.22547016435423628 0.2458196146684776 0.072178356182048056 -0.053567299879864833 0.18994553694438182 0.0050919354770183924 0.34932165689078709 -0.024174987455542807 0.19464967927015764 -0.052217363268178163 0.27362998513061315 -0.042703654181571384 0.30837215473510615 0.28912884526204502 0.2472087275687741 0.44138372502656059 -0.052957662984574994 0.15894277911567722 -0.052938159134331378 0.2078752368967802 0.25588779141781365 -0.052354189754502858 0.17897216445020017 -0.056758862882797967 0.19494315375480759 0.18489117325823604 -0.0083563032403530333 0.19927637756577798
leaf_weight=14472.041763106361 30.168784327805042 32.972830343991518 276.72466062940657 199.01628852449358 160.97848040051758 101.49638118967414 300.49919507093728 30.912329893559217 54.783814622089267 25.900750506669283 30.841330422088504 145.24641367606819 23.32716610468924 12.469495655968787 12.269614223390819 19.898743204772472 29.925634538754821 145.24064026027918 6.1293030381202689 39.130361473187804 17.422102119773626 36.757294349372387 14.360253585502507 9.8339628279209119 13.595664300024511 11.035167675465344 33.64487037435174 13.464874569326637 22.692424595355988 1597.6228549666703 73.414816806092858 394.61603228189051 15.920545930042861 73.728833068162203 28.609586684033275 26.534270374104381 15.893737392500041 60.814674068242311 16.269475176930428 34.479961862787604 5.060917727649211 68.295414073392749 24.119211256504059 16.329295026138425 182.06959749944508 930.50101954117417 11.040842683985828 58.175414992496371 33.034174133092165 32.702303051948547 21.618864241987467 37.552405463531613 17.879863686859608 14.855708053335546 6.425237199291586 86.356151815503836 83.685077419504523 35.807367738336325 15.77358624525368 336.65495989285409 42.871539782732725 23.357092490419745
leaf_count=10555 1044 193 507 7767 6163 681 422 717 1973 171 214 513 385 150 43 27 273 4411 12 376 433 1049 364 144 443 94 808 171 26 1802 2575 1165 96 397 184 137 286 1678 109 892 181 1926 215 562 364 40088 11 235 152 259 636 393 559 17 21 3045 250 589 70 965 863 104
internal_value=0.177776 0.0436993 0.191692 0.143068 0.0140378 0.0710731 0.176948 0.139418 0.116017 0.154373 0.0874277 0.182552 0.164208 0.000340748 -0.00886801 0.146779 0.0816031 0.015253 0.040326 0.205204 0.218732 -0.0141361 0.0407255 0.28167 -0.0280351 0.0159301 0.23476 0.117336 0.196275 0.177271 0.00817432 0.184644 0.14863 0.2142 0.00144814 0.103982 0.23137 -0.00180296 0.183285 0.105028 -0.036737 0.0299297 -0.0270233 0.094988 0.229473 -0.0387826 0.109313 0.204452 0.290802 0.343806 0.0513464 0.252699 0.176775 0.0654214 -0.0123051 -0.0309373 0.170415 0.118432 0.0202123 0.199214 0.165161 0.0648703
internal_weight=20744.9 1950.62 18794.2 1618.96 1607.28 518.059 1100.9 642.102 294.799 240.015 341.603 343.345 165.521 267.828 1312.48 250.231 148.735 176.082 128.836 313.176 29.6917 1282.79 259.297 24.1942 1023.49 235.103 145.819 47.1097 17175.3 2300.35 96.1072 2204.24 606.617 134.608 224.068 63.2916 28.3632 76.7352 274.046 63.0895 960.198 94.1962 239.465 40.4485 458.794 955.138 24.6365 236.157 98.7093 65.7365 37.8883 111.281 177.982 32.7356 98.9107 92.4855 529.882 135.266 51.581 14874.9 402.884 66.2286
internal_count=100955 59368 41587 20849 55879 13039 7810 6939 5653 3680 6517 3489 1892 8980 50226 4059 3378 4625 3351 2445 476 49750 7841 508 41909 7333 1583 979 20738 8251 2601 5650 3848 1175 7239 1186 436 1774 2069 1076 40723 2097 8544 777 871 40542 454 1324 604 411 745 790 1089 576 3078 3057 2074 909 659 12487 1932 967
is_linear=0
shrinkage=0.05


Tree=4
num_leaves=63
num_cat=0
split_feature=16 92 2 110 55 15 5 105 61 18 3 42 70 105 76 92 82 102 68 4 92 92 85 57 60 4 22 58 61 55 41 49 21 58 44 16 68 89 55 82 82 16 78 41 36 79 11 102 105 98 98 106 5 77 76 32 100 11 5 82 43 12
split_gain=11384.3 2737.31 2321.55 1583.33 1648.34 880.269 737.504 589.548 580.521 520.541 513.773 453.472 448.403 386.495 378.17 377.096 362.997 344.783 343.271 510.058 333.262 412.775 328.911 503.694 332.128 473.461 343.63 338.548 314.378 396.868 312.251 309.416 302.318 443.968 297.025 288.292 281.299 278.121 264.414 261.053 411.729 252.98 231.462 221.356 221.063 262.336 215.533 198.728 213.067 198.276 469.858 197.736 175.893 173.034 276.579 162.912 164.619 158.799 173.284 196.599 157.851 157.033
threshold=5.5250000000000021 8299.1890357735592 14765.250000000002 -113.52634999999999 2.7000000000000011 -0.60818202301879276 2545.0000000000005 -1.3999999999999202 14.352083333333336 24.450000000000003 16.250000000000004 5638.5000000000009 4.9021481238465219 -1.9999999999999429 2.1323303678048551 9477.8576765156649 1.2503332889007341 2.7969030492074753 0.72738635476142288 1016.7500000000001 10430.839185674364 5814.3447688376009 1003.8708333333335 9.6333333333333186 0.57503623074162624 1010.9500000000002 22.250000000000004 4.8294237061303091 21.687500000000004 3.3500000000000001 1007.0500000000001 0.22500000000000003 17.225000000000005 0.86216781042523272 472.50000000000006 11.150000000000004 6.1648502114876207 10990.750000000002 1.6000000000000005 0.60277137733414143 0.11547005392374249 4.4000000000000021 0.73163648749875665 1027.8500000000001 15.210583153030003 5.8679805614325007 -0.98296291314453399 1.6609234379306963 -0.59999999999996578 0.57735026918962651 1.5595137412044839 2.9000000000000346 564.00000000000011 5.53995680334 1.591105290395544 15.98812094999 2.179449471770337 0.37940952255126048 503.00000000000006 0.25166114785790111 1082.0000000000002 -0.71504373327588355
decision_type=10 2 8 2 8 2 2 8 8 10 10 2 10 10 10 2 8 10 10 10 2 2 8 10 8 8 10 10 8 10 8 2 8 10 2 10 10 2 8 8 10 8 10 10 8 10 2 10 8 2 2 10 2 10 10 10 10 2 2 8 2 2
left_child=2 10 -1 4 8 12 17 9 14 16 22 15 20 -6 -4 35 34 39 19 32 21 42 23 -2 25 -24 27 36 -11 -30 -23 60 -7 -34 -8 37 38 55 -26 40 -3 44 -5 -15 45 -32 -21 -47 -49 53 -51 -43 -16 54 -20 56 -9 58 -52 -60 -13 -55
right_child=1 6 3 5 13 18 7 11 -10 28 -12 31 -14 43 52 -17 -18 -19 49 46 -22 30 24 -25 26 -27 -28 -29 29 -31 41 -33 33 -35 -36 -37 -38 -39 -40 -41 -42 51 -44 -45 -46 47 -48 48 -50 50 57 -53 -54 61 -56 -57 -58 -59 59 -61 -62 -63
leaf_value=0.1711429035450929 0.21200256459462019 0.16445143209128568 0.19809600109109204 0.26491224089089049 0.1619423697438509 0.18450303637426518 0.19213957704970885 -0.053200167276123013 -0.053316704833208134 0.39308092148814278 0.33585423440935969 0.08683733613856659 0.19971089319247015 -0.03956677247525698 0.14692436957919217 -0.01685473193893559 0.1875912079403993 0.23349142566662595 0.17512947664676806 0.16990655676702568 -0.054988908548848303 -0.054939740395689954 0.24144678621492466 -0.052095659217219592 0.13050998366788924 -0.05122772449731966 0.19261233221437152 0.39051267852361082 0.28274309549234161 0.0246294464509134 0.0060355014364823108 0.20697949656645181 -0.05524237491423574 0.20155299826129591 -0.05278506583986442 -0.051889572541990239 0.31619456864564877 0.28931958273509983 -0.046687076196705188 0.16567330986842665 -0.052730385346626552 -0.052642901071418217 -0.052632671269039012 0.25164007163445279 0.0055412533453935283 0.17558654375874685 -0.026367950120789643 0.15622810577599805 -0.053957349986054726 -0.011816355563512487 0.19243315265421931 0.24365182691693446 -0.05549350701469731 0.23571858969137782 0.0068823894822177302 0.20256726225860278 0.15471640405552789 0.21465263765690923 0.16904892607359454 -0.055794846553520377 -0.041633810461214754 0.18357545138417061
leaf_weight=17977.011545578018 37.209840824827552 44.134698050096631 204.29549301601946 6.3031190168112508 27.351462518796325 205.42459897883236 15.892428467050193 19.654003035277128 33.100803816691041 22.579909007996321 10.298403043299912 27.253528222441673 85.287379786372185 322.27367082983255 19.50179341994226 51.921135174110532 41.15058627538383 108.2792439982295 102.39265118911862 17.633238907903433 44.324504595249891 28.027844680473208 27.119273012503982 35.069907719269395 21.5755012948066 28.17404798604548 16.448483560234308 4.5858088321983805 35.609556842595339 25.597619505599141 31.622634096071124 15.245981967076657 36.640410520136356 31.132397482171655 55.984577799215913 16.177468281239271 5.5028616189956656 35.188370365649462 869.07537681423128 151.07210684940219 43.16605501063168 32.975517293438315 64.080867704004049 6.6605922356247893 32.101403016597033 249.47982934303582 67.64185805618763 27.962777895852923 21.197572756558657 43.936012905091047 39.741167245432734 6.7904369030147782 23.866333009675145 191.57293257862329 32.079482806846499 30.490949232131243 18.463638873770833 95.186761394143105 17.539020402356982 21.813571318984032 194.87778637558222 586.25453073345125
leaf_count=10300 336 240 1115 52 199 573 78 566 905 144 39 369 188 12343 120 1249 294 249 467 104 814 530 303 1208 379 1291 324 113 132 567 446 175 700 198 1753 622 133 265 39095 785 1359 1053 2151 149 496 1457 1176 173 490 529 76 87 470 651 567 74 94 216 59 376 7132 2357
internal_value=0.153583 0.0399007 0.164592 0.121862 0.0527435 0.14264 0.101337 0.0680674 0.143345 0.139179 -0.0155772 0.0338707 0.0931044 -0.0186533 0.169629 0.0957187 0.0691681 0.159505 0.163604 0.120971 0.0764173 0.0880538 -0.0190413 0.0838629 -0.0266897 0.092318 -0.0338642 -0.0379999 0.233622 0.174797 0.10642 -0.0109163 0.154292 0.0627202 0.00136921 0.144437 -0.0401927 0.175036 -0.0423946 0.125897 0.0570654 0.117667 -0.0241955 -0.0336701 0.130804 0.14298 0.0142178 0.157481 0.0655977 0.177123 0.134308 -0.00204759 0.0355298 0.187364 0.134993 0.116421 0.0475116 0.171146 0.118788 0.0444156 -0.0258715 0.196418
internal_weight=22741 2007.8 20733.2 2756.19 637.05 2119.14 952.74 606.088 280.764 196.815 1055.06 409.273 630.154 356.286 247.664 171.896 113.028 346.652 1488.99 358.473 544.867 500.542 1044.76 72.2797 972.481 55.2933 917.188 900.74 83.7871 61.2072 430.158 237.377 273.197 67.7728 71.877 119.974 896.154 103.797 890.651 238.373 87.3008 402.13 70.384 328.934 362.364 330.263 85.2751 298.64 49.1604 1130.52 218.217 39.766 43.3681 912.3 134.472 68.6086 38.1176 174.281 79.0938 39.3526 222.131 777.827
internal_count=100955 59368 41587 31287 15301 15986 16147 13514 2610 2968 43221 10546 7937 12691 1705 2870 2125 2633 8049 2751 7749 6935 43182 1544 41638 1594 40044 39720 843 699 4732 7676 1471 898 1831 1621 39607 999 39474 2384 1599 4202 2203 12492 3062 2566 1280 2120 663 5298 1256 1140 590 4042 1034 734 660 727 511 435 7501 3008
is_linear=0
shrinkage=0.05


Tree=5
num_leaves=63
num_cat=0
split_feature=16 90 2 5 5 80 52 90 4 110 59 61 4 37 37 4 78 82 13 24 85 78 64 60 59 55 68 54 8 20 55 13 41 58 49 52 14 21 73 59 85 76 75 98 59 16 60 76 68 67 86 106 79 12 105 79 81 14 107 33 82 91
split_gain=8960.89 2114.09 1358.35 1574.54 840.76 620.226 604.835 600.893 557.37 510.091 633.512 475.981 470.87 657.22 446.059 632.84 416.676 521.474 389.321 513.928 456.756 396.831 357.6 351.422 350.919 423.996 349.988 339.25 334.696 307.241 476.968 304.364 316.593 290.639 290.439 360.709 283.885 275.653 252.669 270.221 246.057 243.986 238.376 237.023 217.092 207.265 206.463 206.144 192.105 170.785 297.017 160.755 395.248 159.928 157.264 156.758 248.138 150.542 149.718 149.339 147.814 142.585
threshold=5.2500000000000027 8377.0193969764077 16068.250000000002 3200.5000000000005 5029.5000000000009 3.3055316639628742 1.7000000000000008 8458.9045784112477 1001.7500000000001 -113.52634999999999 12.966666666666674 6.8000000000000034 1008.6500000000002 1008.1500000000002 1008.0500000000001 1008.1500000000002 3.5805803946647283 0.25166114784276844 -0.6523320455745395 25.300000000000004 1019.8375000000002 3.6340015520315943 0.55075705472860081 0.48989794855678209 19.991666666666678 2.7499999999999996 0.71153909154134376 3.4000000000000017 3.2073434124600007 22.900000000000002 5.2500000000000027 -0.59177783207548873 1018.85 4.8294237061303091 0.22500000000000003 0.50000000000000144 -0.67494719543654347 -5.8499999999999988 15.210875000000001 20.416666666666675 1002.8958333333336 1.2345070550449122 13.347732181146618 16.139097744560036 19.091666666666676 3.3000000000000003 0.40824829046380889 3.7909120888132715 2.7582383437117692 13.845833333333339 0.91597770245106724 -1.2499999999999998 8.5245680343791683 -0.01397611846945947 -2.5999999999999654 7.5202483799725011 1016.3333333333338 0.99050122555197684 -1.0000000180025095e-35 8.5043196542500024 0.85049005481135642 9893.2083333333339
decision_type=10 2 8 2 2 8 8 2 10 2 10 8 10 10 8 10 10 10 2 8 10 10 10 10 10 10 10 8 10 8 8 2 8 10 2 10 2 8 10 8 10 8 10 2 10 8 8 10 10 10 8 8 10 2 8 10 10 2 10 10 10 2
left_child=2 4 29 9 12 8 26 -7 -3 10 45 42 13 -2 15 16 -6 -18 19 21 36 -10 40 34 25 28 46 -14 -24 -1 -31 32 -25 -16 35 -11 44 -19 -26 -40 41 -8 -9 54 -20 -4 -5 61 -27 -13 -51 58 55 -28 -42 56 -53 -22 -38 -60 -47 -33
right_child=1 5 3 6 14 7 22 11 18 23 -12 49 27 -15 33 -17 17 37 20 -21 57 -23 24 31 38 48 53 -29 -30 30 -32 47 -34 -35 -36 -37 51 -39 39 -41 43 -43 -44 -45 -46 60 -48 -49 -50 50 -52 52 -54 -55 -56 -57 -58 -59 59 -61 -62 -63
leaf_value=0.15120747615532748 0.057318274553409314 0.29588843272902643 0.16342687117309521 0.13848910036484244 -0.051674193670244672 0.33542720905503515 0.15503558634927497 -0.0034778017977455974 -0.052590760027536411 0.20571985284558064 -0.052696165409941445 -0.052483733855091586 0.25467136517994771 0.4822128988262992 -0.043423276555798987 0.36370328392015672 0.38498194358329269 0.16737753937625302 -0.052973960651722843 0.37156881498002248 -0.053041828279265617 0.23492922526339877 0.22167715703231097 -0.00832650138572936 0.31463556016680727 -0.054152415999482 0.076882303507533778 -0.051472991742441826 0.0068976330401657598 0.13531568688082013 -0.026147770988013182 0.19195117634311604 0.2299410724100798 0.32606443736584456 0.1651824418587543 -0.026689952085560548 0.11200630130075816 -0.052120500284660545 0.25893260901822551 -0.052717455219718816 0.15830816899140371 -0.054792156135926876 0.15389623731928256 0.27214130142426057 0.26885671200979772 -0.052480339748391183 -0.05670981099273259 0.24186016623175793 0.10144828167266656 0.17317791763732776 -0.052926636176178536 -0.00097301296094222877 -0.053274391136505284 0.17492829796136122 -0.052299442476576918 0.21738981543031369 0.14883752167007022 0.17754219862568543 0.16668487317482811 0.26657019862302861 0.20277357290661296 0.13875184638817195
leaf_weight=19526.816341441125 17.664982633665204 39.989112472161651 116.52208405174315 20.526263939216733 92.267968028783798 15.633584721013902 37.528052611276507 35.62858422100544 88.88198159262538 22.463714443147182 66.480861708521843 156.3063047695905 12.570001769810913 18.772613590583205 781.63797892071307 14.459912940859793 13.813793562352656 25.296044174581766 30.82220153696835 9.4484244249761087 45.909387465566397 13.874056469649075 43.052284821867943 41.915369542315602 21.704021371901035 93.361801272258162 58.340606693178415 32.306934604421258 31.344637276604772 181.25142663344741 61.175995921716094 341.15387742780149 20.889704082161188 5.3587275482714167 79.15047923848033 65.012381009757519 68.08607848547399 32.915189208462834 12.645923944190143 15.457000179216267 9.2272554002702218 21.961665013805032 74.120608612895012 6.0826125144958487 6.3132606223225585 21.57980067096651 39.838074743747711 132.68001680262387 25.187592834234238 26.122004065662622 32.714862829074264 35.148788427934051 29.973476393148303 144.87315378151834 225.03601573780179 50.702430330216885 129.39849235676229 8.3687762562185508 112.71933276392519 56.017055811360478 7.6937452144920817 199.66517230123281
leaf_count=15520 377 253 552 122 3721 235 249 539 2762 27 2216 5276 67 68 37483 238 249 18 989 5 1390 154 128 627 93 2690 358 1398 441 592 1180 941 86 86 124 936 481 1219 36 488 56 500 296 1 149 722 650 251 258 233 878 727 876 415 8355 190 356 27 372 330 32 836
internal_value=0.137037 0.0387526 0.146612 0.106477 -0.0117118 0.0883123 0.0532405 0.0326425 0.114436 0.14496 0.0752185 0.0180728 0.142695 0.276224 -0.0247127 0.046588 0.0186777 0.108802 0.103854 0.0186783 0.120519 -0.01377 0.0230552 0.161356 0.0681673 0.0376238 0.115378 0.0342779 0.131187 0.150513 0.0945708 0.176195 0.0709241 -0.0409074 0.095785 0.0329925 0.134948 0.0432637 0.186489 0.0875207 -0.0134685 0.077574 0.102807 -0.036003 0.00173926 0.133546 0.00966554 0.186012 -0.0210927 -0.025152 0.0474578 0.14521 0.116834 0.14678 -0.0440039 0.140522 0.116837 -0.0174897 0.174591 0.199845 0.0146061 0.17231
internal_weight=23803.9 2113.24 21690.6 1921.37 1047.06 1066.18 806.167 340.526 725.653 1115.21 212.276 324.892 81.3145 36.4376 965.75 178.753 164.293 72.025 685.664 112.204 573.459 102.756 542.589 902.931 242.753 192.946 263.578 44.8769 74.3969 19769.2 242.427 736.304 62.8051 786.997 166.627 87.4761 519.181 58.2112 49.8069 28.1029 299.836 59.4897 109.749 240.346 37.1355 145.796 60.3643 673.499 118.549 215.143 58.8369 482.046 245.223 203.214 234.263 215.25 164.547 54.2782 236.822 168.736 29.2735 540.819
internal_count=100924 61442 39482 22190 44924 16518 14840 7457 9061 7350 3522 7222 1910 445 43014 5445 5207 1486 8808 2921 5887 2916 13295 3828 4134 3517 1545 1465 569 17292 1772 2741 713 37569 1087 963 4470 1237 617 524 9161 749 835 8412 1138 1306 772 2028 2948 6387 1111 3332 2149 773 8411 1273 1083 1417 1183 702 754 1777
is_linear=0
shrinkage=0.05


Tree=6
num_leaves=63
num_cat=0
split_feature=16 91 2 110 103 12 4 21 59 105 15 91 55 76 35 12 83 82 1 36 90 105 89 64 10 110 106 71 78 85 68 12 21 38 86 59 3 66 97 42 80 60 52 76 1 13 103 58 78 4 4 13 80 86 5 81 91 3 86 64 56 10
split_gain=7190.56 1824.39 1231.39 813.589 1255.15 809.827 802.971 634.483 547.61 465.273 461.303 505.092 455.654 441.616 481.277 425.777 610.463 1122.19 473.221 367.854 366.826 338.053 329.799 374.118 349.22 325.161 338.547 342.497 407.173 317.386 310.267 303.693 298.543 292.349 529.915 300.847 285.975 268.757 268.41 414.228 268.332 261.251 252.945 223.549 211.76 211.116 298.933 207.804 202.529 195.132 192.89 250.469 188.193 180.289 158.682 188.46 243.954 157.651 145.292 143.675 141.726 132.312
threshold=5.2500000000000027 18002.458333333339 14765.250000000002 -113.52634999999999 2.9937500000000012 -0.63921128368950708 999.1500000000002 1.4000000000000001 13.216666666666674 -1.1999999999999884 -0.5 18788.250000000004 1.7000000000000022 1.0705860674846679 3.2073434124600007 -0.77245553105869302 1012.7583333333333 0.25166114784232702 8.4500000000000011 18.320734340870008 8889.6002196338759 -1.9999999999999429 7445.0833333333348 0.34641016151382309 -1.0000000180025095e-35 -100.85699999999999 0.10000000000007959 12.814916666666669 1.4306308098505365 1017.1458333333336 6.1648502114876207 0.99966190462023474 5.8000000000000007 1009.6500000000002 0.52993710311310582 3.8000000000000025 9.9250000000000025 0.53944415837044846 0.21666666666666709 503.00000000000006 2.695329134206307 0.53944415837017101 8.3000000000000043 1.6834187114248687 -6.2499999999999991 1.0000000180025095e-35 4.3125000000000018 4.8294237061303091 0.50189848977988205 1.0000000180025095e-35 1014.5500000000001 0.45847758937963173 6.1730801569858995 4.8297790575736252 625.00000000000011 1015.0000000000005 14890.708333333334 11.050000000000002 0.43926591647712099 0.28867513459481275 0.50000000000000044 0.91597561503675362
decision_type=10 2 8 2 8 2 10 8 10 10 2 2 8 8 8 2 8 10 10 10 2 10 2 10 2 2 10 8 8 8 10 2 10 8 8 8 10 10 2 2 10 10 10 10 10 2 10 10 10 10 8 2 10 10 2 8 2 10 8 10 8 2
left_child=2 5 -1 4 8 15 57 20 43 13 11 22 -6 14 -9 18 17 -17 -2 49 -7 -14 -5 24 37 36 50 -28 40 45 47 -23 -19 34 -11 -36 38 -24 61 -40 -29 -37 -16 -4 59 46 -20 53 -13 -15 -27 -52 -26 -8 -25 56 -56 -3 -45 -22 -51 -12
right_child=1 6 3 10 12 7 30 9 -10 33 25 48 21 19 42 16 -18 32 29 -21 44 31 23 54 52 26 27 28 -30 -31 -32 -33 -34 -35 35 41 -38 -39 39 -41 -42 -43 -44 58 -46 -47 -48 -49 -50 60 51 -53 -54 -55 55 -57 -58 -59 -60 -61 -62 -63
leaf_value=0.1360088355133241 -0.052073881622580601 0.07437552525467378 0.17111776339725548 0.2537387605615003 0.29568244785692899 -0.052215846029072012 -0.051224443361146746 0.38857645828492582 -0.053897006536954145 0.42862606591016128 0.15799001874681701 0.22554075297731752 0.13476607706271118 0.12725354733505853 0.15658655519870202 0.72880854298920639 0.13559630179617657 0.32446277207834839 0.14462846926769579 0.16912672466044687 0.14673563014580723 -0.0455954926041124 -0.00066700518908230963 0.19419481083424595 -0.038230348243766976 0.16147610244821953 0.13893180092816113 0.008981510779597272 -0.054378078518141831 -0.052561770555951771 0.34620678030533103 0.34166976184400333 -0.052005344031429437 -0.044596438929253683 0.13402008978891977 0.29166488428955351 0.24572124190166877 0.16556333267518741 0.18419908600179416 -0.025330344019547247 0.22420931888557122 -0.052433942591196873 -0.052104789204736296 0.14979738035565843 0.19255614352633837 0.21341767361270164 -0.05233701668645533 0.21557436183026649 -0.053470121675737448 0.14690189262854034 -0.013878769291477544 0.12610942808545864 0.12239365820369873 0.18255132839028185 -0.055927215125571583 0.13095125365710647 0.12004024452528964 0.22779992285541339 -0.0018763237883313731 0.0039775417963299892 -0.052789118270819169 0.089225422293795487
leaf_weight=19961.133604664356 57.434086538851261 42.289585493505001 223.27089634723961 32.27417416125536 11.584148610010741 26.842010725289583 671.17978597618639 18.169920586049557 38.245927544310689 8.4208521172404271 705.18647104129195 7.0829069428145877 30.764722961932421 21.29056453704834 55.251534847542644 12.967747552320359 224.05095261707902 10.609907897189261 75.525318883359432 34.732692956924438 37.710768640041351 301.49189827218652 36.989653842523694 62.905703233554959 112.47532440721989 223.47673811763525 79.015014687553048 29.545056628063321 92.998977037146688 25.26010525226593 5.0940235946327439 5.1488656271249047 10.455665616318582 275.73128229193389 39.961822886019945 5.8946028351783744 71.081601252779365 70.962903114035726 40.74416077695787 56.018552232533693 28.403749939054251 85.905721249058843 19.695501577109098 28.286856213584542 102.04349881783128 58.894667416810989 25.859034813940525 7.5408667400479308 79.58517493866384 9.6545956414192897 42.773616740480065 126.30814530141652 21.764399597421288 8.3498576749116165 35.768735388293862 216.34536711126566 43.833385141566396 27.717684594914317 35.737200824543834 33.089530112221837 111.51217301189899 77.656795097514987
leaf_count=10099 2205 443 658 104 152 1030 32955 169 918 150 1861 21 181 139 308 131 946 35 373 167 86 11858 600 188 2190 683 224 443 1988 832 119 129 385 11012 157 135 51 284 84 516 134 2930 697 110 323 427 905 97 2396 48 497 478 105 72 623 878 252 56 452 459 3651 325
internal_value=0.123344 0.0358933 0.131541 0.10149 0.0532197 0.0700433 -0.0262512 0.0413102 0.123839 0.0184843 0.115689 0.0825393 -0.0126542 0.0695542 0.157714 0.120846 0.165567 0.362873 0.0733429 0.0232246 0.119751 -0.0232403 0.0980314 0.0896705 0.041653 0.130859 0.102768 0.0545929 0.0104449 0.112166 -0.0425727 -0.0390928 0.137607 -0.0147066 0.0440849 0.0195091 0.149254 0.108605 0.141458 0.0628968 0.114476 -0.030339 0.101744 0.147499 0.146457 0.138127 0.0943906 -0.0454552 -0.0306681 -0.0123479 0.13099 0.0906958 -0.0121882 -0.0483519 0.122078 0.106749 0.0409703 0.13512 0.0651356 0.0800156 -0.0368777 0.151169
internal_weight=25078 2149.14 22928.9 2967.73 674.531 1386.96 762.172 885.907 325.541 686.221 2293.2 719.988 348.99 270.307 93.117 501.057 258.084 34.0333 242.973 177.19 199.686 337.405 633.32 601.045 242.192 1573.21 622.521 229.963 150.948 185.539 692.165 306.641 21.0656 415.914 140.183 131.762 950.688 107.953 879.606 96.7627 57.9488 91.8003 74.947 287.295 172.844 160.279 101.384 687.071 86.6681 142.457 392.559 169.082 134.24 679.53 358.853 295.947 79.6021 70.0073 64.0241 70.8003 121.167 782.843
internal_count=100924 61442 39482 29383 14458 27700 33742 21461 2138 19563 14925 7641 12320 5179 1174 6239 1497 551 4742 4005 1898 12168 5224 5120 3179 7284 4447 2789 2565 2537 33243 11987 420 14384 3372 3222 2837 884 2786 600 577 3065 1005 1220 868 1705 1278 33124 2417 3838 1658 975 2295 33027 1941 1753 875 499 562 545 3699 2186
is_linear=0
shrinkage=0.05


Tree=7
num_leaves=63
num_cat=0
split_feature=16 92 2 109 80 88 103 4 14 67 79 13 59 21 4 89 78 80 85 106 103 10 71 13 84 37 89 75 109 13 105 58 64 15 52 30 42 21 32 40 7 58 102 100 67 103 86 5 78 79 82 74 86 13 40 68 16 66 35 2 106 78
split_gain=5945.83 1847.4 1155.57 764.451 694.467 526.207 869.023 491.675 422.563 441.205 383.052 375.832 372.328 345.939 334.304 340.215 1093.3 341.283 313.192 273.299 291.279 270.626 265.582 263.011 271.532 259.677 258.383 253.12 252.339 242.07 236.13 231.558 221.994 216.212 234.907 213.368 202.102 389.907 198.572 186.005 182.699 180.408 170.771 170.722 167.545 163.377 163.364 232.03 157.133 159.48 212.902 192.085 155.877 229.08 192.129 182.502 229.463 241.03 157.559 146.762 145.002 140.404
threshold=5.2500000000000027 8282.8925210430843 14765.250000000002 38.738700000000001 4.5318120104302135 9520.2309655510489 2.9937500000000012 1011.6500000000002 -0.67494719543654347 22.787500000000005 6.2567494599125002 0.78724360164103002 12.783333333333337 12.500000000000002 1021.9500000000002 18803.250000000004 3.1792407149263502 3.2899506040651629 1011.8875 1.0000000180025095e-35 1.783333333333335 -0.70710678118654735 11.489416666666671 -0.6523320455745395 0.206559112582507 1020.2500000000001 8933.5833333333339 13.347732181146647 35.260550000000002 0.89691351184655443 -2.1999999999999882 0.55075705472860836 1.7000000000000031 -0.90285901228517329 2.2000000000000024 12.873500000000002 4419.5000000000009 1.4000000000000001 11.031317494370002 1008.35 8.2852500000000031 4.8294237061303091 0.90866202004191299 0.55075705472860725 2.4208333333333347 5.2291666666666687 1.57403168592762 3200.5000000000005 1.2395978273852986 11.521328293495834 0.70945988846158958 4.7305228030116622 1.6846004831689005 -0.23537842981696178 1016.7500000000001 1.8998006237317118 1.1000000000000005 1.2722683155163914 8.5043196542500024 2911.0000000000005 0.60000000000007969 5.176128545769906
decision_type=10 2 8 2 10 2 8 10 2 10 10 2 10 10 10 2 10 8 10 10 10 2 10 2 8 8 2 10 2 2 10 10 10 2 10 10 2 10 10 8 10 10 10 10 10 8 10 2 10 8 8 10 8 2 10 10 8 10 10 10 8 10
left_child=2 4 -1 5 36 6 12 18 9 30 21 46 -4 -13 15 17 -17 23 38 39 -21 -5 -22 24 -10 45 32 -19 -29 31 -3 43 -24 34 -12 -26 37 -2 -6 -7 -9 -38 59 -28 -20 -15 -8 -48 -41 51 -51 -50 53 54 -35 56 -54 -58 -57 -25 -55 -40
right_child=1 8 3 10 7 19 11 40 14 -11 33 13 -14 25 -16 16 -18 27 44 20 22 -23 26 42 35 -27 29 28 -30 -31 -32 -33 -34 52 -36 -37 41 -39 61 48 -42 -43 -44 -45 -46 -47 47 -49 49 50 -52 -53 55 60 -56 58 57 -59 -60 -61 -62 -63
leaf_value=0.12400546720003514 0.32839258068544769 0.10555849342204071 0.13081157187290246 0.1309009540253879 -0.051636154971722019 0.17836130626899277 -0.052126017824987492 0.20512758882652543 0.23721541671130686 0.32250194557421186 0.10575759906474491 -0.053353931365931764 -0.018700111336149572 0.26169671683993162 -0.022378041904829407 -0.051255501516562767 0.46359798258898954 -0.03009283103348136 0.48918402664346311 -0.058786447306282547 0.1828947188629132 -0.030393383676278692 -0.054414088927242005 0.13063090092255025 0.13531658500109772 -0.053651812051198268 0.024747739209689121 -0.052625215911629025 0.12607802751548131 0.18517955959899934 -0.03927581096247118 -0.053339274855822821 0.13590199344958348 0.020158745092751951 -0.054401838475572374 -0.052808354005988961 -0.048435838934680675 -0.012250881272359061 0.1366942464922232 -0.0029813626863167044 -0.05122511715896947 0.18198069497330902 0.13029264853901132 0.15361875636742767 0.16981457263537378 0.10443153857309267 0.21284588281197314 -0.053022832854677099 0.13288590500997363 -0.055351946034296245 0.10471847946866802 0.024452259887290818 0.14309040065894132 0.21955890149165716 0.15212658054923309 0.18968751985465862 0.022240911757120216 0.12653812377693094 0.11984543069468122 -0.054347400637827351 0.15099853051281736 0.0078019460826884122
leaf_weight=20775.697285413742 10.504397256299852 35.190693905577064 234.93443650566041 41.544816464185715 22.585516553372145 91.412193212658167 266.8253849260509 7.5088866986334315 13.638719666749237 10.559751611202953 81.646284276619554 44.102103497833014 50.610787587240338 25.386329395696521 60.876663686707616 18.362733650952578 23.516465222463012 86.186361597850919 7.4860436283051994 46.365028252825141 48.662032701075077 69.528789114207029 70.784898733720183 19.164139747619629 20.294034965336323 17.810272255912423 47.814470265060663 25.784594165161252 84.464395701885223 49.03924024105072 140.48817081563175 35.927649810910225 19.555701207369566 48.305063178762794 31.816105565056205 58.576566873118281 711.67379434593022 41.94012094847858 99.512070335447788 33.880534846335649 93.418494243174791 8.5977111198008043 514.4326190482825 55.562617613002658 9.0969599261879903 47.255985993891954 14.802918765693901 18.415312042459846 376.52169784158468 32.13929446041584 58.736804742366076 45.811016209423542 151.11797393485904 128.4014706723392 64.283464724197984 126.73709917068481 138.8565865457058 92.160156009718776 222.54803179576993 24.344093933701515 193.09856411069632 26.823397282510996
leaf_count=10099 70 270 773 145 934 277 10730 5 78 10 266 1380 834 235 1668 867 319 2453 133 538 96 927 1752 2 108 544 837 735 632 255 5147 923 37 512 731 1733 35431 1173 782 404 4757 98 2585 281 268 364 66 572 1711 764 180 282 137 339 167 261 1041 215 484 602 323 582
internal_value=0.11254 0.0333938 0.119743 0.0913821 -0.0147839 0.0692208 0.0365503 0.0548266 0.0774686 0.00860418 0.119001 -0.00797121 0.104312 0.0614617 0.0909739 0.098738 0.237851 0.0918588 0.107868 0.0924644 0.0585045 0.0299355 0.0751175 0.109302 0.0312196 0.117443 0.0562982 0.0341008 0.0842836 0.0896417 -0.0102637 0.0560096 -0.0132171 0.126736 0.0608471 -0.00440231 -0.0387854 0.0559784 0.084916 0.112341 -0.0321528 -0.0456854 0.122248 0.0940127 0.313987 0.159391 -0.0391084 0.0654553 0.10131 0.108195 0.0481079 0.121124 0.13315 0.156886 0.095507 0.119064 0.0951853 0.0638485 0.145187 0.0271303 0.17838 0.109328
internal_weight=26073.1 2175.03 23898.1 3122.4 1039.15 1732.36 720.144 266.431 1135.88 186.239 1390.04 434.598 285.545 134.555 949.641 888.765 41.8792 846.886 165.504 1012.21 373.712 111.074 327.347 650.45 92.5093 90.4526 278.685 196.435 110.249 188.344 175.679 139.305 90.3406 1278.97 113.462 78.8706 772.716 52.4445 148.921 638.502 100.927 720.272 557.941 103.377 16.583 72.6423 300.044 33.2182 547.089 513.209 90.8761 422.333 1165.51 434.089 112.589 731.42 382.135 231.017 349.285 43.5082 321.5 126.335
internal_count=100924 61442 39482 29383 44233 23835 15498 7461 17209 5427 5548 13891 1607 2523 11782 10114 1186 8928 2699 8337 4719 1072 4181 5108 1919 1143 4085 3820 1367 2296 5417 2041 1789 4476 997 1841 36772 1243 2298 3618 4762 35529 3189 1118 401 599 11368 638 3341 2937 944 1993 3479 1341 679 2138 1393 1256 745 604 662 1364
is_linear=0
shrinkage=0.05


Tree=8
num_leaves=63
num_cat=0
split_feature=2 92 52 107 110 67 53 83 52 80 5 44 88 84 38 0 0 86 104 106 79 12 6 5 103 75 52 79 0 38 91 86 6 26 10 2 7 99 105 83 37 100 3 88 12 27 17 104 79 104 72 9 76 60 46 58 60 99 69 88 18 72
split_gain=4674.61 1911.5 874.286 932.629 576.056 580.242 543.934 527.933 424.968 514.351 359.144 372.199 365.988 318.04 300.304 278.615 275.14 271.92 260.463 252.721 247.38 244.411 240.249 221.576 221.224 219.473 214.804 238.301 378.737 305.768 244.273 226.228 221.968 209.785 208.76 202.712 404.676 454.033 248.678 199.098 197.203 189.177 182.015 301.494 208.17 225.653 204.338 171.377 170.283 185.558 202.87 163.621 188.882 176.958 164.375 158.225 165.747 193.053 154.697 175.297 310.203 235.747
threshold=14765.250000000002 7427.5981450631471 3.3999999999999999 8.309935205010003 -113.52634999999999 10.454166666666671 18.500000000000004 1008.3750000000001 3.3000000000000003 6.1730801569858995 2545.0000000000005 9601.0000000000018 351.60631393648237 0.2756809750917531 1000.7500000000001 10.150000000000002 11.050000000000002 1.2053856417579727 0.54181233473134272 2.10000000000008 13.849892008350002 0.39036257410962044 0.22500000000000003 320.00000000000006 15.420833333333334 3.0453563714266063 1.8000000000000027 5.6857451402699999 28.950000000000003 1016.6500000000002 13048.750000000002 0.71612911041242522 0.90000000000000013 8.1500000000000021 0.91597561503675362 4115.0000000000009 15.621000000000002 4.1000000000000139 1.4499999999999889 1009.0083333333334 1011.9500000000002 0.057735026918961409 1.6500000000000001 238.34079242407054 -0.14250824554987665 8.2852500000000031 15.150000000000002 6.776424148319383 5.8679805614325007 1.6609941342408672 5.5465539263656547 1.0000000180025095e-35 1.4846357542743136 1.6742162345408202 4724.5000000000009 1.6802777548171266 3.1078395496979634 8.7166666666666845 14.989333333333313 11912.63722138254 11.4 3.446391457678573
decision_type=8 2 8 10 2 8 8 8 10 10 2 2 2 10 8 8 10 8 10 10 8 2 2 2 8 10 10 8 10 10 2 8 2 10 2 10 10 8 8 8 8 10 8 2 2 10 10 10 10 10 10 2 10 10 2 10 10 10 10 2 8 10
left_child=35 2 13 7 5 8 10 21 33 22 14 12 -12 -2 -6 -5 17 -15 -13 39 -16 24 -10 -9 47 -20 -27 28 30 31 -28 -29 41 -3 51 -1 58 38 42 -14 -22 -31 -38 46 -45 -46 -44 -4 -41 -50 55 52 -33 54 -54 56 57 -51 59 60 -37 -62
right_child=1 4 3 15 6 -7 -8 23 9 -11 11 18 19 16 20 -17 -18 -19 25 -21 40 -23 -24 -25 -26 26 27 29 -30 32 -32 34 -34 -35 -36 36 37 -39 -40 48 -42 -43 43 44 45 -47 -48 -49 49 50 -52 -53 53 -55 -56 -57 -58 -59 -60 -61 61 -63
leaf_value=0.11662297543418038 0.10886366349481923 -0.00080541157597441456 0.081191305503590203 0.30364303303376444 0.236179027548019 -0.052515525973157479 -0.051647169974311118 0.23392504256835364 -0.051785666949452053 0.19106566565898245 0.25434284768786503 -0.02179914542550946 -0.055064945484800003 0.098553511058081758 0.1143042675391002 0.050770005505750664 -0.052907520240206722 -0.059047517748655035 -0.05513331739201708 -0.055798767649750371 0.085698456080704408 -0.053135857253961888 0.12804447494101365 -0.051170615467863938 -0.052128414513257039 0.12972977963936605 0.13704424652964542 -0.05466699837198119 0.28865193097623176 0.10840955268665109 -0.053540491386687643 -0.053629127453057084 0.17073598104356652 0.13275005065820797 -0.012348771071255042 0.10225666627136742 0.11993530219271512 -0.033495064033016858 -0.0063365318475760522 -0.021193034243189624 -0.057964546335400685 -0.053691912495280103 -0.039764510006223025 0.125750773198024 0.10240829427898245 -0.027424479311882983 0.088356786150416894 0.24296488172591726 -0.017968676035793975 0.090666175508754276 0.24045485495750452 0.11933241421212036 0.17776892633332042 0.012526444682180489 0.043756612431990451 -0.053778030936673396 0.19525372757105633 -0.051935917379908381 0.12968617949331299 0.1137057470757926 -0.04113515689065101 0.079487451873958406
leaf_weight=16365.617647491395 229.00783189758658 35.07485855743289 94.179811306297779 27.51842163875699 46.874036582186818 147.42948522791266 68.518520072102547 6.8829445745795956 138.5540957339108 32.297907304018736 19.336414506658912 49.530797090381384 42.948834896087646 122.58643211238086 1055.1472456976771 18.029594326391816 75.081984018906951 35.236304000020027 23.90746402554214 69.498552827164531 65.236659966409206 46.408378403633833 21.447740323841572 692.88839444331825 26.073755167424679 373.9178424179554 80.490316800773144 26.623756363987923 34.639512695372105 22.479239536449313 21.251879803836346 29.470326352864504 17.347858069464564 181.82503047958016 42.915530765429139 677.12220164015889 388.70342915318906 84.654055822640657 66.044156812131405 57.110239269211888 37.686355235055089 90.293110430240631 81.175454108044505 236.80187794752419 80.53588530048728 57.261967353522778 50.46898896433413 19.815556570887566 48.389705182984471 177.62603378109634 20.263063000515103 409.49542285315692 58.678483594208956 54.174024738371372 37.507604952901602 21.480328418314457 31.23510860837996 27.393853506073356 976.62496469169855 2500.7238917313516 73.223614044487476 90.658513413742185
leaf_count=2735 1768 571 1166 83 63 5556 2928 34 5857 390 67 449 1080 814 4174 442 2576 551 553 1639 417 1624 199 36493 1113 708 486 787 149 102 673 939 66 810 939 731 668 1502 407 1104 629 2639 717 484 115 534 161 88 713 1126 58 2331 346 1004 561 678 145 1058 1256 1874 840 154
internal_value=0.103738 0.0607169 0.0107774 -0.017105 0.0794364 0.0325331 0.0876945 -0.0284452 0.063175 0.00905966 0.0907814 0.07717 0.0409353 0.0670234 0.112109 0.203547 0.0258831 0.0633667 0.0907716 0.0326148 0.107087 0.0463109 -0.02768 -0.0483664 0.07926 0.0949854 0.0977476 0.0848245 0.145853 0.0742753 0.097235 0.0881079 0.00423346 0.111153 0.0941202 0.113858 0.105423 0.0775137 0.0872925 0.0470236 0.0330947 -0.0213798 0.094202 0.0744434 0.0973177 0.0484562 0.0093538 0.109312 0.0584567 0.0723936 0.0881225 0.101873 0.0621172 0.0848032 0.125511 0.0761461 0.0879589 0.0716123 0.112181 0.107065 0.0873175 0.0255925
internal_weight=26841.4 5111.81 1393.71 931.797 3718.1 556.629 3161.47 886.249 409.2 192.3 3092.95 1888.01 515.282 461.913 1204.94 45.548 232.905 157.823 1372.72 495.946 1158.07 186.478 160.002 699.771 140.069 1323.19 1299.28 925.367 136.382 788.985 101.742 658.865 130.12 216.9 632.241 21729.6 5364 1045.65 960.992 426.447 102.923 112.772 894.948 506.244 374.6 137.798 131.644 113.995 383.498 326.388 277.998 589.326 179.83 150.36 96.1861 257.735 236.255 205.02 4318.35 3341.73 841.004 163.882
internal_count=100924 88746 46752 41043 41994 13383 28611 40518 7827 6446 25683 20400 7668 5709 5283 525 3941 1365 12732 7601 5220 3991 6056 36527 2367 12283 11730 11022 1308 9714 1159 6907 2807 1381 6120 12178 9443 4588 3086 5962 1046 2741 2679 2011 1133 649 878 1254 4882 3778 3065 5181 2850 1911 907 3007 2329 2184 4855 3599 1725 994
is_linear=0
shrinkage=0.05


Tree=9
num_leaves=63
num_cat=0
split_feature=16 91 2 4 109 12 109 103 10 74 57 16 68 36 0 15 22 79 16 42 10 68 14 18 78 53 5 106 68 84 4 13 87 106 3 48 2 7 14 91 5 62 62 46 106 85 88 55 33 82 79 38 3 106 11 13 83 84 41 89 14 14
split_gain=4359.58 1212.55 1063.73 594.367 535.545 489.725 460.265 457.291 405.81 546.984 391.274 359.817 387.43 324.44 310.968 307.623 305.798 275.734 267.698 279.215 266.521 264.671 243.326 256.868 241.921 241.288 214.309 211.452 201.415 192.611 329.457 234.863 192.352 187.683 185.112 181.931 177.767 249.854 237.498 253.742 168.692 284.338 236.864 195.092 183.252 222.999 166.382 216.755 159.829 158.83 158.532 152.408 154.962 149.902 149.365 217.953 215.677 293.027 219.047 161.828 146.246 141.201
threshold=5.2500000000000027 18002.458333333339 14765.250000000002 999.1500000000002 38.738700000000001 -0.63921128368950708 38.738700000000001 12.62916666666667 0.60355339059327384 1.479592166960072 27.766666666666666 0.50000000000000044 0.37284735685770792 18.320734340870008 4.7000000000000011 -0.3420201433256686 25.300000000000004 6.2567494599125002 3.9000000000000017 1905.0000000000002 -0.78656609248549303 0.45193188009249813 -0.67494719543654347 30.800000000000004 3.1439844417899421 4.5500000000000016 1448.0000000000002 -0.4999999999999431 6.1648502114876207 0.76092049522593064 1008.5500000000001 0.64414586362404946 3256.1666666666674 -4.6999999999998741 8.2250000000000014 0.35000000000000003 3708.7500000000005 15.621000000000002 -0.92300020391127913 12003.375000000002 625.00000000000011 2.864873470155795 2.7339337846104335 899.00000000000011 -0.74999999999999989 1014.6208333333335 12437.880794817635 10.650000000000002 8.5043196542500024 0.70945988846158958 18.199244060095005 1016.35 2.1500000000000008 4.900000000000035 -0.70710678118654757 0.44312301391210612 1013.8750000000001 0.47609522856918801 1022.5500000000001 3953.5833333333339 -0.04357787137382909 0.67494719543654369
decision_type=10 2 8 10 2 2 2 8 2 10 10 8 10 10 10 2 10 10 8 2 2 10 2 8 10 10 2 8 10 8 10 2 2 10 10 2 10 10 2 2 2 10 10 2 8 8 2 10 10 8 10 8 8 8 2 2 8 8 10 2 2 2
left_child=2 5 36 -3 8 22 13 10 11 -10 15 -4 35 16 -14 -8 33 26 40 25 -17 -9 23 -2 48 -20 -6 -15 -5 30 -24 50 -23 -7 46 -13 -1 60 39 -39 -16 42 43 -42 61 -46 47 -19 49 -11 -31 -47 -53 -49 -40 59 -57 -58 -59 -56 -38 -45
right_child=1 3 4 28 17 6 7 21 9 24 -12 12 14 27 18 20 -18 34 19 -21 -22 32 29 -25 -26 -27 -28 -29 -30 31 -32 -33 -34 -35 -36 -37 37 38 54 -41 41 -43 -44 44 45 51 -48 53 -50 -51 -52 52 -54 -55 55 56 57 58 -60 -61 -62 -63
leaf_value=0.10927176673982331 -0.05259668490138273 0.10268823924142917 0.17809449815146539 -0.044862289526212712 0.10918501082601006 0.05140928523308376 -0.053448398571317085 0.32257720143473539 -0.036278709811720884 -0.057691751343477073 0.28829477056090019 -0.054399234292577252 -0.058627202956575489 0.15448819834205618 0.11157914503986406 -0.01706264987241143 0.18977781040291386 0.096605999217139235 -0.053606531028253801 -0.052212254338627119 0.11070264622714031 0.21261345602417672 0.2648226774761791 0.30716620510191062 -0.057695229956159645 0.15091921107839823 -0.030136206452147648 -0.052252846391456879 0.21461122106084807 -0.027494395237959469 0.10696129387550768 0.11221545418350889 -0.052173551528107667 -0.052054862307592091 0.15951771961242941 0.10259923536647569 0.088857175655699949 -0.063178078158132048 0.10608342969432938 0.072789035868647822 -0.057781119368115808 -0.05516022296422915 0.21932392683244789 0.092825847694789382 -0.05425840137524697 0.11178204072793932 0.12992557144492017 -0.058866346122044035 0.13582688212077612 0.10699045654612138 0.13313798597073376 0.065397214933278672 -0.056722453720203583 0.063811221587549746 0.094918440404051618 0.13328211916991611 0.096963558214141224 -0.068821924476664423 0.066225363130848744 -0.062725078045527974 0.10886744922650543 0.19028224340184152
leaf_weight=15609.962476432323 45.43417702242732 80.509095430374146 74.351121664047241 613.74528753850609 45.20460944250226 51.852238816209137 40.344979192130268 5.3808161914348593 233.0137456310913 26.358793722465634 23.266591634601355 91.608275927603245 43.083166389726102 45.204931413754821 416.6357706496492 47.530151185579598 15.69232267141342 844.00827527884394 20.861559607088566 75.34591740462929 289.01437725126743 7.3070266842842093 37.571349989622831 5.5697867162525645 28.512056914158165 46.705815585330129 70.885899720713496 17.02638315781951 7.5712946541607371 74.878897379152477 274.72136032953858 113.68927263282239 111.7880970556289 283.35584432072937 136.94842604547739 23.106923120096326 1198.0733224712312 57.464331567287445 509.80119410529733 85.172071173787117 27.407918106764555 41.999652140773833 28.810178613290191 174.61406966019422 41.280511701479554 121.36034389212728 313.68322002887726 37.59865156095475 108.74987556599081 32.935943905264139 19.323952538892627 104.87373573519289 34.530673520639539 73.73318718932569 24.140500873327255 137.45002216100693 187.8833960480988 61.613866858184338 58.56943567097187 49.993108917027712 3838.8322493955493 47.217079885303974
leaf_count=2330 1746 499 116 33124 108 651 1301 71 8156 408 80 2752 717 220 1254 994 3 3162 519 2883 1597 4 270 32 494 239 964 614 119 2158 1691 311 4539 11387 144 53 1429 594 828 458 429 950 182 938 1067 453 284 596 436 54 31 890 702 290 63 214 338 425 159 541 2720 143
internal_value=0.09648 0.0291593 0.10239 -0.025137 0.0762249 0.054413 0.0321824 0.0632669 0.0581007 0.0155408 0.0893025 0.0710323 0.0650894 -0.00729152 0.0733193 0.077018 -0.0259513 0.0981751 0.0781301 0.0139701 0.0926584 -0.0204303 0.0909107 -0.0133095 0.0769717 0.0877715 0.0241142 0.0979242 -0.0417004 0.101129 0.125953 0.0638393 -0.0359277 -0.0360503 0.10429 -0.0227753 0.106425 0.0992694 0.078477 0.0180116 0.0869575 0.0704677 0.0795633 0.0722594 0.0790628 0.05372 0.0983303 0.0879561 0.0998205 0.0337829 0.00545633 0.0708136 0.035148 0.0223809 0.0868549 0.0679908 0.0811998 0.0579623 -0.00300876 -0.0113908 0.104108 0.11357
internal_weight=27395.2 2210.78 25184.4 701.826 3365.43 1508.95 937.764 524.632 1843.36 429.57 400.156 1413.79 1339.44 413.132 1224.73 376.89 350.9 1522.06 1181.64 142.913 336.545 124.476 571.189 51.004 196.557 67.5674 116.091 62.2313 621.317 520.185 312.293 207.892 119.095 335.208 1405.97 114.715 21819 6208.99 1172.09 142.636 1038.73 622.094 580.095 551.284 523.876 302.045 1269.02 955.34 168.045 59.2947 94.2028 260.765 139.404 111.332 1029.45 519.65 445.517 308.067 120.183 74.1336 5036.91 221.831
internal_count=100924 61442 39482 33742 29383 27700 21461 8586 23835 9548 3972 14287 14171 12875 11366 3892 12041 5548 10649 3641 2591 4614 6239 1778 1392 758 1072 834 33243 4461 1961 2500 4543 12038 4476 2805 10099 7769 3620 1052 7008 5754 4804 4622 4193 3112 4332 4048 898 462 2189 2045 1592 886 2568 1740 1136 922 584 604 4149 1081
is_linear=0
shrinkage=0.05


Tree=10
num_leaves=63
num_cat=0
split_feature=16 2 111 92 13 12 80 11 106 79 65 13 60 92 16 101 62 54 38 68 79 35 61 2 15 89 56 15 92 59 22 89 84 79 103 107 42 38 106 79 103 106 31 71 27 86 103 42 109 88 55 88 68 15 19 73 40 51 38 84 79 76
split_gain=3197.33 931.215 1001.07 874.606 866.098 501.372 440.297 538.17 454.493 383.188 363.312 346.694 343.667 336.367 302.408 299.714 320.432 372.495 283.436 273.06 496.441 276.235 265.206 254.6 250.173 305.659 248.18 347.971 319.257 261.227 300.331 266.325 220.795 219.33 218.639 214.779 213.889 201.321 188.143 183.534 182.969 175.868 175.613 294.671 175.258 182.005 175.223 175.133 173.984 384.349 201.581 166.978 217.647 163.738 161.235 159.554 155.724 202.287 155.043 151.697 144.954 138.556
threshold=6.1000000000000005 11066.250000000002 87.500000000000014 8282.8925210430843 0.28313308994381592 0.99818282439137029 4.5318120104302135 -0.78656609248549325 -0.99999999999994305 6.1717062633700008 5.4750000000000014 -0.091258822863740666 1.0385887861260079 9499.7976405289974 1.1000000000000005 16.391666666666676 4.2751838521521455 12.750000000000002 1008.1500000000002 0.40113475405285531 8.7513498918258357 12.294816414430002 27.816666666666674 2911.0000000000005 -0.90285901228517329 13900.750000000002 2.2999999999999998 -0.90285901228517329 7853.2237281145162 22.033333333333342 18.600000000000005 8933.5833333333339 0.13291601357062646 12.59449244034167 9.5937500000000018 9.5248380127600054 2545.0000000000005 1019.85 -1.2499999999999998 16.579373649761671 18.095833333333339 -0.80000000000001126 8.011750000000001 10.143416666666669 12.218750000000002 1.820318819893912 3.9916666666666685 3200.5000000000005 38.738700000000001 10240.423347813745 10.650000000000002 10577.777712418303 1.1527306184830117 -0.30041959421409464 3.9500000000000006 15.32291666666667 1016.0500000000001 0.22500000000000003 1000.7500000000001 0.46761807810819467 5.9935205182333346 1.9438444923999938
decision_type=10 8 2 2 2 2 10 2 10 10 10 2 8 2 8 8 10 10 10 8 10 8 8 10 2 2 10 2 2 10 10 2 10 10 8 10 2 10 10 8 10 8 10 10 10 10 8 2 2 2 10 2 10 2 10 10 10 2 8 8 10 10
left_child=1 -1 4 6 14 9 35 8 -8 11 -6 60 54 15 -3 16 34 -18 -9 20 55 24 26 -15 41 44 33 28 -28 31 -31 59 -14 42 51 36 -2 -27 46 -24 -36 -21 43 -11 -26 -46 -25 61 49 -49 53 52 -5 -50 -13 -12 -44 -58 -48 -30 -4 -29
right_child=3 2 5 13 10 -7 7 18 -10 22 19 12 32 23 -16 -17 17 -19 -20 21 -22 -23 39 38 25 37 27 47 29 30 -32 -33 -34 -35 40 -37 -38 -39 -40 -41 -42 -43 56 -45 45 -47 58 48 50 -51 -52 -53 -54 -55 -56 -57 57 -59 -60 -61 -62 -63
leaf_value=0.10101046582791046 0.11166492422172776 0.090739674712996016 -0.05885969503385452 -0.052417811169560319 -0.054669249710695859 0.18077580028804285 0.34244669153097773 0.070083813033851347 -0.051299285799284167 0.082137514156289948 -0.0085633371888303531 0.029094435258673314 0.086596338853917945 0.1075774775688231 -0.041995837822048153 -0.051912950447959627 0.073979811562398343 0.27678116318107093 -0.05124008772301282 0.20471338614408571 0.28555293522250486 -0.057722945786279123 -0.053527083533628221 0.083460162384997094 0.070384067568389733 0.0050097675380397205 -0.05588118976364137 0.10119224238375629 0.16223974406609556 0.24962195629393338 0.062302509618014569 -0.033109604502759363 -0.042194361450496598 -0.028073790762965706 -0.05268295350935303 0.12435300705612998 -0.041086545779497205 0.10916936760718679 -0.039269528116609068 0.21174631027888849 0.21300090578427705 0.082273585344166719 0.10559413361094015 -0.040291507894804096 -0.057954171416260136 0.093986715133337187 0.11802661646769884 -0.055108005415615127 0.079654861170871463 0.090370069667945335 0.049919310597410518 0.12206002167064828 0.086127971390167632 0.12615024436638331 0.10896463763533899 0.13821405098040782 -0.063524510936230086 0.096996414997732983 -0.034148138620997324 0.043942271729393932 0.072147511178509829 0.13796754206424922
leaf_weight=20337.277915103361 23.834153868257999 49.292018918320537 88.56655072234571 37.098952514119446 57.61563306953758 144.1083696372807 25.44612651783973 112.39325389172882 10.293508201837538 137.82054806314409 34.956358511000872 79.642575323581696 50.999726573005319 80.267911911010742 331.42191255744547 36.361308154650033 42.62176095508039 48.301842469722033 84.206363738514483 52.884625337086618 41.207325669936836 44.211459849961102 47.158612236380577 105.12454200536013 70.793059403076768 57.952027332037687 56.058677201159298 434.88951887283474 43.978754084557295 39.066006626933813 47.313867574557662 72.492649493739009 95.769554393365979 54.419354496523738 46.541418205015361 21.833535191603005 595.51167910732329 232.53333854116499 128.35385525226593 7.5664722863584748 7.5283818095922461 65.841416828334332 401.92426624614745 76.389707145281136 100.30610229726881 24.529164845123887 20.474228585138917 57.164512194693089 262.35111047234386 220.63876039627939 145.16441254038364 203.26375598739833 120.15946575812995 680.51455822307616 305.82426472380757 39.366272853687406 33.899738052859902 46.614524130709469 91.72798316180706 70.610057689249516 27.723857161588967 623.09539375640452
leaf_count=5762 448 188 1635 1415 1772 396 204 1200 511 216 253 502 166 8 12220 1432 479 301 4600 137 182 964 1661 634 206 938 1527 1068 125 146 390 978 1478 509 1645 373 32713 1136 4023 80 104 385 828 656 1835 112 25 1568 1200 752 855 946 826 1041 631 207 436 119 2297 382 166 972
internal_value=0.0915275 0.0960549 0.077911 0.0278658 0.0375382 0.0890708 -0.00840613 0.0505644 0.229042 0.08593 0.0664083 0.0505821 0.0676704 0.0606034 -0.0248102 0.0867374 0.0967104 0.181715 0.0181191 0.0755322 0.146356 0.0629257 0.0923709 0.0273566 0.0717446 0.0558528 0.0940765 0.101026 0.0528179 0.0751008 0.147019 0.0418944 0.00255813 0.0686002 0.0780682 -0.0297748 -0.0352082 0.0883895 0.0087291 -0.0168495 -0.0156906 0.136812 0.076152 0.038478 0.00753961 -0.028099 0.0370772 0.10758 0.0957511 0.0604346 0.104768 0.0921298 0.0534435 0.113213 0.0924624 0.0691799 0.0928799 0.0294107 -0.00637987 0.0893444 -0.0276273 0.122851
internal_weight=27733.3 25892 5554.68 1841.34 1202.91 4351.77 873.519 232.339 35.7396 4207.66 822.197 648.527 532.236 967.825 380.714 541.877 505.516 90.9236 196.6 764.581 115.53 649.051 3559.13 425.949 604.84 486.114 3504.41 2753.34 329.52 273.461 86.3799 187.081 146.769 751.068 414.592 641.179 619.346 290.485 345.681 54.7251 54.0698 118.726 696.649 214.21 195.628 124.835 217.327 2423.82 1365.83 277.803 1088.03 360.522 157.258 942.866 385.467 74.3226 482.439 80.5143 112.202 114.589 116.29 1057.98
internal_count=100964 46780 41018 54184 20535 20483 40049 6515 715 20087 8127 4578 2777 14135 12408 7148 5716 780 5800 6355 642 5713 15509 6987 4749 4227 13768 11004 3548 2021 536 1485 1644 2764 4936 33534 33161 2074 6979 1741 1749 522 2255 872 2153 1947 2956 7456 5416 2320 3096 3187 2241 2241 1133 460 1383 555 2322 507 1801 2040
is_linear=0
shrinkage=0.05


Tree=11
num_leaves=63
num_cat=0
split_feature=2 16 111 13 12 3 67 41 106 56 15 91 2 41 7 101 100 66 68 14 99 86 55 83 60 60 86 91 109 77 103 61 4 100 66 77 86 68 80 4 32 87 55 41 13 85 2 21 0 17 86 100 25 72 105 60 60 91 35 80 84 105
split_gain=2967.34 1415.06 944.252 751.3 496.815 510.707 390.031 374.339 377.642 335.299 329.075 451.287 281.182 277.928 267.175 358.317 262.687 249.48 247.51 238.204 228.369 215.565 283.787 228.723 246.225 212.568 208.711 206.987 202.205 324.325 308.7 214.717 286.078 253.372 196.879 224.967 415.524 191.564 307.648 188.266 187.4 180.154 223.173 207.002 174.186 166.945 179.283 263.13 161.607 154.102 151.437 134.322 134.077 296.181 179.491 133.879 256.188 168.627 139.247 130.447 128.177 126.463
threshold=14765.250000000002 10.050000000000002 87.500000000000014 0.57605713708605399 0.99818282439137029 5.6750000000000016 6.7812500000000009 1008.0500000000001 -0.1999999999999886 28.950000000000006 -0.30041959421409464 19590.625000000004 4115.0000000000009 1018.9500000000002 15.621000000000002 4.7666666666666675 0.6350852961085961 4.2732696249263471 6.1648502114876207 -0.46130913087034958 1.1000000000000034 1.820318819893912 2.3750000000000004 1014.975 0.65548963887065093 0.82945765413330141 1.3337972677974566 5571.291666666667 38.738700000000001 5.53995680334 7.5708333333333346 26.287500000000001 1005.85 0.69282032302755081 0.32863353450313076 11.995140388518333 0.86247529613849816 1.135648259672404 2.0083780223979688 1000.7500000000001 14.530237580690002 14692.000000000002 9.7500000000000053 1003.6500000000002 0.79773375822167203 1021.3000000000001 8011.7500000000009 9.6000000000000032 7.3500000000000005 11.4 0.88916031217168567 0.60000000000000042 -0.4499999999999999 3.7841257820937764 -2.1999999999999882 3.0327655146197237 3.1435118365718018 11651.375000000002 3.2073434124600007 1.0083493701671971 0.43550736723709388 1.2500000000000002
decision_type=8 8 2 2 2 10 10 8 8 10 2 2 10 10 10 8 10 10 10 2 8 10 10 10 10 10 8 2 2 10 8 10 10 10 10 10 10 10 10 10 10 2 8 10 2 10 10 8 10 10 10 10 8 10 8 10 10 2 10 8 8 10
left_child=12 2 3 20 10 -6 -5 8 9 61 11 13 -1 16 45 21 34 27 59 -15 -2 22 23 24 -16 44 -8 -18 30 -30 31 32 -12 37 51 60 -37 38 -34 -29 -41 52 49 -44 50 -14 -47 -48 -28 -43 -24 -4 -31 54 -54 -9 58 -58 -57 -13 -36 -3
right_child=1 7 4 6 5 -7 26 55 -10 -11 28 18 14 19 15 -17 17 -19 -20 -21 -22 -23 25 -25 -26 -27 48 39 29 41 -32 -33 33 -35 35 36 -38 -39 -40 40 -42 42 43 -45 -46 46 47 -49 -50 -51 -52 -53 53 -55 -56 56 57 -59 -60 -61 -62 -63
leaf_value=0.097302648433868322 0.08601311945191753 0.044592696842516488 -0.023255187914320834 -0.033484195545735236 0.094571593629026673 0.28964410743970825 0.098371367960616754 -0.051350250499480582 -0.052198393470354834 0.30693210851546349 0.13078149632229252 0.13575952355520213 0.092104359256258678 0.077098996547158738 -0.071002332350865213 -0.05811065390438 0.21705969454801466 0.19911625649522835 0.29411514778621212 -0.056581569576123647 -0.042190814507347907 0.14702190384576894 -0.059454541373802662 0.093192406171859463 0.068495868931349388 -0.063245701625052414 0.11368656466700232 0.094704428951548972 0.0019873047306988014 0.099108899517101279 -0.031900446163336309 0.13780342735627463 0.068736392107804883 -0.055089141297730404 0.12237570569246026 0.0054206459929176595 0.22580747550794236 0.089186152151716103 -0.059053563250684539 -0.02117355809950355 0.071526815480360204 0.12353332938296352 0.10399877394276369 -0.057634963973792579 0.081214692796259549 0.091662964785928669 -0.073580425000968522 0.075755614081500958 -0.057365764058470707 0.1978625895961218 0.064906798231763901 0.12316493417757804 0.12570550287663404 0.099693071119070525 -0.041121486700562655 0.25767517096188042 0.08917824990966261 -0.051274653606860267 0.044087645417455003 -0.052276397038971169 0.067098644707603836 0.20134537167898472
leaf_weight=16761.303444445133 38.107076982036233 92.309463512152433 59.000324917957187 89.88763645850122 93.880248591303825 52.212348666973412 323.02635559625924 358.28620821423829 61.990593477152288 16.758119697682559 116.99748871102929 9.8558350801467878 4477.4609528146684 54.425792161375284 46.922837398946285 57.80121972411871 13.888882286846636 22.521640974096954 5.7429305678233495 85.946765102446079 392.61131848115474 83.129088297486305 57.523266045376658 601.57266840338707 97.074107283726335 59.148212121799588 20.536752976477146 68.605290554463863 90.728193016722798 594.17522626928985 79.052239700220525 106.24245780706406 128.4188747825101 57.286755382083356 153.358359195292 29.585278215818107 77.189534991048276 220.69731612503529 74.374756548553705 213.50348310917616 73.214521860703826 284.81704579666257 66.568299324251711 28.199762741103768 129.96108862198889 123.17834731936455 55.703155854716897 62.698972100391984 42.146713028661907 92.338896694593132 42.614394953474402 21.324592800810933 19.938449911773205 155.84587401524186 84.258912184275687 12.834601482376458 26.007046359591186 119.85765921603888 18.820953020825982 143.7459395378828 331.70336676947773 14.950888861902056
leaf_count=2730 130 1911 959 3170 422 248 2426 19205 2485 228 148 52 4289 432 315 1083 6 27 11 1903 18609 111 802 802 285 710 11 156 983 1180 2842 440 709 1377 508 368 392 943 1151 4542 795 636 201 693 337 76 334 89 915 304 149 123 12 186 1043 117 245 6571 515 6696 1782 44
internal_value=0.0860978 0.05256 0.0627403 0.0169884 0.0739181 0.164289 0.0603109 -0.0125422 0.0485698 0.0989387 0.0702132 0.0509142 0.0939993 0.0613772 0.0846066 0.0632809 0.0701022 0.0375575 -0.0281617 -0.00475042 -0.0308482 0.0695572 0.0633343 0.0796432 0.023039 0.0212961 0.0821693 0.0277025 0.0821755 0.0934448 0.0617852 0.0723049 0.0606638 0.0436007 0.0890692 0.0990384 0.164742 0.0569507 0.0218693 0.0203009 0.00249783 0.0997019 0.124496 0.0559021 0.043028 0.0899199 0.0494329 0.00549937 -0.00132452 0.141731 -0.00653156 0.0156163 0.0860041 0.056061 -0.00919869 -0.0337576 0.00174928 -0.0262325 0.130686 -0.0402111 0.0845752 0.0664423
internal_weight=27993.9 5337.78 4615.96 906.316 3709.65 146.093 475.597 721.816 186.009 124.018 3563.55 1363.61 22656.1 1204.27 5894.79 1175.75 1063.9 391.734 159.345 140.373 430.718 1117.95 1034.82 745.57 143.997 289.247 385.71 369.212 2199.94 1416.87 783.07 704.018 597.775 480.778 672.161 591.837 106.775 423.491 202.794 355.323 286.718 1326.14 471.924 94.7681 230.099 4719.04 241.58 118.402 62.6835 377.156 100.138 80.3249 854.218 260.043 104.197 535.806 177.52 145.865 31.6556 153.602 485.062 107.26
internal_count=100964 88852 57531 25261 32270 670 6522 31321 4668 2183 31600 18752 12112 11993 9382 4594 9658 5526 6759 2335 18739 3511 3400 1402 600 1998 3352 5499 12848 5238 7610 4768 4328 4180 4132 3050 760 2803 1860 5493 5337 4255 1834 894 1288 4788 499 423 926 940 951 1082 2421 1241 1055 26653 7448 6816 632 6748 2290 1955
is_linear=0
shrinkage=0.05


Tree=12
num_leaves=63
num_cat=0
split_feature=2 16 112 13 11 12 13 41 106 2 92 67 100 78 99 7 101 35 60 38 86 101 13 92 41 36 101 79 10 13 38 41 13 92 3 78 3 91 76 16 85 2 60 60 91 26 85 42 79 103 104 68 52 99 3 101 14 67 101 99 76 36
split_gain=2795.78 1229.53 798.666 667.931 428.53 361.889 386.462 339.172 319.52 312.736 308.964 306.999 273.586 254.834 242.385 237.998 317.87 203.712 268.936 193.034 170.889 246.64 336.337 167.302 166.404 180.053 165.854 161.298 198.637 196.512 180.021 155.445 153.875 264.549 150.729 146.503 270.154 219.954 167.852 173.302 142.417 158.705 129.57 214.062 153.259 126.031 124.675 124.641 145.739 124.342 212.68 210.546 181.362 176.364 330.051 218.261 158.876 150.38 150.024 191.594 164.709 205.7
threshold=14765.250000000002 10.050000000000002 1.0000000180025095e-35 0.57605713708605399 0.25881904510252057 0.99818282439137029 0.029024409397335523 1008.0500000000001 -0.1999999999999886 4115.0000000000009 5814.3447688376009 6.7812500000000009 1.9604421270043535 7.3054251782743664 1.1000000000000034 15.621000000000002 4.7666666666666675 7.2408207341900006 1.128568414703661 1027.6500000000003 1.820318819893912 2.2166666666666655 0.74298546529340237 8433.4230635123404 1010.2500000000001 8.5043196542500024 11.41666666666667 6.1717062633700008 -0.5 0.45847758937963173 1015.35 1017.5500000000001 0.88117331841669433 8892.4464928830403 9.4250000000000025 4.8129945530953693 7.9750000000000005 16204.708333333334 0.97192224619998868 5.2500000000000027 1021.3000000000001 8011.7500000000009 3.0327655146197237 3.1435118365718018 11651.375000000002 11.250000000000002 1022.5041666666668 990.50000000000011 9.901457883162502 3.1916666666666678 2.702103556359428 0.78291413670849408 1.1250000000000011 3.333333333333341 4.3750000000000009 7.4166666666666705 -0.46130913087034958 4.8625000000000025 3.783333333333335 2.5833333333333375 4.0820734340400087 12.294816414430002
decision_type=8 8 2 2 2 2 2 8 8 10 2 10 10 10 8 10 8 8 8 10 10 10 2 2 8 10 8 10 2 2 8 8 2 2 10 10 10 2 10 10 10 10 10 10 2 10 8 2 8 10 10 10 8 10 10 10 2 10 10 10 10 10
left_child=9 2 5 13 11 10 -7 8 17 -1 12 -5 24 14 -4 40 20 18 -3 27 21 -17 -23 -20 25 -2 -14 28 30 -30 -12 -31 -24 -34 -19 38 37 -37 39 -29 45 -42 -9 -44 -45 -11 -43 -47 -49 52 58 -52 -40 -53 -55 -56 -54 -57 59 -51 61 -60
right_child=1 7 3 4 -6 6 -8 42 -10 15 19 -13 26 -15 -16 16 -18 34 23 -21 -22 22 32 -25 -26 -27 -28 35 29 31 -32 -33 33 -35 -36 36 -38 -39 49 -41 41 46 43 44 -46 47 -48 48 -50 50 51 53 56 54 55 57 -58 -59 60 -61 -62 -63
leaf_value=0.092619426653595557 0.11067110906439979 0.33944228418905198 0.079057001687903153 -0.025360612217612391 -0.05349767385842237 0.048407164642977007 0.20655077540215072 -0.051286494991848376 -0.052096374755349645 0.090533260152273184 -0.016063078916939508 0.094464412188597566 0.12598841591529159 0.15077253031121016 -0.051654190408303574 0.076894525702262739 -0.057756372400546041 -0.051780254952565122 -0.051808612631682197 -0.023081062534069198 0.13198057008444572 -0.034998414407426875 0.11044698560143554 0.16625121380764507 -0.041252073168210321 -0.0542014117147466 -0.053471037278650851 0.058698287561738172 -0.056038764275378732 0.078109745375342765 0.099828164157165972 -0.05709953441406939 -0.067169165269384865 0.084985541258690914 0.091126299224754903 -0.062226050692339996 0.086940196209723722 0.083159878735530449 0.08928247715593296 -0.053751866154498666 0.08626889992339179 0.059703472708826338 0.11283238508402255 0.080774575316922836 -0.051213166026413952 0.086719215263225152 -0.043459131833222628 0.064320324180721908 -0.0096125377858793572 0.073087057077319259 -0.02563799605149893 0.10277633493121843 -0.059808359241872326 -0.024119396703776361 -0.017314950905409337 0.12878677033558572 0.049933619073990076 0.02361727325349592 0.097297693881619574 0.17227884704515323 0.15598905082789738 0.011698780635555441
leaf_weight=16728.888218089938 45.833491567522287 15.321123574860392 39.352905362844467 63.162486384622753 75.579669563099742 65.255620736628771 94.686663832515478 341.22537483926862 59.0798384770751 3595.4970835577697 42.216562646441162 347.7746859844774 70.406445921398699 18.563863255083561 359.14029197301716 688.6242557913065 55.310972517356277 30.12256911303848 13.294163210317491 55.214697650633752 87.839698454365134 139.30937043204904 99.166585005819798 25.9969064258039 152.25469822622836 25.926410952582955 15.755687136203049 284.17373961023986 78.063545362092555 90.144923678599298 162.46194087062031 27.816424055956304 46.467225391417742 74.161612080410123 47.622909363359213 81.260236441157758 138.38067487813532 38.265959491021931 342.58579948171973 38.9603217439726 124.30410459823906 55.459773475304246 34.685454454272985 27.243034305050969 114.14556669350713 511.47489698044956 62.059050317853689 350.56350551173091 82.306003767997026 70.024398501962423 52.215755799785256 361.8082939805463 38.007354508154094 99.27355477027595 43.65617246273905 157.22556434385478 249.34095616172999 43.364792509935796 498.9176657712087 159.72888528555632 95.896987732499838 81.673207884654403
leaf_count=2730 493 87 130 1984 2634 460 210 19205 2485 2806 523 1904 412 153 18456 963 1083 1230 557 960 111 1688 229 107 6820 917 756 1386 1745 373 735 592 362 158 202 1117 339 252 450 1246 76 89 632 245 6571 445 334 675 363 323 937 681 496 1923 663 563 1381 762 2546 535 244 1430
internal_value=0.0814136 0.0491242 0.0583735 0.0161205 0.0559223 0.0684184 0.142029 -0.0122695 0.044589 0.0891129 0.0651847 0.0760469 0.0174555 -0.0303101 -0.0387459 0.0792912 0.0592911 0.0877459 0.161757 0.0696296 0.0649922 0.059376 0.0257823 0.0924705 -0.0116672 0.0511037 0.0931723 0.0711924 0.0414732 0.00550087 0.0759247 0.0462261 0.0643059 0.0263743 0.035757 0.0753349 0.0393806 -0.0156812 0.0788784 0.0451402 0.0842723 0.0468843 -0.0333111 0.00152454 -0.0257815 0.0862638 0.00522562 0.0700082 0.0502627 0.0836314 0.0907946 0.0712421 0.0647119 0.0784142 0.052755 0.0840005 0.0354181 0.106051 0.107139 0.142047 0.0952832 0.0852563
internal_weight=28114.5 5413.11 4704.37 903.574 486.517 3800.8 159.942 708.737 191.438 22701.4 3640.86 410.937 310.177 417.057 398.493 5972.54 1190.88 132.358 54.6122 3330.68 1135.57 1047.73 359.105 39.2911 224.015 71.7599 86.1621 3275.46 400.703 196.025 204.679 117.961 219.795 120.629 77.7455 2874.76 257.907 119.526 2616.85 323.134 4781.66 241.823 517.299 176.074 141.389 4539.84 117.519 944.344 432.87 2293.72 1663.79 757.544 629.934 705.328 343.52 244.247 287.348 200.59 906.241 229.753 676.488 580.591
internal_count=100964 88852 57531 25261 6522 32270 670 31321 4668 12112 31600 3888 9398 18739 18586 9382 4594 2183 751 22202 3511 3400 2437 664 8230 1410 1168 21242 3968 2710 1258 965 749 520 1432 17274 1708 1369 15566 2632 4788 499 26653 7448 6816 4289 423 1483 1038 12934 10607 5529 2327 4592 3911 1988 1877 1325 5078 858 4220 3976
is_linear=0
shrinkage=0.05


Tree=13
num_leaves=63
num_cat=0
split_feature=2 16 110 13 11 2 41 5 9 109 106 67 12 68 110 99 76 103 77 81 38 99 106 103 79 105 89 3 75 85 13 64 35 60 82 14 79 18 60 104 107 60 60 38 90 75 61 92 42 103 85 2 72 106 42 54 107 80 43 48 68 55
split_gain=2645.81 1073.84 679.057 597.956 375.727 342.823 309.157 298.128 345.975 441.856 277.187 260.442 248.514 227.097 215.401 270.957 205.656 204.252 228.763 195.191 198.547 190.542 185.15 178.965 178.692 185.155 171.205 165.083 192.05 224.889 159.305 156.237 151.513 141.556 134.684 162.606 127.426 313.709 141.331 126.827 125.65 125.53 182.933 125.126 124.82 128.672 150.007 124.573 123.82 145.118 123.781 141.769 129.385 120.906 118.309 187.439 120.006 117.411 153.095 117.253 128.166 116.881
threshold=14765.250000000002 10.050000000000002 -113.52634999999999 0.57605713708605399 0.25881904510252057 4115.0000000000009 1008.0500000000001 3810.0000000000005 1.0000000180025095e-35 38.738700000000001 -0.1999999999999886 6.7812500000000009 0.94978112945126536 0.80037869824686836 -113.52634999999999 4.1000000000000139 4.0402049074196915 4.6208333333333353 12.181425485706667 1008.0333333333341 1010.85 1.1000000000000034 -0.55000000000001126 4.7875000000000023 6.762958963141668 -1.9999999999999429 15066.000000000002 2.7000000000000006 13.995680345279943 1014.6708333333333 0.76556758748011056 0.28867513459482635 7.2408207341900006 1.3982131454123923 0.39999999999826957 0.60818202301879276 8.022408207175836 5.8000000000000007 0.71203932475674736 4.0906304617243388 -6.0259179264399982 3.0327655146197237 3.1435118365718018 998.05000000000007 8881.9011073475522 6.9978401726399397 12.033333333333337 9195.198922306372 838.00000000000011 9.2958333333333361 1021.3000000000001 8011.7500000000009 3.0792084694814776 -5.1999999999999877 5943.5000000000009 1.2 -1.8952483800899989 6.5596624486701804 5943.5000000000009 0.22500000000000003 0.69391292790726189 9.7500000000000053
decision_type=8 8 2 2 2 10 8 2 2 2 8 10 2 10 2 8 8 10 8 8 8 8 8 10 10 8 2 8 10 10 2 8 8 8 10 2 10 10 10 10 8 10 10 10 2 10 10 2 2 10 10 10 10 8 2 10 8 10 2 2 8 10
left_child=5 2 3 21 11 -1 10 17 9 22 26 53 19 -11 15 27 24 18 54 -10 -21 -2 59 -19 25 -15 -3 -7 29 -29 61 -14 33 -28 35 -25 -26 38 -38 48 -24 -8 -43 -20 45 46 -13 -44 -36 -50 -16 -52 -53 -5 55 -4 -56 -23 -59 60 -9 -22
right_child=1 6 7 4 -6 14 41 8 12 13 -12 44 31 16 50 -17 -18 23 43 20 30 57 40 34 36 -27 32 28 -30 -31 -32 -33 -34 -35 39 -37 37 -39 -40 -41 -42 42 47 -45 -46 -47 -48 -49 49 -51 51 52 -54 -55 56 -57 -58 58 -60 -61 -62 -63
leaf_value=0.088549790773847212 0.073029357683427873 -0.052255866958415637 0.073428835784726837 0.14163109429658199 -0.053339865631054098 0.076037717826608953 -0.051225722217901885 0.047967926439852038 0.10359012157965763 -0.032223814110774428 -0.051998962312907737 0.10235169899218813 0.17416573497298388 0.089015530212795804 0.081191989744653484 -0.033712128056498029 -0.059330659063978844 0.17087665600309843 0.074736602836110305 -0.060360654482044175 0.071954534170399306 -0.051615912947710722 0.11671373216861132 0.01510100970797492 0.10518009643188629 -0.056303142167194897 0.24884408998116278 -0.04855323880818669 0.087909593803483899 0.046475213530367349 -0.0053375078413691688 0.086554820441228891 0.051707706452695026 0.084909538777879615 0.17464814558120573 0.094449792240833386 0.14022014981145817 0.084848427229230153 -0.059603369741525497 0.056708438809632548 -0.05275757969375159 0.09962747405546607 -0.051089307389239863 -0.061320321308082716 0.011394031688963574 0.16169310159179312 0.0086869952607372663 0.062887984549478151 0.087152497050124192 0.16451866888801048 0.081550824808508324 -0.043916206425294341 0.061488484025896441 -0.053959340310416798 0.11601304116987032 -0.018490906158370783 0.063614872357168908 0.14208035469563984 -0.051060249012496763 0.094118043661537476 -0.05433389656071045 -0.016371954616712182
leaf_weight=16625.245131462812 40.441221600398421 20.873072668910027 163.57681357115507 9.2972290925681591 72.100942181423306 731.45619577541947 324.95898730214685 67.211993767879903 196.93979072850198 69.124481181614101 56.301105578429997 194.85454069450498 82.56376628857106 37.195160047151148 4581.0703651569784 79.152102271094918 32.8945138361305 73.20766993239522 24.39036244340241 40.553996835835278 472.16801477782428 320.82267129514366 11.582433468662201 114.67679385561496 257.06586333457381 53.372919577173889 26.078618178144097 97.13532979786396 122.05336930043995 173.39827940613031 95.655376779846847 132.63539112079889 64.338477923534811 26.5995964538306 73.833717927336693 147.75112162623554 10.263977904804049 250.51278113201261 64.17947858478874 115.50168163236231 196.3649248899892 37.246564978733659 106.08890528976917 55.013665505684912 48.069383822381496 63.154340304434299 54.759142032824457 30.972086999565363 285.06854856573045 76.979514893144369 124.90302904509008 62.776973754167557 54.294373959302902 52.619547229260206 186.39131239615381 83.909960590302944 264.10433675721288 19.031790332868695 22.261425903998315 47.067838439717889 56.228817784227431 40.681390255689621
leaf_count=2730 130 741 291 3 2634 1380 19205 755 579 1390 2485 355 246 219 4289 1477 648 125 35 726 2430 17175 162 1153 1328 1350 83 781 290 666 1361 507 938 421 143 390 140 1760 1288 452 7986 632 6510 693 384 386 779 306 888 238 76 353 70 1981 321 770 895 117 1317 98 1780 1123
internal_value=0.0773101 0.0460991 0.054541 0.0153458 0.0521573 0.0848464 -0.0120428 0.0636096 0.0515913 0.0326308 0.0414877 0.0701499 0.0721931 0.0542654 0.0746296 0.0557034 0.0627398 0.0795984 0.0608885 0.0599897 0.0467603 -0.0299058 -0.0116502 0.0959958 0.0687099 0.00337739 0.0796587 0.0619998 0.0358447 0.0123552 0.0538994 0.120168 0.103189 0.166066 0.0892598 0.0597756 0.0788763 0.0580679 -0.0320525 0.103293 -0.0433182 -0.0328636 0.00136853 -0.019528 0.0864065 0.0979352 0.081804 -0.0253335 0.115637 0.103602 0.0793511 0.0444985 0.0049675 -0.0245901 0.0700368 0.0422636 0.0852945 -0.0414016 0.0379571 0.0269712 0.00136818 0.0649481
